<?xml version="1.0"?>
<MethodSetup Method="DNN::DNN_CPU">
  <GeneralInfo>
    <Info name="TMVA Release" value="4.2.1 [262657]"/>
    <Info name="ROOT Release" value="6.20/04 [398340]"/>
    <Info name="Creator" value="tifr"/>
    <Info name="Date" value="Thu Apr 21 19:02:40 2022"/>
    <Info name="Host" value="Linux tifr-Latitude-3400 4.15.0-1100-oem #110-Ubuntu SMP Thu Oct 15 15:02:18 UTC 2020 x86_64 x86_64 x86_64 GNU/Linux"/>
    <Info name="Dir" value="/home/tifr/lbyl_2018/analysis/photonID/photonID_PbPb2018/trainMVA"/>
    <Info name="Training events" value="722093"/>
    <Info name="TrainingTime" value="2.37577853e+03"/>
    <Info name="AnalysisType" value="Classification"/>
  </GeneralInfo>
  <Options>
    <Option name="V" modified="Yes">True</Option>
    <Option name="VerbosityLevel" modified="No">Verbose</Option>
    <Option name="VarTransform" modified="Yes">N</Option>
    <Option name="H" modified="Yes">False</Option>
    <Option name="CreateMVAPdfs" modified="No">False</Option>
    <Option name="IgnoreNegWeightsInTraining" modified="No">False</Option>
    <Option name="Layout" modified="Yes">TANH|128,TANH|128,TANH|128,LINEAR</Option>
    <Option name="ValidationSize" modified="No">20%</Option>
    <Option name="ErrorStrategy" modified="Yes">CROSSENTROPY</Option>
    <Option name="WeightInitialization" modified="Yes">XAVIERUNIFORM</Option>
    <Option name="Architecture" modified="Yes">CPU</Option>
    <Option name="TrainingStrategy" modified="Yes">LearningRate=1e-1,Momentum=0.9,Repetitions=1,ConvergenceSteps=20,BatchSize=256,TestRepetitions=10,WeightDecay=1e-4,Regularization=L2,DropConfig=0.0+0.5+0.5+0.5,</Option>
  </Options>
  <Variables NVar="5">
    <Variable VarIndex="0" Expression="phoSCEtaWidth" Label="phoSCEtaWidth" Title="phoSCEtaWidth" Unit="" Internal="phoSCEtaWidth" Type="F" Min="1.86607674e-13" Max="1.28223911e-01"/>
    <Variable VarIndex="1" Expression="phoSCPhiWidth" Label="phoSCPhiWidth" Title="phoSCPhiWidth" Unit="" Internal="phoSCPhiWidth" Type="F" Min="1.09825690e-12" Max="6.31592274e-01"/>
    <Variable VarIndex="2" Expression="phoHoverE" Label="phoHoverE" Title="phoHoverE" Unit="" Internal="phoHoverE" Type="F" Min="0.00000000e+00" Max="4.99922186e-01"/>
    <Variable VarIndex="3" Expression="phoSigmaIEtaIEta" Label="phoSigmaIEtaIEta" Title="phoSigmaIEtaIEta" Unit="" Internal="phoSigmaIEtaIEta" Type="F" Min="0.00000000e+00" Max="6.39080703e-02"/>
    <Variable VarIndex="4" Expression="phoR9" Label="phoR9" Title="phoR9" Unit="" Internal="phoR9" Type="F" Min="1.20198406e-01" Max="1.00000024e+00"/>
  </Variables>
  <Spectators NSpec="0"/>
  <Classes NClass="2">
    <Class Name="Signal" Index="0"/>
    <Class Name="Background" Index="1"/>
  </Classes>
  <Transformations NTransformations="1">
    <Transform Name="Normalize">
      <Selection>
        <Input NInputs="5">
          <Input Type="Variable" Label="phoSCEtaWidth" Expression="phoSCEtaWidth"/>
          <Input Type="Variable" Label="phoSCPhiWidth" Expression="phoSCPhiWidth"/>
          <Input Type="Variable" Label="phoHoverE" Expression="phoHoverE"/>
          <Input Type="Variable" Label="phoSigmaIEtaIEta" Expression="phoSigmaIEtaIEta"/>
          <Input Type="Variable" Label="phoR9" Expression="phoR9"/>
        </Input>
        <Output NOutputs="5">
          <Output Type="Variable" Label="phoSCEtaWidth" Expression="phoSCEtaWidth"/>
          <Output Type="Variable" Label="phoSCPhiWidth" Expression="phoSCPhiWidth"/>
          <Output Type="Variable" Label="phoHoverE" Expression="phoHoverE"/>
          <Output Type="Variable" Label="phoSigmaIEtaIEta" Expression="phoSigmaIEtaIEta"/>
          <Output Type="Variable" Label="phoR9" Expression="phoR9"/>
        </Output>
      </Selection>
      <Class ClassIndex="0">
        <Ranges>
          <Range Index="0" Min="3.8878344987836044e-12" Max="7.8622050583362579e-02"/>
          <Range Index="1" Min="1.0982569020878685e-12" Max="4.4560295343399048e-01"/>
          <Range Index="2" Min="0.0000000000000000e+00" Max="4.9992218613624573e-01"/>
          <Range Index="3" Min="0.0000000000000000e+00" Max="5.9406608343124390e-02"/>
          <Range Index="4" Min="1.2019840627908707e-01" Max="1.0000002384185791e+00"/>
        </Ranges>
      </Class>
      <Class ClassIndex="1">
        <Ranges>
          <Range Index="0" Min="1.8660767375777709e-13" Max="1.2822391092777252e-01"/>
          <Range Index="1" Min="1.4285923138901424e-11" Max="6.3159227371215820e-01"/>
          <Range Index="2" Min="0.0000000000000000e+00" Max="4.9984917044639587e-01"/>
          <Range Index="3" Min="0.0000000000000000e+00" Max="6.3908070325851440e-02"/>
          <Range Index="4" Min="1.5264154970645905e-01" Max="1.0000002384185791e+00"/>
        </Ranges>
      </Class>
      <Class ClassIndex="2">
        <Ranges>
          <Range Index="0" Min="1.8660767375777709e-13" Max="1.2822391092777252e-01"/>
          <Range Index="1" Min="1.0982569020878685e-12" Max="6.3159227371215820e-01"/>
          <Range Index="2" Min="0.0000000000000000e+00" Max="4.9992218613624573e-01"/>
          <Range Index="3" Min="0.0000000000000000e+00" Max="6.3908070325851440e-02"/>
          <Range Index="4" Min="1.2019840627908707e-01" Max="1.0000002384185791e+00"/>
        </Ranges>
      </Class>
    </Transform>
  </Transformations>
  <MVAPdfs/>
  <Weights InputWidth="5" Depth="4" LossFunction="C" OutputFunction="S">
    <Layer ActivationFunction="3">
      <Weights rows="128" cols="5">
        5.1564574241638184e-01 -1.2667417526245117e-01 -3.6265235394239426e-03 -2.8150487691164017e-02 2.0261866971850395e-02 -7.7989280223846436e-01 1.6200987994670868e-01 -1.6232550144195557e-02 3.8611017167568207e-02 -6.5648541785776615e-03 6.1342602968215942e-01 -1.2980088591575623e-01 5.0242543220520020e-03 -3.7174839526414871e-02 -4.7096952795982361e-02 1.0209441930055618e-01 9.2555530369281769e-02 5.9216119349002838e-02 -3.6939598619937897e-02 -4.8850291967391968e-01 -1.3908970169723034e-02 -5.1951665431261063e-02 -2.6691265404224396e-02 2.7730107307434082e-02 2.6124739646911621e-01 -4.2027151584625244e-01 1.0667008161544800e-01 6.6216960549354553e-03 2.4108931422233582e-02 -1.4859491959214211e-02 8.6800999939441681e-02 -4.7680784016847610e-02 -1.1912775225937366e-02 8.7865404784679413e-03 1.3348019123077393e-01 3.9022993296384811e-02 -4.6859722584486008e-02 -1.4970587566494942e-02 1.7528161406517029e-02 1.9135682284832001e-01 2.4110233411192894e-02 4.7630451619625092e-02 2.5392144918441772e-02 -2.1814787760376930e-02 -2.3576030135154724e-01 4.7280174493789673e-01 -1.0608042031526566e-01 9.2242209939286113e-04 -2.8305828571319580e-02 -2.0235566422343254e-02 2.9378670454025269e-01 1.5770561993122101e-01 1.0971498489379883e-01 -1.0802138596773148e-01 -9.8812371492385864e-01 1.9770783185958862e-01 9.5932021737098694e-02 7.0778556168079376e-02 -7.0376023650169373e-02 -6.1875104904174805e-01 6.4471739530563354e-01 -1.2266726046800613e-01 1.6922418028116226e-02 -3.5986043512821198e-02 -7.5605235993862152e-02 -1.1169156432151794e-01 6.4104579389095306e-02 1.6526479274034500e-02 -8.1153251230716705e-03 -1.6826179623603821e-01 -4.7006043791770935e-01 9.7224526107311249e-02 -7.4381791055202484e-03 2.6619007810950279e-02 3.5602658987045288e-02 -3.3632436394691467e-01 6.6097550094127655e-02 -5.4023521952331066e-03 2.3672966286540031e-02 5.6705255061388016e-02 2.0905707776546478e-01 -6.2448531389236450e-02 -4.6034073457121849e-03 -2.1268962882459164e-03 7.3333591222763062e-02 -4.6240124851465225e-02 -1.4289149083197117e-02 -1.1841105297207832e-02 1.4247984625399113e-02 1.1426273733377457e-01 -6.0977943241596222e-02 6.1386436223983765e-02 2.0672107115387917e-02 -1.9612835720181465e-02 -2.1865151822566986e-01 3.9948400855064392e-01 -1.0617102682590485e-01 -7.5861057266592979e-03 -2.1147476509213448e-02 3.7813454866409302e-02 6.9152867794036865e-01 -1.5038809180259705e-01 4.7544627450406551e-03 -3.8096804171800613e-02 -2.8961388394236565e-02 -8.3924695849418640e-02 -5.2697077393531799e-02 -3.5869237035512924e-02 3.3571161329746246e-02 3.2853242754936218e-01 2.1628178656101227e-01 1.1121975630521774e-01 7.3545657098293304e-02 -8.2071714103221893e-02 -7.3817855119705200e-01 6.6053968667984009e-01 -1.3608482480049133e-01 1.1979033239185810e-02 -3.5321608185768127e-02 -3.1031770631670952e-02 1.7453451454639435e-01 1.0318297147750854e-01 7.3341362178325653e-02 -6.2094502151012421e-02 -6.1381155252456665e-01 2.5270869955420494e-03 4.0311574935913086e-02 1.6876723617315292e-02 -1.9256375730037689e-02 -1.9807747006416321e-01 3.6260744929313660e-01 -7.5876176357269287e-02 5.0480640493333340e-03 -2.3621868342161179e-02 -3.9106924086809158e-02 -1.0450880654389039e-04 5.7142321020364761e-02 2.7532486245036125e-02 -1.8914058804512024e-02 -2.3798561096191406e-01 -2.8002613782882690e-01 4.7113068401813507e-02 -1.0033390484750271e-02 2.1553566679358482e-02 7.2760477662086487e-02 -1.9770571961998940e-02 -5.3955085575580597e-02 -2.6023851707577705e-02 2.7582691982388496e-02 2.6848345994949341e-01 1.0727033950388432e-02 4.9114361405372620e-02 2.2760877385735512e-02 -2.4393834173679352e-02 -2.4029062688350677e-01 -7.1586710214614868e-01 1.4421761035919189e-01 -1.5277114696800709e-02 3.5675983875989914e-02 2.7580842375755310e-02 4.8971202969551086e-01 -1.1886877566576004e-01 -2.6887473650276661e-03 -2.6103083044290543e-02 1.4759710058569908e-02 -1.5812769532203674e-01 1.1603564955294132e-02 -1.2630278244614601e-02 2.0577931776642799e-02 1.1061043292284012e-01 6.6542690992355347e-01 -1.3674905896186829e-01 1.1245997622609138e-02 -3.5818386822938919e-02 -4.2527630925178528e-02 -1.4872866868972778e-01 -1.0704548656940460e-01 -7.3415420949459076e-02 4.7603458166122437e-02 5.7251834869384766e-01 -2.3869786411523819e-02 4.8748381435871124e-02 2.0436609163880348e-02 -1.5314438380300999e-02 -1.8726646900177002e-01 1.1586809158325195e-01 -5.2958838641643524e-02 -6.8549648858606815e-03 1.5039650723338127e-02 1.5748567879199982e-01 2.9186463356018066e-01 -5.7801466435194016e-02 5.2387909963726997e-03 -2.0823795348405838e-02 -4.7452460974454880e-02 3.1698610633611679e-02 3.9308883249759674e-02 2.3448839783668518e-02 -2.2987212985754013e-02 -2.1615681052207947e-01 6.7954230308532715e-01 -1.4431296288967133e-01 6.9918176159262657e-03 -3.8469363003969193e-02 -4.1285458952188492e-02 -4.3731337785720825e-01 6.1742801219224930e-02 -2.5326306000351906e-02 3.0329858884215355e-02 1.1936844140291214e-01 1.6451616585254669e-01 -3.9103310555219650e-02 -1.0262929135933518e-03 -1.0115575976669788e-02 -2.1605871152132750e-03 -5.5337375402450562e-01 1.3091942667961121e-01 2.4351850152015686e-03 3.0766623094677925e-02 4.5937916729599237e-04 2.2892117500305176e-01 1.1572617292404175e-01 8.1956930458545685e-02 -8.2181021571159363e-02 -7.4116480350494385e-01 6.0143464803695679e-01 -1.3813903927803040e-01 -1.6492069698870182e-04 -3.5912595689296722e-02 -2.1274326369166374e-02 -5.9962332248687744e-01 1.3896057009696960e-01 1.7922439146786928e-03 3.5005323588848114e-02 1.7238855361938477e-02 9.0655103325843811e-02 9.7623445093631744e-02 6.3904158771038055e-02 -3.2493684440851212e-02 -4.6869415044784546e-01 7.1536250412464142e-02 7.7566206455230713e-02 4.9646154046058655e-02 -2.9882142320275307e-02 -3.9699068665504456e-01 -5.4255622625350952e-01 1.1410155147314072e-01 -7.6331957243382931e-03 2.9864991083741188e-02 3.2510668039321899e-02 -7.6090830564498901e-01 1.5450103580951691e-01 -1.5322293154895306e-02 4.0599517524242401e-02 3.1545605510473251e-02 -4.6648168563842773e-01 1.1017289757728577e-01 2.8000087477266788e-03 2.7804361656308174e-02 9.3565303832292557e-03 -2.4027031660079956e-01 4.7402836382389069e-02 -2.4114786647260189e-03 1.9476020708680153e-02 5.1013838499784470e-02 -1.8857331573963165e-01 -1.3467974960803986e-01 -8.9851096272468567e-02 5.4980333894491196e-02 7.2468441724777222e-01 1.0147105902433395e-01 2.4014152586460114e-02 2.2619815543293953e-02 -3.1264532357454300e-02 -2.2894710302352905e-01 1.3379693031311035e-01 1.0676401853561401e-01 7.0416912436485291e-02 -4.4035881757736206e-02 -5.7569617033004761e-01 2.5056236982345581e-01 1.5298236906528473e-01 1.0572857409715652e-01 -7.9303652048110962e-02 -8.9332723617553711e-01 4.2286327481269836e-01 -7.0061445236206055e-02 1.6750847920775414e-02 -2.8481064364314079e-02 -9.4516500830650330e-02 3.8599175214767456e-01 -9.5674559473991394e-02 -5.0733871757984161e-03 -2.3110605776309967e-02 5.0523355603218079e-03 -4.2146676778793335e-01 1.0772213339805603e-01 2.4404143914580345e-03 1.7060954123735428e-02 -5.2202399820089340e-02 -5.8995109796524048e-01 1.2830042839050293e-01 -4.9897935241460800e-03 3.3926282078027725e-02 2.7487605810165405e-02 -7.6121348142623901e-01 1.6594201326370239e-01 -5.8635119348764420e-03 4.2499724775552750e-02 2.7265449985861778e-02 8.1928074359893799e-02 4.0839262306690216e-02 2.8048163279891014e-02 -2.8320517390966415e-02 -2.5518041849136353e-01 2.2371271252632141e-01 1.2836302816867828e-01 9.0155445039272308e-02 -7.9009063541889191e-02 -7.7344274520874023e-01 1.0306850075721741e-01 7.5584828853607178e-02 5.2101116627454758e-02 -4.1962083429098129e-02 -4.1868788003921509e-01 -1.1868249624967575e-01 -8.4440402686595917e-02 -5.7570625096559525e-02 4.1088379919528961e-02 4.6427738666534424e-01 6.5728938579559326e-01 -1.3838580250740051e-01 6.9973058998584747e-03 -3.6874726414680481e-02 -4.6222195029258728e-02 4.8391661047935486e-01 -1.0768450796604156e-01 2.3309923708438873e-03 -2.7192408218979836e-02 -1.6097171232104301e-02 2.8943870216608047e-02 4.1298925876617432e-02 2.0411672070622444e-02 -2.3881169036030769e-02 -2.3488475382328033e-01 2.2778041660785675e-01 -6.0476288199424744e-02 7.4074845761060715e-03 1.8047537654638290e-02 1.3961082696914673e-01 -6.8048578500747681e-01 1.3119317591190338e-01 -1.7704641446471214e-02 3.6231517791748047e-02 5.7412605732679367e-02 -3.4703198075294495e-01 -2.0049647986888885e-01 -1.4744187891483307e-01 1.1064453423023224e-01 1.1715955734252930e+00 9.7645290195941925e-02 9.7004681825637817e-02 6.4623221755027771e-02 -3.9156649261713028e-02 -4.8899430036544800e-01 1.8937094509601593e-01 1.1175473034381866e-01 7.9215280711650848e-02 -6.6056601703166962e-02 -6.7946457862854004e-01 -2.4583512917160988e-02 3.6185722798109055e-02 1.1174475774168968e-02 -2.2676914930343628e-02 -1.8191497027873993e-01 -6.5066248178482056e-02 5.0893601030111313e-02 1.6379635781049728e-02 -1.3171604834496975e-02 -1.6150210797786713e-01 5.0217449665069580e-02 3.5296577960252762e-02 2.3745946586132050e-02 -2.2267267107963562e-02 -2.1103094518184662e-01 -7.4854129552841187e-01 1.6772258281707764e-01 -6.1958990991115570e-03 4.1060235351324081e-02 -7.3113557882606983e-03 1.4017540216445923e-01 9.7332358360290527e-02 6.5262332558631897e-02 -4.4070750474929810e-02 -5.4992985725402832e-01 -6.8440355360507965e-02 -6.7600727081298828e-02 -3.9128147065639496e-02 3.7655666470527649e-02 3.8387179374694824e-01 -1.4221575111150742e-02 4.4060662388801575e-02 1.9083557650446892e-02 -1.7602626234292984e-02 -1.8844954669475555e-01 -1.3593703508377075e-01 -2.7111420407891273e-02 -2.9271665960550308e-02 3.8653325289487839e-02 2.7693775296211243e-01 2.2431813180446625e-02 4.6003632247447968e-02 2.1537153050303459e-02 -2.5772908702492714e-02 -2.4445992708206177e-01 3.3539384603500366e-01 2.0054751634597778e-01 1.4522895216941833e-01 -9.0224951505661011e-02 -1.1252360343933105e+00 1.1160484701395035e-01 2.9562922194600105e-02 2.8653761371970177e-02 -3.1531419605016708e-02 -2.3792409896850586e-01 3.3340696245431900e-02 -4.5163847506046295e-02 -1.4160416088998318e-02 2.0660515874624252e-02 1.9859008491039276e-01 9.6773564815521240e-02 9.4348460435867310e-02 6.2249202281236649e-02 -3.3094968646764755e-02 -4.7628498077392578e-01 7.6238381862640381e-01 -1.5152779221534729e-01 1.7966605722904205e-02 -3.7120550870895386e-02 -2.7220822870731354e-02 -2.5595238804817200e-01 -1.3528536260128021e-01 -9.0595662593841553e-02 9.1601930558681488e-02 8.5367590188980103e-01 2.5514337420463562e-01 1.4949287474155426e-01 1.0379248112440109e-01 -8.4369778633117676e-02 -8.9110165834426880e-01 6.2977522611618042e-01 -1.3281358778476715e-01 8.5396580398082733e-03 -3.5915240645408630e-02 -3.5531096160411835e-02 5.4487794637680054e-02 -4.7745369374752045e-02 -1.5856908634305000e-02 1.3433936983346939e-02 1.6549061238765717e-01 -8.7788388133049011e-02 -4.1461788117885590e-02 -3.0228227376937866e-02 3.1529895961284637e-02 2.7446481585502625e-01 -2.6343327760696411e-01 -1.6703529655933380e-01 -1.1615647375583649e-01 6.6828034818172455e-02 9.4351434707641602e-01 -5.2057725191116333e-01 1.2082214653491974e-01 -3.8006878457963467e-04 2.7158431708812714e-02 -7.6128719374537468e-03 8.0157138407230377e-02 5.7068224996328354e-02 3.6359388381242752e-02 -3.1569283455610275e-02 -3.1377497315406799e-01 -6.3097321987152100e-01 1.3734616339206696e-01 -7.3350616730749607e-03 3.3373679965734482e-02 1.2429922819137573e-02 2.5770440697669983e-01 1.2697371840476990e-01 9.3026660382747650e-02 -9.7655795514583588e-02 -8.2874614000320435e-01 -6.7137613892555237e-02 -6.8053059279918671e-02 -3.9840750396251678e-02 3.1790241599082947e-02 3.5703790187835693e-01 7.3712360858917236e-01 -1.4627395570278168e-01 1.7243759706616402e-02 -3.8882784545421600e-02 -4.4540788978338242e-02 1.0988683998584747e-01 1.9381189486011863e-03 1.3399011455476284e-02 -1.7999030649662018e-02 -1.2201530486345291e-01 6.1076915264129639e-01 -1.1730272322893143e-01 1.4726261608302593e-02 -3.5118773579597473e-02 -7.2073191404342651e-02 -2.0486277341842651e-01 -1.2369515746831894e-01 -8.4806568920612335e-02 7.3309354484081268e-02 7.2796875238418579e-01 3.4441110491752625e-01 -7.4955023825168610e-02 2.1248932462185621e-03 -2.2332310676574707e-02 -2.9976759105920792e-02 7.1221017837524414e-01 -1.3648428022861481e-01 2.0000519230961800e-02 -3.6504548043012619e-02 -5.0636038184165955e-02 6.5298146009445190e-01 -1.4005582034587860e-01 9.9778277799487114e-03 -3.1767353415489197e-02 6.7939935252070427e-04 7.1015112102031708e-02 5.1049929112195969e-02 3.4630171954631805e-02 -3.0860003083944321e-02 -2.9556277394294739e-01 8.2009024918079376e-02 -6.0475639998912811e-02 -1.8343944102525711e-02 1.3424869626760483e-02 1.9784183800220490e-01 -9.3337103724479675e-02 -8.9442364871501923e-02 -5.3685169667005539e-02 3.8650982081890106e-02 4.7210443019866943e-01 7.2477561235427856e-01 -1.5521964430809021e-01 6.5002492628991604e-03 -4.1174244135618210e-02 -4.0291979908943176e-02 2.2084707021713257e-01 1.4141844213008881e-01 9.5018513500690460e-02 -6.8786703050136566e-02 -8.1249314546585083e-01 -2.4378485977649689e-01 7.8581236302852631e-02 7.2699449956417084e-03 -2.6154326042160392e-04 -1.1822572350502014e-01 -4.7181922942399979e-02 5.1335711032152176e-02 1.6182625666260719e-02 -2.1070452407002449e-02 -2.0538495481014252e-01 -5.3872483968734741e-01 1.3068027794361115e-01 2.1570015233010054e-03 2.8483305126428604e-02 -2.1494545042514801e-02 -6.0048714280128479e-02 4.3345887213945389e-02 1.2674422934651375e-02 -1.0233681648969650e-02 -1.4223621785640717e-01 -4.5289853215217590e-01 1.1474543064832687e-01 5.0180279649794102e-03 2.2767111659049988e-02 -3.5154875367879868e-02 1.8162478506565094e-01 1.2647527456283569e-01 8.9676640927791595e-02 -5.3407888859510422e-02 -6.8261182308197021e-01 3.5123780369758606e-02 -4.6216238290071487e-02 -1.5186241827905178e-02 2.1793739870190620e-02 1.9924372434616089e-01 -4.3524418026208878e-02 -5.0646442919969559e-02 -3.0949084088206291e-02 2.4955317378044128e-02 2.5926235318183899e-01 1.1158474534749985e-01 -6.1510868370532990e-02 -1.5360936522483826e-02 1.1358147487044334e-02 1.6688531637191772e-01 -1.3491694629192352e-01 -8.6302459239959717e-02 -5.8468982577323914e-02 5.1865518093109131e-02 5.0372707843780518e-01 7.2072267532348633e-01 -1.5538281202316284e-01 9.2907939106225967e-03 -3.6564402282238007e-02 -2.4165231734514236e-03 5.2406582981348038e-02 7.3070935904979706e-02 3.8986861705780029e-02 -3.1234916299581528e-02 -3.7535658478736877e-01 -2.7795186638832092e-01 5.8028843253850937e-02 -1.1026605498045683e-03 2.1460318937897682e-02 4.3992254883050919e-02 5.3090907633304596e-02 5.7265542447566986e-02 3.4070286899805069e-02 -3.4251265227794647e-02 -3.2248401641845703e-01 -5.8863806724548340e-01 1.3328713178634644e-01 -2.6926025748252869e-03 3.0894666910171509e-02 -6.3381087966263294e-04 -4.0978220105171204e-01 5.8005761355161667e-02 -2.3419540375471115e-02 2.7935797348618507e-02 1.1134833842515945e-01 -1.4614422619342804e-01 -8.6120925843715668e-02 -5.7997222989797592e-02 5.8190397918224335e-02 5.3422099351882935e-01 
      </Weights>
      <Biases rows="128" cols="1">
        2.8755661845207214e-01 -5.1470357179641724e-01 3.8608956336975098e-01 5.8191043138504028e-01 -2.4110099673271179e-01 -2.1945397555828094e-01 -5.6415244936943054e-02 -1.2563903629779816e-01 2.3268552124500275e-01 2.8830096125602722e-01 1.2991081476211548e+00 8.0514478683471680e-01 4.5246481895446777e-01 7.5861498713493347e-02 -3.1690445542335510e-01 -2.2320543229579926e-01 6.9824650883674622e-02 -1.2899608910083771e-01 1.3982895016670227e-01 1.9284521043300629e-01 4.4167137145996094e-01 -3.6758559942245483e-01 9.3377345800399780e-01 4.3999844789505005e-01 7.7371668815612793e-01 1.5947730839252472e-01 2.4181348085403442e-01 2.3635162413120270e-01 -2.2561784088611603e-01 -2.4920576810836792e-01 2.0641183853149414e-01 -4.7885736823081970e-01 2.7506190538406372e-01 -1.9300906360149384e-01 4.4424054026603699e-01 -7.3100143671035767e-01 1.5600813925266266e-01 -1.8589412793517113e-02 2.0266529917716980e-01 2.1796780824661255e-01 4.2923858761787415e-01 -3.8734754920005798e-01 8.8114306330680847e-02 -3.2495278120040894e-01 9.5489817857742310e-01 3.5836330056190491e-01 -3.5084813833236694e-01 5.6125175952911377e-01 4.5086416602134705e-01 -3.5513091087341309e-01 -5.0903540849685669e-01 -2.6809632778167725e-01 -1.6697242856025696e-01 -9.1095972061157227e-01 2.6595073938369751e-01 6.8941384553909302e-01 1.1689119338989258e+00 3.3898586034774780e-01 2.0223937928676605e-01 -2.2762197256088257e-01 -3.6846253275871277e-01 -4.7745516896247864e-01 3.0350628495216370e-01 9.8767751455307007e-01 5.0398588180541992e-01 -5.6950747966766357e-01 4.2372468113899231e-01 2.9531782865524292e-01 2.2316449880599976e-01 1.2390647083520889e-01 -4.7207498550415039e-01 -1.5854401588439941e+00 5.8529072999954224e-01 8.6537832021713257e-01 1.1030086874961853e-01 9.1244891285896301e-02 2.2243162989616394e-01 -4.6323004364967346e-01 6.8115007877349854e-01 -4.0645781159400940e-01 1.6070784628391266e-01 -3.4102076292037964e-01 2.0726898312568665e-01 1.5475783348083496e+00 2.9825663566589355e-01 -1.2898464500904083e-01 5.6945306062698364e-01 5.1541507244110107e-01 -1.1206322908401489e+00 1.1491301059722900e+00 4.0620881319046021e-01 -1.1592622846364975e-01 -3.0721473693847656e-01 -1.2590101957321167e+00 -3.0841201543807983e-01 3.6521121859550476e-01 -4.0499627590179443e-01 1.0724264383316040e+00 -3.9249512553215027e-01 4.9898815155029297e-01 1.7153424024581909e-01 4.2857345938682556e-01 -9.2752397060394287e-01 2.1233806014060974e-01 4.9749022722244263e-01 4.2446032166481018e-01 3.2730996608734131e-01 -1.0808674991130829e-01 -5.4348623752593994e-01 4.5360019803047180e-01 1.0353001356124878e+00 -8.5048995912075043e-02 1.2067357450723648e-01 -3.1045892834663391e-01 8.0524682998657227e-02 -2.4085652828216553e-01 8.7538105249404907e-01 -1.2362242490053177e-01 -2.7197679877281189e-01 -6.5396279096603394e-02 -6.0765939950942993e-01 4.6090164780616760e-01 3.9290151000022888e-01 -1.7416763305664062e-01 3.3092141151428223e-01 -3.5569408535957336e-01 -3.6245560646057129e-01 -6.4768493175506592e-01 
      </Biases>
    </Layer>
    <Layer ActivationFunction="3">
      <Weights rows="128" cols="128">
        -5.2464287728071213e-02 7.9357445240020752e-02 -6.2756836414337158e-02 4.8924549482762814e-03 -5.1587019115686417e-03 4.5501392334699631e-02 -1.3807959854602814e-02 -6.4517776481807232e-03 3.1352667137980461e-03 -4.8018433153629303e-02 3.9102341979742050e-03 -1.5215379185974598e-02 -6.1189167201519012e-02 1.6691688448190689e-02 4.8026133328676224e-02 3.6513525992631912e-02 -2.3722350597381592e-02 -5.7974178344011307e-04 5.4545616731047630e-03 -4.3419312685728073e-02 -7.0385888218879700e-02 -4.1365493088960648e-03 -2.0011095330119133e-02 -6.7489236593246460e-02 -7.2561348788440228e-03 1.4677664730697870e-03 -3.7105284631252289e-02 1.0604259558022022e-02 2.6600794866681099e-02 -2.1847826428711414e-04 3.5113995545543730e-04 7.5722664594650269e-02 -5.1180690526962280e-02 1.4218977652490139e-02 -6.7304581403732300e-02 5.8855609968304634e-03 7.0584560744464397e-03 -1.2073518708348274e-02 -2.9762232676148415e-02 1.2419021688401699e-02 -7.0709496736526489e-02 4.1367661207914352e-02 -1.9074356183409691e-02 5.8476287871599197e-02 -1.4351813122630119e-02 -6.1518602073192596e-02 6.2901414930820465e-02 1.2491071596741676e-02 9.4974599778652191e-03 5.6214507669210434e-02 7.6366752386093140e-02 4.7006990760564804e-02 2.5480465963482857e-02 2.9680269653908908e-04 -1.5246614348143339e-03 4.0266434662044048e-03 -9.4388388097286224e-03 -4.2524095624685287e-02 -4.2736299335956573e-02 4.4663015753030777e-02 6.2725253403186798e-02 7.9742938280105591e-02 -5.2631627768278122e-03 -2.5346621405333281e-03 -5.8856690302491188e-03 -8.2863448187708855e-03 -6.7927092313766479e-02 -5.3683102130889893e-02 -3.2475802581757307e-03 -2.7504630386829376e-02 6.8919330835342407e-02 1.4659012667834759e-03 -3.1588552519679070e-03 -6.2695248052477837e-03 9.9386144429445267e-03 8.9899552986025810e-03 1.2902513844892383e-03 7.5167030096054077e-02 3.0457258690148592e-03 7.7111370046623051e-05 7.4640698730945587e-03 4.7303736209869385e-03 -5.0385715439915657e-03 -1.1707053519785404e-02 -2.1785839926451445e-03 -2.5077278260141611e-03 1.0245814919471741e-03 -8.0727927386760712e-02 1.4229315333068371e-02 -4.5184700866229832e-05 -6.2138345092535019e-02 -7.5865327380597591e-03 7.3559777811169624e-03 1.4829838648438454e-02 5.5951628834009171e-02 -1.1004571570083499e-04 6.2545314431190491e-02 -5.5801467970013618e-03 -4.4778799638152122e-03 -7.3400817811489105e-02 -1.0365445166826248e-02 -5.9338070452213287e-02 -1.6336159314960241e-03 -3.7556104362010956e-02 -7.1508012712001801e-02 -6.5748460590839386e-02 -2.2019706666469574e-03 -9.6281552687287331e-03 9.4024678692221642e-03 -7.9623229801654816e-02 -1.5397011302411556e-02 2.2945135831832886e-02 1.0239003226161003e-02 5.3139314055442810e-02 8.2054091617465019e-03 4.9552947282791138e-02 2.6286602951586246e-04 -6.3977530226111412e-03 1.7565321177244186e-03 -1.6214987263083458e-02 1.1043929494917393e-02 -7.5480975210666656e-02 1.3382548931986094e-03 3.1066246330738068e-02 3.8983416743576527e-05 6.4051546156406403e-02 3.8292944431304932e-02 3.6207782104611397e-03 1.6763368621468544e-02 -2.5024160742759705e-02 1.8707728013396263e-02 -7.7248825691640377e-03 4.7110188752412796e-03 -1.4739211648702621e-02 6.2761041335761547e-03 3.8953337352722883e-03 -4.1357609443366528e-03 1.4939809218049049e-02 -1.0979086160659790e-02 -2.4308303836733103e-03 1.7276536673307419e-02 -7.4280947446823120e-03 -1.5181854367256165e-02 -1.0476800613105297e-02 8.1210937350988388e-03 1.7645008629187942e-03 -2.7685051318258047e-03 1.4000095427036285e-02 2.1655729040503502e-02 5.9669543989002705e-03 -7.6877116225659847e-04 2.0794693380594254e-02 -4.3808417394757271e-03 -3.1915064901113510e-03 1.1373385787010193e-02 -6.3910526223480701e-03 -7.2006536647677422e-03 4.3008234351873398e-03 -3.6252047866582870e-03 -2.3615345358848572e-02 1.5881141647696495e-02 -3.1811045482754707e-03 2.0769445225596428e-02 3.3706247340887785e-03 -4.8194634728133678e-03 5.2447700873017311e-03 8.3038769662380219e-03 -7.7209011651575565e-03 2.1659577265381813e-02 -1.0928852483630180e-02 6.1231642030179501e-03 -1.8469674512743950e-02 -2.1247614640742540e-03 1.8381649628281593e-02 -1.8828047439455986e-02 -8.5001140832901001e-03 -6.8820682354271412e-03 -1.7187012359499931e-02 -2.3561505600810051e-02 -1.4535832218825817e-02 -7.2913402691483498e-03 7.2951475158333778e-03 -2.6735111605376005e-03 -9.3926358968019485e-03 -7.5778439640998840e-03 1.1752657592296600e-02 1.3440230861306190e-02 -1.4973712153732777e-02 -1.9284959882497787e-02 -2.4389969184994698e-02 -6.3573318766430020e-04 -8.1894863396883011e-03 -3.2634695526212454e-03 8.7313167750835419e-03 2.0906148478388786e-02 1.6866568475961685e-02 -8.2341814413666725e-04 9.8659526556730270e-03 -2.0730471238493919e-02 1.2362333014607430e-02 -4.8701339401304722e-03 -5.0177662633359432e-03 -6.0015106573700905e-03 -4.8728138208389282e-03 -3.0712671577930450e-03 -2.3531677201390266e-02 -7.7269598841667175e-03 5.1159206777811050e-03 -5.1948362961411476e-03 2.1204657386988401e-03 -1.7973444191738963e-03 -7.4295289814472198e-03 -2.8494994621723890e-03 2.3213131353259087e-03 -8.3073107525706291e-03 2.5770302861928940e-02 4.7481856308877468e-03 -9.7239231690764427e-03 1.8453255295753479e-02 3.5272685345262289e-03 3.3859442919492722e-04 3.5295411944389343e-03 -1.8133156001567841e-02 -2.5029066018760204e-03 -1.9236708059906960e-02 -9.5634562894701958e-03 5.2021285519003868e-03 2.2554455325007439e-02 1.6237347153946757e-03 1.7935670912265778e-02 7.2382646612823009e-03 1.1468069627881050e-02 2.2108269855380058e-02 2.0540032535791397e-02 -2.0030420273542404e-03 5.2150418050587177e-03 1.3064403319731355e-03 2.4022445082664490e-02 -1.1023301631212234e-03 -8.5102273151278496e-03 -5.7083754800260067e-03 -1.7074104398488998e-02 -4.0448931977152824e-03 -1.6251206398010254e-02 -7.3622358031570911e-03 4.6902699396014214e-03 1.4866825658828020e-03 7.2527835145592690e-03 2.7590817771852016e-03 2.3842275142669678e-02 -4.8026354052126408e-03 -9.1820536181330681e-03 -4.4990703463554382e-03 -2.0157795399427414e-02 -9.9207051098346710e-03 4.9171498976647854e-03 -4.2495686560869217e-02 6.3715569674968719e-02 -5.0275381654500961e-02 6.0514402575790882e-03 -4.4894791208207607e-03 3.6538206040859222e-02 -1.1560103856027126e-02 -5.7265311479568481e-03 5.7605351321399212e-03 -3.8459263741970062e-02 3.8517070934176445e-03 -1.0095513425767422e-02 -4.7992423176765442e-02 1.4348003081977367e-02 3.8471277803182602e-02 2.9272742569446564e-02 -1.9670041278004646e-02 -1.2423601001501083e-03 5.4197190329432487e-03 -3.5232443362474442e-02 -5.7123821228742599e-02 -4.5329756103456020e-03 -1.2062452733516693e-02 -5.4274082183837891e-02 -4.1357968002557755e-03 2.7637199964374304e-03 -2.9771609231829643e-02 9.9966814741492271e-03 2.1367985755205154e-02 -2.1865002345293760e-03 2.0665563642978668e-03 6.1153370887041092e-02 -4.1540257632732391e-02 1.0563297197222710e-02 -5.3993176668882370e-02 1.5850736526772380e-03 6.8316506221890450e-03 -9.9809998646378517e-03 -2.3710129782557487e-02 1.0799815878272057e-02 -5.6340873241424561e-02 3.2503385096788406e-02 -1.5438267961144447e-02 4.7268327325582504e-02 -9.5463329926133156e-03 -4.9348969012498856e-02 5.0200138241052628e-02 9.4025125727057457e-03 9.2864986509084702e-03 4.5141704380512238e-02 6.1142623424530029e-02 3.7867825478315353e-02 1.9979245960712433e-02 -2.1013212390244007e-03 7.5251009548082948e-04 6.4672981388866901e-03 3.0612348928116262e-04 -3.3447679132223129e-02 -3.4767106175422668e-02 3.6725286394357681e-02 5.0292607396841049e-02 6.4039498567581177e-02 -3.2680078875273466e-03 2.4767769500613213e-03 -3.5929293371737003e-03 -8.5608465597033501e-03 -5.4193627089262009e-02 -4.3602596968412399e-02 -7.0233672158792615e-04 -2.2132240235805511e-02 5.5032573640346527e-02 -5.2679539658129215e-03 -1.8779069650918245e-03 -3.0900458805263042e-03 8.7319770827889442e-03 8.0973878502845764e-03 2.1350916940718889e-03 6.0689739882946014e-02 5.1455674692988396e-03 -2.9749835375696421e-03 7.1107116527855396e-03 2.8948509134352207e-03 -2.7760451193898916e-03 -1.0920137166976929e-02 -7.4676005169749260e-04 -3.5290259402245283e-03 5.3402786143124104e-03 -6.4779646694660187e-02 4.6736421063542366e-03 5.1034633070230484e-03 -5.0316557288169861e-02 -6.3503305427730083e-03 6.0210423544049263e-03 9.9645871669054031e-03 4.5633271336555481e-02 7.5561739504337311e-04 5.0618421286344528e-02 8.7940314551815391e-04 -6.1592608690261841e-03 -5.8633778244256973e-02 -8.1362714990973473e-03 -4.6618543565273285e-02 -1.9970184657722712e-03 -3.0139522626996040e-02 -5.7467970997095108e-02 -5.2070394158363342e-02 2.0662297902163118e-04 -9.2993443831801414e-03 6.7040198482573032e-03 -6.3248962163925171e-02 -8.6960578337311745e-03 1.9290136173367500e-02 8.6246486753225327e-03 4.3309781700372696e-02 7.3049799539148808e-03 4.0061317384243011e-02 2.8179849032312632e-03 -7.1184951812028885e-03 -5.5769039317965508e-04 -1.4020255766808987e-02 7.7135125175118446e-03 -6.1049792915582657e-02 2.7708280831575394e-03 2.4478767067193985e-02 2.6726832147687674e-03 5.1760088652372360e-02 2.9609963297843933e-02 1.0446293745189905e-03 5.3143673576414585e-03 -8.1362780183553696e-03 5.7160803116858006e-03 -4.6969722025096416e-03 2.0458442158997059e-03 -4.9958662129938602e-03 2.3841687943786383e-03 2.1806657314300537e-03 -2.3887658026069403e-03 4.8703816719353199e-03 -7.1694175712764263e-03 -2.8791069053113461e-03 5.3099971264600754e-03 -2.8471143450587988e-03 -4.7454782761633396e-03 -3.2291559036821127e-03 2.9251989908516407e-03 1.1198458960279822e-03 -1.8840787233784795e-03 4.6973600983619690e-03 7.0548229850828648e-03 2.7738846838474274e-03 -4.1764080524444580e-03 6.5141487866640091e-03 -4.7052702866494656e-03 -2.1665475796908140e-03 3.5540251992642879e-03 -3.0876523815095425e-03 -2.0958278328180313e-03 1.8609132384881377e-03 -2.6255261618643999e-03 -7.4905487708747387e-03 5.3709764033555984e-03 -4.9022637540474534e-04 6.5635330975055695e-03 3.4082513302564621e-03 -2.4762686807662249e-03 2.0050415769219398e-03 2.5665208231657743e-03 -3.2111285254359245e-03 6.7107100039720535e-03 -2.9516043141484261e-03 2.0443326793611050e-03 -6.1607523821294308e-03 -3.7525221705436707e-03 6.1614545993506908e-03 -6.1520040035247803e-03 -4.2765438556671143e-03 -3.8915090262889862e-03 -5.5593629367649555e-03 -7.3590576648712158e-03 -4.5990538783371449e-03 -1.9218823872506618e-03 6.5843798220157623e-03 -1.7216647975146770e-03 -6.1979573220014572e-03 -5.1610693335533142e-03 3.4601858351379633e-03 4.5769689604640007e-03 -5.0239060074090958e-03 -6.1265821568667889e-03 -7.7687827870249748e-03 -9.1129582142457366e-04 -5.5264472030103207e-03 -2.3467235732823610e-03 4.4013285078108311e-03 6.6065569408237934e-03 5.4741287603974342e-03 -1.8369320314377546e-03 3.5113631747663021e-03 -6.0474360361695290e-03 7.3361732065677643e-03 -3.1055472791194916e-03 -4.8503600992262363e-03 -2.1620297338813543e-03 -2.3840656504034996e-03 -1.8336344510316849e-03 -7.7863354235887527e-03 -4.6131815761327744e-03 3.6967499181628227e-03 -2.2686619777232409e-03 1.6106450930237770e-03 -1.4739909674972296e-03 -6.5987790003418922e-03 -1.8050476210191846e-03 1.9889175891876221e-03 -4.0833046659827232e-03 8.1803798675537109e-03 5.3540794178843498e-03 -8.1241661682724953e-03 6.2097962945699692e-03 1.4916206710040569e-03 1.1506438022479415e-03 5.0294757820665836e-03 -5.7330573908984661e-03 -3.0963455792516470e-03 -6.4869909547269344e-03 -5.9180790558457375e-03 3.6320295184850693e-03 7.1003804914653301e-03 -3.6792844184674323e-05 5.2762194536626339e-03 5.6054685264825821e-03 3.5301635507494211e-03 6.6631454974412918e-03 6.5279225818812847e-03 -1.9481426570564508e-03 2.3952987976372242e-03 3.2578324899077415e-03 7.5406017713248730e-03 -3.7305075675249100e-03 -3.4669488668441772e-03 -2.6057122740894556e-03 -5.6565394625067711e-03 -1.5927366912364960e-03 -5.2598873153328896e-03 -5.1469486206769943e-03 2.2601271048188210e-03 2.0791450515389442e-03 3.2494910992681980e-03 2.7688427362591028e-03 7.8670801594853401e-03 -3.4479673486202955e-03 -2.7636904269456863e-03 -2.4376551155000925e-03 -6.3898386433720589e-03 -2.4509481154382229e-03 3.5435485187917948e-03 6.3501633703708649e-03 -9.5593137666583061e-03 -1.0194699279963970e-02 -1.0441938042640686e-01 5.6835711002349854e-02 -6.2245521694421768e-03 3.2162014394998550e-02 4.2431317269802094e-02 -5.4343827068805695e-02 1.0030169505625963e-03 -2.0459789037704468e-01 -1.3119634985923767e-01 -1.0764062404632568e-02 -3.6516107618808746e-02 1.9707437604665756e-03 1.3999515213072300e-02 1.7880802974104881e-02 2.8019627556204796e-02 -5.6944154202938080e-02 8.5433153435587883e-03 1.5154654392972589e-03 7.0742622017860413e-02 -1.6348527371883392e-01 -9.4504765002056956e-04 -1.3721287250518799e-01 -4.7683395445346832e-02 -6.2829232774674892e-03 -5.1947012543678284e-02 1.5816938132047653e-02 6.5571695566177368e-02 -5.3432200103998184e-02 2.0619623828679323e-03 7.5366459786891937e-03 2.2516801953315735e-02 -3.0186495860107243e-04 1.2500801682472229e-01 -4.6910513192415237e-02 3.6359135061502457e-02 -9.5711853355169296e-03 -5.0562534481287003e-02 -5.2213734015822411e-03 2.5946261361241341e-02 4.6510979882441461e-04 -6.0190721414983273e-03 -1.6094720363616943e-01 1.3458579778671265e-03 6.3019024673849344e-04 -1.0288087278604507e-01 -8.3982132375240326e-02 2.2530735004693270e-03 -1.9254905637353659e-03 -6.3649167714174837e-05 1.2528791092336178e-02 1.6467726230621338e-01 -5.1702972501516342e-02 -1.3111783564090729e-01 -1.9547177851200104e-01 -2.0652877166867256e-02 4.3774931691586971e-03 -1.5901517122983932e-02 1.9532742444425821e-03 -1.5514313417952508e-04 -5.2999943494796753e-02 -1.6911435127258301e-01 -8.7596602737903595e-02 9.9694766104221344e-02 -6.8440330214798450e-03 -2.8340530116111040e-03 -5.6108094751834869e-02 3.4151043742895126e-02 1.1304811574518681e-02 2.4076654016971588e-01 -1.0431689769029617e-01 -1.4550875127315521e-01 -3.8638051599264145e-02 -3.7898134440183640e-02 -4.7641184180974960e-02 -1.1417523957788944e-02 -1.1682021617889404e-01 8.9172378182411194e-02 -3.9650175720453262e-02 6.4358264207839966e-02 -5.9360656887292862e-02 -2.3072646558284760e-01 -5.2936043590307236e-02 4.9872633069753647e-02 -1.0493467748165131e-01 -7.6650598202832043e-05 1.8877449631690979e-01 -1.9380140304565430e-01 -2.8725827578455210e-03 3.6619875580072403e-02 6.2243819236755371e-02 1.9833011925220490e-01 -2.9834667220711708e-03 -6.8517722189426422e-02 -5.9083611704409122e-03 -1.8217302858829498e-01 7.9866625368595123e-02 -1.7281571635976434e-03 -3.0322438105940819e-02 -7.6732179149985313e-03 1.6229294240474701e-01 -8.1058358773589134e-03 -6.9192429073154926e-03 6.7865485325455666e-03 -6.3806474208831787e-02 4.8582680523395538e-02 1.0089007765054703e-01 -4.6426490880548954e-03 -1.8054692447185516e-01 -3.5395141690969467e-02 -4.9294978380203247e-02 -1.1264664120972157e-02 -2.9795898124575615e-02 -9.0272789821028709e-03 -1.4531981945037842e-01 4.5092213898897171e-02 5.8550629764795303e-02 4.1195601224899292e-02 1.1633200198411942e-01 5.7191699743270874e-03 -8.6405374109745026e-02 1.0488784871995449e-02 -7.5220689177513123e-02 -2.1324523258954287e-03 2.6613401249051094e-02 1.1500149965286255e-01 -1.5488417819142342e-02 2.3177364841103554e-02 -1.7543466761708260e-02 8.9808125048875809e-03 -4.8745255917310715e-03 1.3502681627869606e-02 -6.0770516283810139e-03 -4.1469070129096508e-03 5.3933276794850826e-03 -1.3465365394949913e-02 1.2274905107915401e-02 3.5660993307828903e-03 -1.5765465795993805e-02 7.4071753770112991e-03 1.3515130616724491e-02 9.7136450931429863e-03 -7.7238604426383972e-03 -2.2198115475475788e-03 4.3893577530980110e-03 -1.3293286785483360e-02 -2.0637409761548042e-02 -7.4194711633026600e-03 4.5143989846110344e-03 -1.9327409565448761e-02 4.5408485457301140e-03 2.7827068697661161e-03 -1.0051353834569454e-02 7.1800849400460720e-03 6.5582231618463993e-03 -4.3370970524847507e-03 3.1002170871943235e-03 2.1726848557591438e-02 -1.5233960002660751e-02 2.8657517395913601e-03 -1.8788840621709824e-02 -6.0925642028450966e-03 4.0447753854095936e-03 -5.2330428734421730e-03 -7.8421393409371376e-03 6.8165599368512630e-03 -1.9435076043009758e-02 1.0245691984891891e-02 -5.8008460327982903e-03 1.7609059810638428e-02 2.9605901800096035e-03 -1.7205061390995979e-02 1.7845546826720238e-02 9.4433706253767014e-03 8.3265714347362518e-03 1.6040582209825516e-02 2.2203428670763969e-02 1.3517258688807487e-02 6.8343346938490868e-03 -1.0966374538838863e-02 2.9992884956300259e-03 9.6645308658480644e-03 1.0325990617275238e-02 -1.0841280221939087e-02 -1.3084148056805134e-02 1.3720333576202393e-02 1.8173104152083397e-02 2.2686596959829330e-02 8.4313214756548405e-04 8.4797404706478119e-03 3.7077893503010273e-03 -8.7643815204501152e-03 -1.8206238746643066e-02 -1.5754355117678642e-02 1.6027238452807069e-03 -9.8154246807098389e-03 1.8859161064028740e-02 -1.2623107992112637e-02 5.3290035575628281e-03 7.9470761120319366e-03 5.4105469025671482e-03 5.3011411800980568e-03 3.1754171941429377e-03 2.1965608000755310e-02 9.5796249806880951e-03 -6.7533142864704132e-03 4.8222560435533524e-03 -2.8896380681544542e-03 1.6904904041439295e-03 7.5383046641945839e-03 2.4978853762149811e-03 -2.5292397476732731e-03 7.0470552891492844e-03 -2.3625062778592110e-02 -5.7970024645328522e-03 1.2961264699697495e-02 -1.7687199637293816e-02 -4.3933554552495480e-03 -1.2309352168813348e-03 -6.1725364066660404e-03 1.6690958291292191e-02 4.3150414712727070e-03 1.7874076962471008e-02 1.1126880533993244e-02 -7.3787113651633263e-03 -2.0675690844655037e-02 -1.1318586766719818e-03 -1.6232529655098915e-02 -1.0167586617171764e-02 -1.0180007666349411e-02 -1.9637269899249077e-02 -1.8723987042903900e-02 3.2050937879830599e-03 -5.4863370023667812e-03 -3.7061460316181183e-03 -2.2430144250392914e-02 7.5735044665634632e-03 8.6269080638885498e-03 6.1400611884891987e-03 1.5399351716041565e-02 3.3648461103439331e-03 1.4979270286858082e-02 9.8620513454079628e-03 -4.7958134673535824e-03 -3.4759973641484976e-03 -7.6892985962331295e-03 -2.2400587331503630e-03 -2.1874757483601570e-02 4.4524860568344593e-03 8.4297321736812592e-03 4.7123674303293228e-03 1.8702946603298187e-02 8.9267110452055931e-03 -6.1183599755167961e-03 -3.7012692540884018e-02 5.5355764925479889e-02 -4.3609537184238434e-02 7.7983243390917778e-03 -6.1791567131876945e-03 3.2245066016912460e-02 -1.0693302378058434e-02 -6.0559078119695187e-03 5.0923312082886696e-03 -3.3304937183856964e-02 7.5845317915081978e-03 -5.3540710359811783e-03 -4.1210159659385681e-02 1.3141924515366554e-02 3.3615071326494217e-02 2.4918962270021439e-02 -1.7168702557682991e-02 -1.8032932421192527e-03 5.7992697693407536e-03 -3.0770562589168549e-02 -4.9234058707952499e-02 -5.0640651024878025e-03 -8.6973924189805984e-03 -4.6852190047502518e-02 -1.4395161997526884e-03 1.7354524461552501e-03 -2.5659013539552689e-02 9.7427656874060631e-03 1.7735430970788002e-02 -3.1883858609944582e-03 2.1903750021010637e-03 5.2967421710491180e-02 -3.6235343664884567e-02 9.1051142662763596e-03 -4.6575449407100677e-02 -1.9105625106021762e-03 6.3548251055181026e-03 -9.1826310381293297e-03 -2.0341480150818825e-02 1.0772146284580231e-02 -4.8554297536611557e-02 2.7314426377415657e-02 -1.3478411361575127e-02 4.1333775967359543e-02 -5.0336718559265137e-03 -4.2507350444793701e-02 4.3543398380279541e-02 1.1087230406701565e-02 8.6828954517841339e-03 3.9040371775627136e-02 5.2921660244464874e-02 3.2823178917169571e-02 1.7312906682491302e-02 -5.5274814367294312e-03 1.2530967360362411e-03 9.2009352520108223e-03 3.0806784052401781e-03 -2.8680311515927315e-02 -3.0271360650658607e-02 3.1866174191236496e-02 4.3401464819908142e-02 5.4698415100574493e-02 -2.3829571437090635e-03 4.0306341834366322e-03 -5.3142259275773540e-05 -1.0090775787830353e-02 -4.6947140246629715e-02 -3.7749420851469040e-02 -3.3649720717221498e-04 -2.0140549167990685e-02 4.7505412250757217e-02 -6.9094761274755001e-03 2.2756722755730152e-03 8.9076778385788202e-04 8.1839514896273613e-03 8.1601683050394058e-03 2.5082922074943781e-03 5.3102105855941772e-02 5.4702586494386196e-03 -3.7908786907792091e-03 6.8752570077776909e-03 6.3540617702528834e-04 -9.8515627905726433e-04 -1.8461777362972498e-03 -7.9906931205186993e-05 -2.8074523434042931e-03 5.1010414026677608e-03 -5.6546844542026520e-02 1.5031886287033558e-03 9.1112069785594940e-03 -4.3111491948366165e-02 -6.4184693619608879e-03 4.0618153288960457e-03 3.0794106423854828e-03 3.9530728012323380e-02 1.7048446461558342e-03 4.3813411146402359e-02 1.6308614285662770e-03 -6.4258328638970852e-03 -5.1034793257713318e-02 -6.1295689083635807e-03 -4.0575597435235977e-02 -4.2621372267603874e-03 -2.5990534573793411e-02 -4.9095798283815384e-02 -4.5840401202440262e-02 5.6440127082169056e-05 -8.3913682028651237e-03 3.9845183491706848e-03 -5.5216122418642044e-02 -4.0295189246535301e-03 1.7305551096796989e-02 8.3044413477182388e-03 3.7594616413116455e-02 6.5196235664188862e-03 3.5022895783185959e-02 7.9853301867842674e-03 -7.1038594469428062e-03 -1.1388257844373584e-03 -1.3455386273562908e-02 4.4682105071842670e-03 -5.3044386208057404e-02 4.6201227232813835e-03 2.1400842815637589e-02 3.9438586682081223e-03 4.5106071978807449e-02 2.4918140843510628e-02 -1.5922725433483720e-03 1.2476866133511066e-02 -1.8275283277034760e-02 1.3687685132026672e-02 -7.8954678028821945e-03 5.8050598017871380e-03 -1.0903993621468544e-02 6.1429832130670547e-03 4.3148929253220558e-03 -4.6394420787692070e-03 1.1027236469089985e-02 -1.3786317780613899e-02 -6.6069234162569046e-03 1.2735539115965366e-02 -6.6052665933966637e-03 -1.1228793300688267e-02 -7.0519479922950268e-03 6.5723857842385769e-03 2.4591728579252958e-03 -4.0225000120699406e-03 1.0585630312561989e-02 1.5607704408466816e-02 6.5849376842379570e-03 -6.4623332582414150e-03 1.5411818400025368e-02 -6.1200908385217190e-03 -3.8977535441517830e-03 8.3550708368420601e-03 -6.9125923328101635e-03 -4.9132951535284519e-03 4.9528595991432667e-03 -3.8356729783117771e-03 -1.6896372660994530e-02 1.2025296688079834e-02 -1.3556082267314196e-03 1.5831284224987030e-02 6.5366914495825768e-03 -4.9204495735466480e-03 4.9006473273038864e-03 5.9119756333529949e-03 -7.0961480960249901e-03 1.5661234036087990e-02 -7.0786499418318272e-03 4.4737192802131176e-03 -1.3677111826837063e-02 -8.4527898579835892e-03 1.4016594737768173e-02 -1.4031337574124336e-02 -9.7692739218473434e-03 -8.5282325744628906e-03 -1.2386168353259563e-02 -1.7650270834565163e-02 -1.0767855681478977e-02 -4.8253666609525681e-03 1.2401700951159000e-02 -3.5085708368569613e-03 -1.0437398217618465e-02 -1.1273543350398540e-02 7.8640347346663475e-03 1.0246921330690384e-02 -1.1579239740967751e-02 -1.4403519220650196e-02 -1.7661826685070992e-02 -3.2359098549932241e-03 -1.0648275725543499e-02 -4.6972413547337055e-03 7.3395478539168835e-03 1.4523835852742195e-02 1.2232421897351742e-02 -3.8245061878114939e-03 7.6725305989384651e-03 -1.4702544547617435e-02 1.2737413868308067e-02 -7.1807638742029667e-03 -7.6949927024543285e-03 -4.7888066619634628e-03 -4.6143406070768833e-03 -3.1171822920441628e-03 -1.8217030912637711e-02 -1.0404486209154129e-02 6.0608056373894215e-03 -5.0654280930757523e-03 3.4084366634488106e-03 -4.2824731208384037e-03 -1.4045778661966324e-02 -3.3562646713107824e-03 3.0802900437265635e-03 -8.5417423397302628e-03 1.8724920228123665e-02 9.7603043541312218e-03 -1.5297248959541321e-02 1.4131643809378147e-02 4.5433454215526581e-03 3.5567118320614100e-03 1.2405033223330975e-02 -1.3070455752313137e-02 -5.0323638133704662e-03 -1.4891176484525204e-02 -1.0454721748828888e-02 6.0228062793612480e-03 1.7214369028806686e-02 -1.5058806457091123e-04 1.3411351479589939e-02 1.0404452681541443e-02 8.0177523195743561e-03 1.5694046393036842e-02 1.5782516449689865e-02 -3.2893260940909386e-03 6.4805652946233749e-03 4.1252123191952705e-03 1.7720904201269150e-02 -8.9880954474210739e-03 -7.6031810604035854e-03 -6.1560044996440411e-03 -1.3150687329471111e-02 -3.6399033851921558e-03 -1.2025528587400913e-02 -1.2966786511242390e-02 4.7299056313931942e-03 2.4278587661683559e-03 6.6089201718568802e-03 5.5951583199203014e-03 1.7361866310238838e-02 -6.1475615948438644e-03 -6.4922072924673557e-03 -5.5142194032669067e-03 -1.4789285138249397e-02 -6.5706069581210613e-03 9.8016671836376190e-03 -4.2329169809818268e-02 6.3241958618164062e-02 -4.9904327839612961e-02 5.2769412286579609e-03 -5.7781105861067772e-03 3.6410808563232422e-02 -1.2002055533230305e-02 -5.9281447902321815e-03 4.0837698616087437e-03 -3.8348887115716934e-02 4.2719813063740730e-03 -1.0681937448680401e-02 -4.7747641801834106e-02 1.4520792290568352e-02 3.8148704916238785e-02 2.8800290077924728e-02 -1.9434079527854919e-02 -1.4862794196233153e-03 5.8404216542840004e-03 -3.4934096038341522e-02 -5.6121733039617538e-02 -3.5660022404044867e-03 -1.0774614289402962e-02 -5.3505945950746536e-02 -2.9048430733382702e-03 2.2437486331909895e-03 -2.9456486925482750e-02 1.1133837513625622e-02 2.0838566124439240e-02 -2.2753912489861250e-03 2.4944776669144630e-03 6.0153726488351822e-02 -4.1123483330011368e-02 1.0342915542423725e-02 -5.3781662136316299e-02 6.2117783818393946e-04 7.7343969605863094e-03 -1.0097379796206951e-02 -2.3426970466971397e-02 1.0278360918164253e-02 -5.6097079068422318e-02 3.1696103513240814e-02 -1.5136126428842545e-02 4.6218056231737137e-02 -6.3545913435518742e-03 -4.9077603965997696e-02 4.9787644296884537e-02 1.0389051400125027e-02 7.9049477353692055e-03 4.4493582099676132e-02 6.0952570289373398e-02 3.7710182368755341e-02 1.9984643906354904e-02 -4.3111806735396385e-03 -3.1834084074944258e-04 7.8402506187558174e-03 -1.3318016426637769e-03 -3.2566972076892853e-02 -3.4530155360698700e-02 3.6044400185346603e-02 4.9452949315309525e-02 6.2974035739898682e-02 -1.8698852509260178e-03 5.8109627570956945e-04 -2.5441602338105440e-03 -8.1818196922540665e-03 -5.3836815059185028e-02 -4.2936801910400391e-02 2.1433422807604074e-04 -2.2554038092494011e-02 5.4100368171930313e-02 -1.4133859658613801e-03 -3.4777529072016478e-04 -1.4279071474447846e-03 8.0376220867037773e-03 8.4029147401452065e-03 1.5723786782473326e-03 6.0574539005756378e-02 3.8408273831009865e-03 -2.9673387762159109e-03 7.1539673954248428e-03 3.4864202607423067e-03 -2.2751211654394865e-03 -7.6343445107340813e-03 -1.1499680113047361e-03 -2.4478323757648468e-03 4.8937979154288769e-03 -6.4481496810913086e-02 6.9707171060144901e-03 5.2645048126578331e-03 -4.9828682094812393e-02 -7.8128967434167862e-03 5.4120654240250587e-03 6.4627844840288162e-03 4.4809833168983459e-02 3.1982696964405477e-04 5.0147037953138351e-02 1.5162174822762609e-03 -6.9059859961271286e-03 -5.8846931904554367e-02 -7.7263941057026386e-03 -4.7197792679071426e-02 -1.6359651926904917e-03 -2.9677728191018105e-02 -5.6416366249322891e-02 -5.2346363663673401e-02 6.0734793805750087e-05 -1.0294596664607525e-02 5.2380235865712166e-03 -6.2612332403659821e-02 -4.4298362918198109e-03 1.9907033070921898e-02 9.0239699929952621e-03 4.3326459825038910e-02 6.8872934207320213e-03 3.9697282016277313e-02 3.6763160023838282e-03 -6.4001735299825668e-03 4.5586811029352248e-04 -1.3685476034879684e-02 5.9580532833933830e-03 -6.0382455587387085e-02 3.3522469457238913e-03 2.4575633928179741e-02 3.6591277457773685e-03 5.0956744700670242e-02 2.9670597985386848e-02 -5.4576888214796782e-04 3.4345105290412903e-02 -5.0832435488700867e-02 4.0877372026443481e-02 -5.2482523024082184e-03 3.5815145820379257e-03 -2.9942398890852928e-02 9.6205463632941246e-03 5.0335531122982502e-03 -3.5884708631783724e-03 3.1088052317500114e-02 -4.8180087469518185e-03 8.1771593540906906e-03 3.7884857505559921e-02 -1.1504676192998886e-02 -3.0833240598440170e-02 -2.3577287793159485e-02 1.5776786953210831e-02 1.5099643496796489e-03 -4.4946190901100636e-03 2.8348706662654877e-02 4.5247469097375870e-02 3.4965663217008114e-03 9.1902464628219604e-03 4.3244440108537674e-02 1.5272358432412148e-03 -1.7712245462462306e-03 2.3797310888767242e-02 -8.2598086446523666e-03 -1.6719285398721695e-02 1.7770627746358514e-03 -2.4680807255208492e-03 -4.8645135015249252e-02 3.3169846981763840e-02 -8.4167998284101486e-03 4.2952500283718109e-02 -2.0645596086978912e-03 -5.9958896599709988e-03 8.5592931136488914e-03 1.8833704292774200e-02 -9.7575224936008453e-03 4.5227587223052979e-02 -2.5636481121182442e-02 1.2573063373565674e-02 -3.7754263728857040e-02 5.9273559600114822e-03 3.9664894342422485e-02 -4.0268659591674805e-02 -8.5893413051962852e-03 -7.2930008172988892e-03 -3.5830691456794739e-02 -4.8362582921981812e-02 -3.0389720574021339e-02 -1.5827156603336334e-02 4.4114226475358009e-03 3.1859228329267353e-05 -7.2948150336742401e-03 3.1519441399723291e-03 2.6892036199569702e-02 2.7936521917581558e-02 -2.9473567381501198e-02 -4.0289338678121567e-02 -5.0551544874906540e-02 2.3415412288159132e-03 -6.6133384825661778e-04 9.8405079916119576e-04 7.4881156906485558e-03 4.4080253690481186e-02 3.4997120499610901e-02 1.3265234883874655e-06 1.8027503043413162e-02 -4.3775491416454315e-02 2.7212060522288084e-03 2.8588616987690330e-04 4.2437738738954067e-04 -7.7023715712130070e-03 -6.9067357107996941e-03 -1.8750837771221995e-03 -4.8581473529338837e-02 -5.3693451918661594e-03 2.4430060293525457e-03 -6.2410254031419754e-03 -1.9145053811371326e-03 1.9480796763673425e-03 3.7050761748105288e-03 3.6902769352309406e-05 1.9387803040444851e-03 -3.4200169611722231e-03 5.2190966904163361e-02 -5.9428955428302288e-03 -3.6192070692777634e-03 4.0228217840194702e-02 5.5092708207666874e-03 -4.6003479510545731e-03 -5.5143465287983418e-03 -3.6563050001859665e-02 -2.1262980590108782e-04 -3.9985138922929764e-02 2.1104565821588039e-03 5.0361333414912224e-03 4.6789776533842087e-02 6.4035486429929733e-03 3.7595935165882111e-02 2.4613887071609497e-03 2.4331299588084221e-02 4.5409988611936569e-02 4.1396547108888626e-02 -5.0919485511258245e-04 8.2238297909498215e-03 -5.2348957397043705e-03 5.0715014338493347e-02 6.1904806643724442e-03 -1.5336232259869576e-02 -7.1397810243070126e-03 -3.4703563898801804e-02 -6.6438093781471252e-03 -3.2709207385778427e-02 -2.6496881619095802e-03 5.0189383327960968e-03 -4.1578069794923067e-04 1.1786887422204018e-02 -7.4210958555340767e-03 4.8704523593187332e-02 -4.6016625128686428e-03 -1.9924551248550415e-02 -1.7345311352983117e-03 -4.1921921074390411e-02 -2.3731755092740059e-02 -1.8201800994575024e-03 -1.9008764997124672e-02 2.8077779337763786e-02 -2.2026207298040390e-02 6.2908339314162731e-03 -3.2877172343432903e-03 1.6607334837317467e-02 -6.2765218317508698e-03 -3.8684988394379616e-03 3.0804721172899008e-03 -1.7287174239754677e-02 7.2843139059841633e-03 -1.3813723344355822e-03 -2.0358042791485786e-02 7.5167976319789886e-03 1.7031492665410042e-02 1.2688862159848213e-02 -9.2492531985044479e-03 -1.5199849149212241e-03 3.6497865803539753e-03 -1.5770932659506798e-02 -2.4643721058964729e-02 -3.7663134280592203e-03 -5.6011858396232128e-04 -2.3617304861545563e-02 2.8946816455572844e-03 2.5738740805536509e-03 -1.3057011179625988e-02 6.2053804285824299e-03 8.6740553379058838e-03 -2.3351728450506926e-03 2.4033437948673964e-03 2.6590891182422638e-02 -1.8224151805043221e-02 3.9180610328912735e-03 -2.3483967408537865e-02 -1.0317836422473192e-03 4.7953967005014420e-03 -5.3367060609161854e-03 -9.9392989650368690e-03 6.8345195613801479e-03 -2.5122461840510368e-02 1.3366545550525188e-02 -6.9683194160461426e-03 2.0704563707113266e-02 -5.8017209084937349e-05 -2.1571867167949677e-02 2.2048126906156540e-02 6.9085923023521900e-03 6.4640254713594913e-03 1.9766004756093025e-02 2.6782426983118057e-02 1.6799738630652428e-02 8.5855973884463310e-03 -5.9397299773991108e-03 1.8001300049945712e-03 7.9113962128758430e-03 2.2012114059180021e-03 -1.4051434583961964e-02 -1.5660479664802551e-02 1.6400154680013657e-02 2.1974653005599976e-02 2.7622049674391747e-02 1.8501462182030082e-04 4.0093818679451942e-03 2.2477547172456980e-03 -7.0433719083666801e-03 -2.4159284308552742e-02 -1.9320091232657433e-02 1.3434493448585272e-03 -1.0696778073906898e-02 2.3668816313147545e-02 -6.3403588719666004e-03 3.2475572079420090e-03 1.7815934261307120e-03 5.2246232517063618e-03 4.4130119495093822e-03 1.9972391892224550e-03 2.6671897619962692e-02 5.9331404045224190e-03 -3.5941360983997583e-03 4.4834334403276443e-03 -1.3189178425818682e-03 -6.6649867221713066e-05 2.1802233532071114e-03 1.8486831104382873e-03 -1.9747994374483824e-03 3.9442931301891804e-03 -2.8654314577579498e-02 -1.8608788959681988e-03 6.3095022924244404e-03 -2.1901221945881844e-02 -4.1372217237949371e-03 9.6520991064608097e-04 1.4132850337773561e-03 2.0087206736207008e-02 1.7160929273813963e-03 2.1931786090135574e-02 4.5667099766433239e-03 -4.7464608214795589e-03 -2.5772999972105026e-02 -2.6879131328314543e-03 -2.0597200840711594e-02 -4.6103666536509991e-03 -1.3264410197734833e-02 -2.4896068498492241e-02 -2.2878963500261307e-02 1.4009273145347834e-03 -5.4232329130172729e-03 1.0145161068066955e-03 -2.7855720371007919e-02 1.1731768026947975e-03 8.8305324316024780e-03 5.2608293481171131e-03 1.9261641427874565e-02 4.3886434286832809e-03 1.8070349469780922e-02 5.6794788688421249e-03 -3.5985247232019901e-03 -9.8473904654383659e-04 -7.2867907583713531e-03 6.1818113317713141e-04 -2.7061535045504570e-02 4.5616319403052330e-03 1.0848413221538067e-02 3.3912605140358210e-03 2.3252757266163826e-02 1.2045041657984257e-02 -1.9244634313508868e-03 1.2063253670930862e-02 -1.7490627244114876e-02 1.3983584940433502e-02 -2.1877398248761892e-03 2.0285814534872770e-03 -1.0371843352913857e-02 3.4905592910945415e-03 1.9807144999504089e-03 -1.4313682913780212e-03 1.0604165494441986e-02 -2.1392102353274822e-03 1.9953711889684200e-03 1.2904099188745022e-02 -4.4687753543257713e-03 -1.0571937076747417e-02 -8.0594094470143318e-03 5.5547174997627735e-03 8.7027769768610597e-04 -1.7570963827893138e-03 1.0068718343973160e-02 1.5712579712271690e-02 1.9781705923378468e-03 3.3622707705944777e-03 1.5146615915000439e-02 1.0854925494641066e-03 -6.7046919139102101e-04 8.2629611715674400e-03 -3.3579638693481684e-03 -5.6951888836920261e-03 7.2410807479172945e-04 -8.5423432756215334e-04 -1.6986450180411339e-02 1.1424522846937180e-02 -2.9068808071315289e-03 1.4839016832411289e-02 -8.5860971012152731e-05 -2.1270632278174162e-03 3.3688398543745279e-03 6.5142759121954441e-03 -4.2895283550024033e-03 1.5417629852890968e-02 -8.6847040802240372e-03 4.4081248342990875e-03 -1.3362403027713299e-02 2.4774773046374321e-03 1.3661407865583897e-02 -1.3868998736143112e-02 -3.5607980098575354e-03 -2.7923278976231813e-03 -1.2360920198261738e-02 -1.6923535615205765e-02 -1.0520027950406075e-02 -5.4894774220883846e-03 1.9206005381420255e-03 -3.2466356060467660e-04 -2.5639659725129604e-03 -3.8958425284363329e-04 9.0970396995544434e-03 9.7151258960366249e-03 -1.0395610705018044e-02 -1.4025974087417126e-02 -1.7516558989882469e-02 4.7262644511647522e-04 -8.8930892525240779e-04 -1.5182600691332482e-05 3.1571430154144764e-03 1.5041498467326164e-02 1.2234232388436794e-02 3.0844596039969474e-05 6.6479421220719814e-03 -1.5210397541522980e-02 2.2153099998831749e-03 -2.0928989397361875e-04 -4.6107388334348798e-04 -2.9194594826549292e-03 -2.7392273768782616e-03 -9.6529285656288266e-04 -1.6795922070741653e-02 -2.4473730009049177e-03 1.3949642889201641e-03 -2.5353403761982918e-03 -2.5241757975891232e-04 2.6440792134962976e-04 1.2013086816295981e-03 -3.9971424848772585e-04 5.8247387642040849e-04 -2.2916104644536972e-03 1.8216772004961967e-02 -1.4525162987411022e-03 -2.3382310755550861e-03 1.3720418326556683e-02 2.0927360747009516e-03 -1.2725251726806164e-03 -1.0937276529148221e-03 -1.2718676589429379e-02 -9.7489065956324339e-04 -1.3775879517197609e-02 -7.4098832556046546e-05 2.4797618389129639e-03 1.6048882156610489e-02 1.9541722722351551e-03 1.2961627915501595e-02 1.5042989980429411e-03 8.3872675895690918e-03 1.5816232189536095e-02 1.4515114948153496e-02 -1.3024341023992747e-04 2.7847967576235533e-03 -1.1807186529040337e-03 1.7749352380633354e-02 1.2904900358989835e-03 -5.4316576570272446e-03 -2.8909812681376934e-03 -1.1933007277548313e-02 -2.4503008462488651e-03 -1.1440956033766270e-02 -1.6970213036984205e-03 2.3970110341906548e-03 6.6089897882193327e-04 4.4366489164531231e-03 -1.4329482801258564e-03 1.6875961795449257e-02 -1.6181585378944874e-03 -6.9058244116604328e-03 -8.1197847612202168e-04 -1.4499892480671406e-02 -8.0648027360439301e-03 7.7117915498092771e-04 4.2332306504249573e-02 -6.3100509345531464e-02 5.0120882689952850e-02 -6.5697594545781612e-03 4.6119885519146919e-03 -3.6215119063854218e-02 1.1394499801099300e-02 6.1708288267254829e-03 -5.3393701091408730e-03 3.8368348032236099e-02 -6.9411429576575756e-03 8.1373453140258789e-03 4.7472376376390457e-02 -1.4541065320372581e-02 -3.8320906460285187e-02 -2.8791978955268860e-02 1.9465012475848198e-02 1.4266796642914414e-03 -5.6755016557872295e-03 3.4551627933979034e-02 5.5827599018812180e-02 4.5426744036376476e-03 1.1183494701981544e-02 5.3161617368459702e-02 2.0030005834996700e-03 -3.1671221368014812e-03 2.9378430917859077e-02 -9.9701611325144768e-03 -2.0726907998323441e-02 3.0609841924160719e-03 -2.3421121295541525e-03 -5.9962481260299683e-02 4.0884926915168762e-02 -1.0157193057239056e-02 5.3319852799177170e-02 -3.3992447424679995e-03 -7.6647894456982613e-03 1.0445093736052513e-02 2.3099973797798157e-02 -1.1444060131907463e-02 5.6198071688413620e-02 -3.1743295490741730e-02 1.5100513584911823e-02 -4.6571824699640274e-02 8.0053973942995071e-03 4.8687808215618134e-02 -4.9636773765087128e-02 -1.0025512427091599e-02 -8.4508983418345451e-03 -4.4460501521825790e-02 -6.0510836541652679e-02 -3.7764266133308411e-02 -1.9905544817447662e-02 1.9725563470274210e-03 -1.1632611276581883e-03 -8.8436920195817947e-03 1.6477231401950121e-03 3.3041782677173615e-02 3.4477964043617249e-02 -3.6219581961631775e-02 -4.9651157110929489e-02 -6.2609955668449402e-02 3.0701942741870880e-03 -4.2726024985313416e-03 2.2766843903809786e-03 6.8646664731204510e-03 5.4236896336078644e-02 4.3129645287990570e-02 6.2744092429056764e-04 2.1880591288208961e-02 -5.4441440850496292e-02 8.1839524209499359e-03 -1.8059528665617108e-03 2.7591611724346876e-03 -9.3472013249993324e-03 -8.3265714347362518e-03 -1.8998706946149468e-03 -5.9962097555398941e-02 -6.8948981352150440e-03 3.4377861302345991e-03 -7.2796768508851528e-03 -2.7671027928590775e-03 2.7103023603558540e-03 6.7855161614716053e-03 3.6158403963781893e-04 3.0644796788692474e-03 -4.1181109845638275e-03 6.3916869461536407e-02 -5.8996407315135002e-03 -4.1090408340096474e-03 4.9719598144292831e-02 6.7649823613464832e-03 -5.3264359012246132e-03 -8.6057009175419807e-03 -4.4832702726125717e-02 -6.2766193877905607e-04 -4.9975007772445679e-02 -1.9700538832694292e-03 6.7203622311353683e-03 5.8629598468542099e-02 8.1474026665091515e-03 4.6519402414560318e-02 2.1028481423854828e-03 2.9986951500177383e-02 5.6368555873632431e-02 5.1755636930465698e-02 -8.1040139775723219e-04 9.5218112692236900e-03 -6.7169568501412868e-03 6.2508940696716309e-02 8.9141456410288811e-03 -1.9116051495075226e-02 -9.3194022774696350e-03 -4.2916439473628998e-02 -7.3594246059656143e-03 -3.9900340139865875e-02 -4.3786522001028061e-03 6.5567740239202976e-03 8.5818857769481838e-05 1.4085338450968266e-02 -6.8034832365810871e-03 6.0726128518581390e-02 -3.4187990240752697e-03 -2.4091009050607681e-02 -3.2768331002444029e-03 -5.1493663340806961e-02 -2.8930958360433578e-02 -2.1177488379180431e-03 -3.1771987676620483e-02 4.6854261308908463e-02 -3.6709990352392197e-02 9.2580076307058334e-03 -4.5545133762061596e-03 2.7608621865510941e-02 -1.0068091563880444e-02 -5.1132347434759140e-03 6.7268237471580505e-03 -2.8148811310529709e-02 1.4113422483205795e-02 -2.8034038841724396e-03 -3.3041991293430328e-02 1.2513764202594757e-02 2.8178041800856590e-02 2.1041456609964371e-02 -1.4889676123857498e-02 -2.6015685871243477e-03 4.9853017553687096e-03 -2.6504652574658394e-02 -4.1418071836233139e-02 -7.3194596916437149e-03 -4.7426801174879074e-03 -3.9449393749237061e-02 1.6665835864841938e-03 3.3877573441714048e-03 -2.1854424849152565e-02 9.6230339258909225e-03 1.4731354080140591e-02 -5.2907681092619896e-03 3.0966426711529493e-03 4.4728539884090424e-02 -3.0723964795470238e-02 7.1911332197487354e-03 -3.9286952465772629e-02 -2.0103028509765863e-03 6.3409223221242428e-03 -8.5903462022542953e-03 -1.7007583752274513e-02 1.1664283461868763e-02 -4.0635831654071808e-02 2.2676140069961548e-02 -1.1650135740637779e-02 3.5427939146757126e-02 2.0899635273963213e-04 -3.5740066319704056e-02 3.6388400942087173e-02 1.0741242207586765e-02 9.7119072452187538e-03 3.2815158367156982e-02 4.4500879943370819e-02 2.7325648814439774e-02 1.4399407431483269e-02 -9.9580083042383194e-03 1.6758572310209274e-03 1.0740921832621098e-02 5.4754083976149559e-03 -2.3833975195884705e-02 -2.5985999032855034e-02 2.7746208012104034e-02 3.7163637578487396e-02 4.6398594975471497e-02 -5.8286153944209218e-04 7.7887601219117641e-03 1.5166547382250428e-03 -1.2270681560039520e-02 -3.9165042340755463e-02 -3.2569855451583862e-02 5.7235622080042958e-04 -1.7941078171133995e-02 3.9805654436349869e-02 -1.3473707251250744e-02 5.2787974709644914e-04 4.2113685049116611e-03 8.0663552507758141e-03 8.4336679428815842e-03 3.8410073611885309e-03 4.4988024979829788e-02 9.9091976881027222e-03 -5.3503103554248810e-03 6.8555590696632862e-03 -1.0647685121512040e-04 -7.4502511415630579e-04 3.4975961316376925e-03 2.6531962212175131e-03 -2.1988330408930779e-03 7.3891277424991131e-03 -4.7713831067085266e-02 -6.3814368331804872e-04 1.2460252270102501e-02 -3.6222711205482483e-02 -5.6038382463157177e-03 2.0834158640354872e-03 2.8317311080172658e-04 3.4029215574264526e-02 2.7764120604842901e-03 3.7036001682281494e-02 8.4810731932520866e-03 -7.8772716224193573e-03 -4.2639654129743576e-02 -5.6644263677299023e-03 -3.3055040985345840e-02 -8.6781289428472519e-03 -2.2267438471317291e-02 -4.1282169520854950e-02 -3.8176458328962326e-02 2.2466031368821859e-03 -8.4672784432768822e-03 1.7881419043987989e-03 -4.6102922409772873e-02 3.9740890497341752e-04 1.4941709116101265e-02 8.9451624080538750e-03 3.2084211707115173e-02 7.0628705434501171e-03 3.0388411134481430e-02 9.2422328889369965e-03 -7.4046477675437927e-03 -8.4537040675058961e-04 -1.2119950726628304e-02 2.4451382923871279e-03 -4.5004852116107941e-02 6.9711995311081409e-03 1.7724888399243355e-02 4.8670028336346149e-03 3.8725994527339935e-02 2.0634973421692848e-02 -2.9353285208344460e-03 -4.9089957028627396e-02 7.3860749602317810e-02 -5.8288581669330597e-02 6.3121658749878407e-03 -4.8478818498551846e-03 4.2675103992223740e-02 -1.2941671535372734e-02 -5.8935885317623615e-03 6.3338428735733032e-03 -4.4766478240489960e-02 9.5158349722623825e-03 -1.1781740933656693e-02 -5.5352821946144104e-02 1.6246959567070007e-02 4.5320563018321991e-02 3.3430613577365875e-02 -2.2395467385649681e-02 -1.4989713672548532e-03 5.6744068861007690e-03 -4.0591418743133545e-02 -6.6498540341854095e-02 -3.4779061097651720e-03 -1.5047891065478325e-02 -6.2748588621616364e-02 -4.2632012628018856e-03 2.6775544974952936e-03 -3.4759063273668289e-02 1.0353303514420986e-02 2.4411732330918312e-02 -4.3547810055315495e-03 2.1829563193023205e-03 7.0336692035198212e-02 -4.7846723347902298e-02 1.2770506553351879e-02 -6.3255444169044495e-02 1.6992909368127584e-03 8.0534834414720535e-03 -1.1383975856006145e-02 -2.7285452932119370e-02 1.2493749149143696e-02 -6.4756825566291809e-02 3.7608053535223007e-02 -1.7707485705614090e-02 5.5147003382444382e-02 -1.2652408331632614e-02 -5.6736178696155548e-02 5.8167509734630585e-02 9.0257041156291962e-03 9.0773431584239006e-03 5.2293051034212112e-02 7.0693232119083405e-02 4.3890498578548431e-02 2.3168873041868210e-02 -3.9490507333539426e-04 -5.5263581452891231e-04 8.2830032333731651e-03 -1.5884228050708771e-03 -3.9076816290616989e-02 -4.0042933076620102e-02 4.2552124708890915e-02 5.7929683476686478e-02 7.4182480573654175e-02 -4.1519561782479286e-03 3.8163249846547842e-03 -4.2116907425224781e-03 -1.0088135488331318e-02 -6.2777332961559296e-02 -5.0316561013460159e-02 -2.6327751111239195e-03 -2.5610337033867836e-02 6.3841082155704498e-02 -6.1432318761944771e-03 -2.5934698060154915e-03 -3.2742123585194349e-03 1.0274646803736687e-02 1.0340470820665359e-02 1.6001216135919094e-03 7.0454284548759460e-02 5.2921897731721401e-03 -1.5437323600053787e-03 7.8135002404451370e-03 3.9665466174483299e-03 -3.2779097091406584e-03 -8.9385388419032097e-03 -4.7268660273402929e-04 -3.1221248209476471e-03 5.5400221608579159e-03 -7.4904419481754303e-02 4.6506002545356750e-03 6.3992450013756752e-03 -5.7756137102842331e-02 -6.9095729850232601e-03 7.4371816590428352e-03 9.4047700986266136e-03 5.3111162036657333e-02 1.1461132089607418e-04 5.8739259839057922e-02 1.4455834170803428e-03 -7.0187384262681007e-03 -6.7926630377769470e-02 -9.6536409109830856e-03 -5.3596388548612595e-02 -3.5843537189066410e-03 -3.4934066236019135e-02 -6.6382586956024170e-02 -6.1152774840593338e-02 -1.1201666202396154e-03 -1.0371306911110878e-02 8.3249388262629509e-03 -7.3019511997699738e-02 -1.0372091084718704e-02 2.1394820883870125e-02 9.8437052220106125e-03 5.0105765461921692e-02 8.5949655622243881e-03 4.6769347041845322e-02 4.0101711638271809e-03 -8.4885414689779282e-03 5.4570712381973863e-04 -1.6285205259919167e-02 7.9189939424395561e-03 -7.0713773369789124e-02 4.1891094297170639e-03 2.8244374319911003e-02 3.5634855739772320e-03 6.0233276337385178e-02 3.4017097204923630e-02 2.1978095173835754e-03 -5.6419582106173038e-03 8.3592087030410767e-03 -6.1734253540635109e-03 3.1599467620253563e-03 -1.8024290911853313e-03 4.9438853748142719e-03 -2.4584976490586996e-03 -1.5857256948947906e-03 1.8545703496783972e-03 -4.8981583677232265e-03 5.6632375344634056e-03 1.3730216305702925e-03 -5.5808806791901588e-03 2.9027468990534544e-03 5.0075636245310307e-03 3.4626380074769258e-03 -2.8925233054906130e-03 -9.6831715200096369e-04 1.4259963063523173e-03 -4.7911470755934715e-03 -7.4102967046201229e-03 -2.1011608187109232e-03 1.9074297742918134e-03 -7.0809810422360897e-03 2.2451009135693312e-03 1.2944854097440839e-03 -3.8106651045382023e-03 2.4365324061363935e-03 2.1940986625850201e-03 -1.8914933316409588e-03 1.3913764851167798e-03 7.8793382272124290e-03 -5.5345152504742146e-03 8.5799698717892170e-04 -7.0133213885128498e-03 -2.5505861267447472e-03 1.8254052847623825e-03 -1.9229402532801032e-03 -2.8222198598086834e-03 3.1038823071867228e-03 -6.8667461164295673e-03 3.2490154262632132e-03 -2.1296420600265265e-03 6.4416555687785149e-03 2.9058018699288368e-03 -6.3109844923019409e-03 6.4449738711118698e-03 3.4220055676996708e-03 3.0033066868782043e-03 5.7964255101978779e-03 7.7296900562942028e-03 4.7523085959255695e-03 2.2789577487856150e-03 -4.6726739965379238e-03 1.2240585638210177e-03 3.6022386047989130e-03 4.6582799404859543e-03 -3.8539995439350605e-03 -4.6370141208171844e-03 5.1537589170038700e-03 6.5025105141103268e-03 8.2338452339172363e-03 6.4569333335384727e-04 4.7824066132307053e-03 1.6850554384291172e-03 -4.2613036930561066e-03 -6.9616348482668400e-03 -5.6570884771645069e-03 6.4692890737205744e-04 -3.5051086451858282e-03 6.9117150269448757e-03 -6.1027305200695992e-03 2.1450798958539963e-03 3.3633825369179249e-03 2.0217071287333965e-03 2.0715009886771441e-03 1.4217102434486151e-03 8.0269668251276016e-03 3.9680376648902893e-03 -2.6121689006686211e-03 1.8165580695495009e-03 -1.2252419255673885e-03 1.0533580789342523e-03 4.2412318289279938e-03 1.3531249715015292e-03 -1.2810451444238424e-03 3.5726197529584169e-03 -8.4557505324482918e-03 -3.8275376427918673e-03 6.2512545846402645e-03 -6.2291850335896015e-03 -1.1983056319877505e-03 -2.8057559393346310e-04 -3.2424882519990206e-03 5.9494059532880783e-03 1.6614291816949844e-03 6.6844490356743336e-03 4.1791736148297787e-03 -2.9977981466799974e-03 -7.3292609304189682e-03 -4.6466942876577377e-04 -5.7253181003034115e-03 -4.5813024044036865e-03 -3.7467475049197674e-03 -7.0412466302514076e-03 -7.0326849818229675e-03 1.2658021878451109e-03 -1.9602533429861069e-03 -1.8678781343623996e-03 -8.1393662840127945e-03 3.8256193511188030e-03 3.3521724399179220e-03 2.3376180324703455e-03 5.8707096613943577e-03 1.5307262074202299e-03 5.4691298864781857e-03 4.2659719474613667e-03 -2.0178651902824640e-03 -1.3332124799489975e-03 -3.0602253973484039e-03 -1.3586122076958418e-03 -8.0932704731822014e-03 2.3602508008480072e-03 3.0229357071220875e-03 2.4580906610935926e-03 6.7457538098096848e-03 2.9583519790321589e-03 -3.0397512018680573e-03 -1.1948514729738235e-02 1.8093051388859749e-02 -1.3792813755571842e-02 4.6659014187753201e-03 -3.6004167050123215e-03 1.0821785777807236e-02 -4.7521521337330341e-03 -3.7203482352197170e-03 4.1568828746676445e-03 -1.0949826799333096e-02 8.7681422010064125e-03 2.2046226076781750e-03 -1.2607244774699211e-02 5.8554653078317642e-03 1.0837780311703682e-02 7.9782521352171898e-03 -6.3082408159971237e-03 -1.8521993188187480e-03 3.4188786521553993e-03 -1.0193595662713051e-02 -1.5521052293479443e-02 -4.9479561857879162e-03 3.7135805469006300e-03 -1.4805524609982967e-02 5.2750590257346630e-03 3.0706671532243490e-03 -8.1993667408823967e-03 5.8272518217563629e-03 5.0466563552618027e-03 -3.5971812903881073e-03 2.3743694182485342e-03 1.7117600888013840e-02 -1.1840386316180229e-02 1.9527155673131347e-03 -1.4700402505695820e-02 -3.6916108801960945e-03 3.6862941924482584e-03 -4.0783565491437912e-03 -6.2637315131723881e-03 5.9892763383686543e-03 -1.6115076839923859e-02 8.0835567787289619e-03 -4.5810602605342865e-03 1.3470162637531757e-02 4.3585319072008133e-03 -1.3919556513428688e-02 1.4280028641223907e-02 6.9497865624725819e-03 7.2807259857654572e-03 1.2487733736634254e-02 1.6986826434731483e-02 1.0457763448357582e-02 5.1775109022855759e-03 -9.8512237891554832e-03 2.2113523446023464e-03 8.6412094533443451e-03 7.3406891897320747e-03 -8.5905715823173523e-03 -1.0120671242475510e-02 1.0711546055972576e-02 1.4033582061529160e-02 1.7372909933328629e-02 4.1226393659599125e-04 7.6454505324363708e-03 3.2481283415108919e-03 -6.4238798804581165e-03 -1.4829584397375584e-02 -1.2462151236832142e-02 2.1850650664418936e-03 -7.4304682202637196e-03 1.4941305853426456e-02 -1.0458035394549370e-02 4.5443745329976082e-03 5.2635809406638145e-03 4.0791779756546021e-03 3.9366348646581173e-03 2.4857677053660154e-03 1.7414314672350883e-02 5.9986710548400879e-03 -5.4470701143145561e-03 3.6698470357805490e-03 -2.4064793251454830e-03 8.0586306285113096e-04 6.0460511595010757e-03 2.5240331888198853e-03 -2.5229423772543669e-03 4.8762736842036247e-03 -1.8303295597434044e-02 -4.2869267053902149e-03 1.0345956310629845e-02 -1.3770714402198792e-02 -3.6558352876454592e-03 -9.7474548965692520e-04 -3.1550305429846048e-03 1.3154262676835060e-02 3.0225086957216263e-03 1.4195093885064125e-02 8.3384914323687553e-03 -5.8795721270143986e-03 -1.6657495871186256e-02 -1.1658286675810814e-03 -1.2584775686264038e-02 -5.7722358033061028e-03 -8.3882734179496765e-03 -1.5248659066855907e-02 -1.4374984428286552e-02 2.5209512095898390e-03 -4.5393016189336777e-03 -2.1327252034097910e-03 -1.7733683809638023e-02 5.6793042458593845e-03 6.7818695679306984e-03 4.1050342842936516e-03 1.2279091402888298e-02 2.9310148674994707e-03 1.1760605499148369e-02 7.2069121524691582e-03 -4.0985182859003544e-03 -2.1450573112815619e-03 -6.1238724738359451e-03 -1.9035410368815064e-03 -1.7399858683347702e-02 5.5591934360563755e-03 6.6475882194936275e-03 3.4918407909572124e-03 1.5051914379000664e-02 7.0681269280612469e-03 -3.9897267706692219e-03 -2.3445501923561096e-02 3.4579504281282425e-02 -2.7269940823316574e-02 4.3142586946487427e-03 -3.9347680285573006e-03 2.0463142544031143e-02 -7.5978967361152172e-03 -4.1957898065447807e-03 3.6902595311403275e-03 -2.0713254809379578e-02 7.0327403955161572e-03 -4.1618873365223408e-03 -2.5054309517145157e-02 9.1882990673184395e-03 2.0962867885828018e-02 1.5850672498345375e-02 -1.1276445351541042e-02 -1.6258519608527422e-03 3.4719533286988735e-03 -1.9605975598096848e-02 -3.0274333432316780e-02 -4.4542369432747364e-03 -5.4533611983060837e-03 -2.9508946463465691e-02 6.1782146804034710e-04 2.0760963670909405e-03 -1.6122708097100258e-02 7.2638941928744316e-03 1.0727391578257084e-02 -2.4571754038333893e-03 1.6034877626225352e-03 3.3371690660715103e-02 -2.2448414936661720e-02 5.3374152630567551e-03 -2.9105897992849350e-02 -8.9929508976638317e-04 4.9071428366005421e-03 -6.6715641878545284e-03 -1.2666769325733185e-02 8.7821660563349724e-03 -3.0546901747584343e-02 1.6728915274143219e-02 -8.6455726996064186e-03 2.5900127366185188e-02 -2.0183164160698652e-03 -2.6655856519937515e-02 2.7348831295967102e-02 8.1575829535722733e-03 6.4729512669146061e-03 2.4124523624777794e-02 3.2782670110464096e-02 2.0339403301477432e-02 1.0682507418096066e-02 -6.3914093188941479e-03 1.0111489100381732e-03 6.8183448165655136e-03 2.4657575413584709e-03 -1.7750760540366173e-02 -1.9052283838391304e-02 2.0508725196123123e-02 2.7490707114338875e-02 3.4322962164878845e-02 -7.3184334905818105e-04 4.0944460779428482e-03 1.5558892628178000e-03 -7.4253859929740429e-03 -2.9775168746709824e-02 -2.3828918114304543e-02 -5.3675837989430875e-05 -1.3562338426709175e-02 2.9758045449852943e-02 -5.6465645320713520e-03 2.1136694122105837e-03 1.4856042107567191e-03 6.2102456577122211e-03 5.5099367164075375e-03 2.5403138715773821e-03 3.3160794526338577e-02 5.0394651480019093e-03 -2.8870059177279472e-03 4.9899127334356308e-03 -2.4173903511837125e-04 -9.6289499197155237e-04 -1.4548058970831335e-05 1.4176564291119576e-03 -2.1643301006406546e-03 4.5941388234496117e-03 -3.5794269293546677e-02 2.0395414903759956e-03 6.2450612895190716e-03 -2.6541195809841156e-02 -4.6381969004869461e-03 2.3596594110131264e-03 2.2376482374966145e-03 2.5057280436158180e-02 1.4260798925533891e-03 2.7140524238348007e-02 2.8340732678771019e-03 -5.7839825749397278e-03 -3.1488701701164246e-02 -3.8126269355416298e-03 -2.5246143341064453e-02 -4.0694018825888634e-03 -1.6611341387033463e-02 -3.0672317370772362e-02 -2.8531121090054512e-02 7.5925065902993083e-04 -5.6689162738621235e-03 1.7304746434092522e-03 -3.4618064761161804e-02 -6.0087727615609765e-04 1.0962702333927155e-02 5.3649870678782463e-03 2.3637896403670311e-02 4.9788942560553551e-03 2.2575706243515015e-02 4.7426200471818447e-03 -5.5804885923862457e-03 -7.6112319948151708e-04 -9.2625962570309639e-03 2.5395874399691820e-03 -3.3216807991266251e-02 5.1661734469234943e-03 1.3469078578054905e-02 2.9489323496818542e-03 2.8646696358919144e-02 1.5419773757457733e-02 -1.8766865832731128e-03 7.4159824289381504e-03 -1.1000334285199642e-02 9.1194668784737587e-03 5.0057322368957102e-05 1.5052191156428307e-04 -6.4352010376751423e-03 1.7029738519340754e-03 7.3561398312449455e-04 -1.0222442506346852e-04 6.6257882863283157e-03 1.5931309899315238e-03 3.2726405188441277e-03 8.3760088309645653e-03 -2.0115696825087070e-03 -6.6165607422590256e-03 -5.3762053139507771e-03 3.3535473048686981e-03 3.8187249629118014e-07 -5.0797901349142194e-04 6.1992593109607697e-03 9.7600370645523071e-03 -5.2382776630111039e-05 4.0109846740961075e-03 9.3940543010830879e-03 2.4591372348368168e-03 2.7451102505438030e-04 5.2008689381182194e-03 -1.6089337877929211e-03 -3.8841189816594124e-03 -5.8527104556560516e-04 2.1620292682200670e-04 -1.0520697571337223e-02 7.1499436162412167e-03 -2.1136484574526548e-03 9.2230271548032761e-03 -2.2038109600543976e-03 -7.7267648885026574e-04 1.4720432227477431e-03 4.3139415793120861e-03 -1.6160182422026992e-03 9.8323486745357513e-03 -6.0069593600928783e-03 2.7454923838376999e-03 -8.0952150747179985e-03 3.7593671586364508e-03 8.6882365867495537e-03 -8.8490750640630722e-03 -1.0726654436439276e-03 -7.4149778811261058e-04 -7.8252507373690605e-03 -1.0426624678075314e-02 -6.5794978290796280e-03 -3.6905510351061821e-03 -1.4280491741374135e-03 3.5475011100061238e-04 4.0750787593424320e-04 3.0576363205909729e-03 6.1223735101521015e-03 6.1033312231302261e-03 -6.2342612072825432e-03 -8.8749816641211510e-03 -1.1026245541870594e-02 1.2996526202186942e-03 2.7151922695338726e-03 1.6281211283057928e-03 2.5899781030602753e-04 9.5960190519690514e-03 7.7491579577326775e-03 6.6372286528348923e-04 3.9078393019735813e-03 -9.7228614613413811e-03 -2.4829567410051823e-03 1.4336424646899104e-03 1.9840227905660868e-03 -1.4283022610470653e-03 -1.0369449155405164e-03 1.7910034512169659e-04 -1.0336413979530334e-02 2.1816356456838548e-04 -6.3107197638601065e-04 -8.6616532644256949e-04 -1.1470429599285126e-03 1.6130246222019196e-03 4.3200543150305748e-03 7.1546324761584401e-04 -1.3000360922887921e-04 1.0642346460372210e-03 1.1238615028560162e-02 -3.7709285970777273e-03 2.0339840557426214e-03 8.7295630946755409e-03 8.8610441889613867e-04 -1.9797191489487886e-03 -4.8857294023036957e-03 -7.8467288985848427e-03 2.3667351342737675e-04 -8.4581263363361359e-03 2.9077790677547455e-03 5.2333623170852661e-04 1.0087959468364716e-02 1.7899849917739630e-03 8.0149676650762558e-03 -1.3510168064385653e-03 5.3947083652019501e-03 9.8223416134715080e-03 8.7487818673253059e-03 4.1278157732449472e-04 9.3622767599299550e-04 -2.8443881310522556e-03 1.1310145258903503e-02 3.9244103245437145e-03 -2.8265584260225296e-03 -1.0016425512731075e-03 -7.2642425075173378e-03 -1.1376626789569855e-03 -6.9889901205897331e-03 1.6175745986402035e-03 8.1969186430796981e-04 -5.0254230154678226e-04 2.0156926475465298e-03 -3.0285299289971590e-03 1.0657081380486488e-02 1.5150074614211917e-04 -4.5339739881455898e-03 4.9680087249726057e-04 -9.2428214848041534e-03 -5.6156166829168797e-03 -1.7545893788337708e-03 -3.6870978772640228e-02 5.5078703910112381e-02 -4.2807489633560181e-02 9.0956399217247963e-03 -5.7190149091184139e-03 3.2050181180238724e-02 -1.1105397716164589e-02 -6.3804429955780506e-03 5.0304252654314041e-03 -3.3340174704790115e-02 5.8498559519648552e-03 -7.1451966650784016e-03 -4.0885344147682190e-02 1.3426224701106548e-02 3.3466964960098267e-02 2.4714035913348198e-02 -1.7251551151275635e-02 -1.8816145602613688e-03 5.7347002439200878e-03 -3.0630119144916534e-02 -4.8543013632297516e-02 -5.5165952071547508e-03 -6.1421091668307781e-03 -4.6617966145277023e-02 1.8006155733019114e-04 3.1037819571793079e-03 -2.5472568348050117e-02 9.8196193575859070e-03 1.7597405239939690e-02 -3.8372366689145565e-03 3.5109573509544134e-03 5.2824962884187698e-02 -3.5699009895324707e-02 8.6160302162170410e-03 -4.6458579599857330e-02 -1.2898611021228135e-04 7.3559503071010113e-03 -9.7276521846652031e-03 -1.9977174699306488e-02 1.2123637832701206e-02 -4.8759184777736664e-02 2.6722589507699013e-02 -1.3340800069272518e-02 4.0717802941799164e-02 -5.7386080734431744e-03 -4.2114362120628357e-02 4.3016649782657623e-02 1.1678501963615417e-02 9.3005904927849770e-03 3.8510620594024658e-02 5.2610132843255997e-02 3.2754335552453995e-02 1.6799388453364372e-02 -6.0792425647377968e-03 1.1551090283319354e-03 1.0337237268686295e-02 1.8514781259000301e-03 -2.7997964993119240e-02 -2.9955379664897919e-02 3.2066367566585541e-02 4.2800769209861755e-02 5.4358638823032379e-02 -6.5796094713732600e-04 5.2584274671971798e-03 2.4940432049334049e-03 -1.1651921086013317e-02 -4.7129053622484207e-02 -3.7355396896600723e-02 1.1859278311021626e-04 -2.0193561911582947e-02 4.6719793230295181e-02 -7.3885689489543438e-03 1.8079164437949657e-03 1.9493224099278450e-03 9.6389977261424065e-03 8.3309877663850784e-03 3.4058182500302792e-03 5.2470114082098007e-02 6.0496446676552296e-03 -4.1873729787766933e-03 7.5163980945944786e-03 1.1175428517162800e-03 -5.6192028569057584e-04 -1.7811276484280825e-03 1.3508872361853719e-03 -2.8577290941029787e-03 5.8085885830223560e-03 -5.6468013674020767e-02 3.1242857221513987e-03 6.9103147834539413e-03 -4.2660497128963470e-02 -6.5321791917085648e-03 3.2870096620172262e-03 4.0760794654488564e-03 3.9441876113414764e-02 2.2280369885265827e-03 4.3266452848911285e-02 2.5590613950043917e-03 -6.2945359386503696e-03 -5.0326783210039139e-02 -6.0212695971131325e-03 -4.0650200098752975e-02 -3.4491799306124449e-03 -2.6096245273947716e-02 -4.9321476370096207e-02 -4.5233812183141708e-02 8.1705115735530853e-04 -8.3960108458995819e-03 2.8289775364100933e-03 -5.4312307387590408e-02 -3.5728896036744118e-03 1.6833795234560966e-02 9.0046729892492294e-03 3.7856906652450562e-02 6.9116428494453430e-03 3.5412531346082687e-02 5.5418568663299084e-03 -6.6687222570180893e-03 -1.3281642168294638e-04 -1.3280644081532955e-02 3.5968469455838203e-03 -5.2534006536006927e-02 4.8240125179290771e-03 2.1143013611435890e-02 4.0971743874251842e-03 4.4848322868347168e-02 2.4508664384484291e-02 -1.2427486944943666e-03 6.6391061991453171e-03 -9.9653704091906548e-03 7.4263145215809345e-03 -3.3804650884121656e-03 2.1480391733348370e-03 -5.7914080098271370e-03 2.8031636029481888e-03 1.9479808397591114e-03 -1.8567491788417101e-03 5.8838878758251667e-03 -5.2000097930431366e-03 -2.0397384651005268e-03 7.2921360842883587e-03 -3.1314673833549023e-03 -5.9653557837009430e-03 -4.1080983355641365e-03 3.4529827535152435e-03 7.6370261376723647e-04 -1.8665044335648417e-03 5.5095637217164040e-03 8.6319539695978165e-03 2.1800734102725983e-03 -1.8480395665392280e-03 8.2872854545712471e-03 -3.1123156659305096e-03 -1.5311839524656534e-03 4.4294600374996662e-03 -2.9398826882243156e-03 -2.7013155631721020e-03 1.6606703866273165e-03 -1.0542100062593818e-03 -9.1484123840928078e-03 6.2944772653281689e-03 -1.0355741251260042e-03 8.3199366927146912e-03 3.3944675233215094e-03 -1.9146871054545045e-03 2.3663775064051151e-03 3.3538874704390764e-03 -2.7240558993071318e-03 8.6828842759132385e-03 -4.0487339720129967e-03 2.3842768277972937e-03 -7.3505453765392303e-03 -2.5310409255325794e-03 7.6827253215014935e-03 -7.9311784356832504e-03 -3.6548103671520948e-03 -3.0185023788362741e-03 -6.7574116401374340e-03 -9.6415681764483452e-03 -5.8194086886942387e-03 -2.7701423969119787e-03 5.5341366678476334e-03 -8.4427092224359512e-04 -4.3481122702360153e-03 -4.2335847392678261e-03 4.6165436506271362e-03 5.4912129417061806e-03 -6.0012885369360447e-03 -7.5680715963244438e-03 -9.6715670078992844e-03 -5.2937184227630496e-04 -3.4680729731917381e-03 -1.7238833243027329e-03 2.6714308187365532e-03 8.2478960976004601e-03 6.4817247912287712e-03 -1.2713719625025988e-03 3.9894236251711845e-03 -8.0253779888153076e-03 5.0081429071724415e-03 -3.4120294731110334e-03 -3.0226241797208786e-03 -1.8589606042951345e-03 -1.9962098449468613e-03 -1.0366637725383043e-03 -9.7000207751989365e-03 -3.8621786516159773e-03 2.9790366534143686e-03 -1.7615160904824734e-03 8.5957150440663099e-04 -7.4261083500459790e-04 -5.0276354886591434e-03 -7.3605723446235061e-04 1.3693633954972029e-03 -2.8592098969966173e-03 9.9945208057761192e-03 3.3565878402441740e-03 -5.7853334583342075e-03 7.6574515551328659e-03 1.9848479423671961e-03 4.1499780490994453e-04 3.7890174426138401e-03 -6.9831674918532372e-03 -1.5861341962590814e-03 -7.9325484111905098e-03 -3.4377020783722401e-03 3.1009986996650696e-03 9.1137317940592766e-03 3.1272225896827877e-04 7.3479111306369305e-03 3.6420712713152170e-03 4.4795763678848743e-03 8.4237828850746155e-03 8.4244115278124809e-03 -8.1802898785099387e-04 2.6753554120659828e-03 2.5156685151159763e-03 9.5253568142652512e-03 -3.4651041496545076e-03 -3.8927511777728796e-03 -2.3832882288843393e-03 -7.0038819685578346e-03 -1.6819391166791320e-03 -6.4266533590853214e-03 -4.0144869126379490e-03 2.1626113448292017e-03 1.3327695196494460e-03 3.3741043880581856e-03 1.8454777309671044e-03 9.3788821250200272e-03 -2.7146572247147560e-03 -3.7249755114316940e-03 -2.1519977599382401e-03 -7.7341073192656040e-03 -3.8297157734632492e-03 2.6288747321814299e-03 -3.6050565540790558e-02 5.3624019026756287e-02 -4.2073771357536316e-02 7.0607406087219715e-03 -4.7047985717654228e-03 3.1344972550868988e-02 -1.0813476517796516e-02 -5.8319848030805588e-03 3.5226093605160713e-03 -3.2470628619194031e-02 6.1133750714361668e-03 -6.5941773355007172e-03 -3.9930138736963272e-02 1.2433573603630066e-02 3.2414682209491730e-02 2.4470785632729530e-02 -1.6774209216237068e-02 -1.7810711869969964e-03 4.5351921580731869e-03 -2.9828717932105064e-02 -4.7522936016321182e-02 -4.9967779777944088e-03 -9.6127316355705261e-03 -4.5708999037742615e-02 -2.3970066104084253e-03 2.4815713986754417e-03 -2.5101158767938614e-02 9.2286774888634682e-03 1.7214672639966011e-02 -3.0606410000473261e-03 2.3429424036294222e-03 5.1482595503330231e-02 -3.4750927239656448e-02 8.9993858709931374e-03 -4.5431781560182571e-02 1.6316313995048404e-03 6.8226438015699387e-03 -8.8490238413214684e-03 -1.9645413383841515e-02 1.1066838167607784e-02 -4.7738920897245407e-02 2.6597313582897186e-02 -1.3137549161911011e-02 3.9691563695669174e-02 -6.4079412259161472e-03 -4.1312798857688904e-02 4.2121123522520065e-02 9.9405786022543907e-03 8.7831681594252586e-03 3.7879865616559982e-02 5.1495462656021118e-02 3.1880792230367661e-02 1.6808545216917992e-02 -5.4501425474882126e-03 8.6485320935025811e-04 8.3143906667828560e-03 8.5855938959866762e-04 -2.7826994657516479e-02 -2.9362235218286514e-02 3.1122477725148201e-02 4.2185854166746140e-02 5.3325694054365158e-02 -1.9378876313567162e-03 3.0240777414292097e-03 -7.1850582025945187e-04 -1.0094453580677509e-02 -4.6359803527593613e-02 -3.6787807941436768e-02 -1.2419538688845932e-04 -1.9656803458929062e-02 4.6381875872612000e-02 -6.3940924592316151e-03 8.3563616499304771e-04 6.7610060796141624e-05 8.5943024605512619e-03 7.2658373974263668e-03 2.5437870062887669e-03 5.0918675959110260e-02 4.8300810158252716e-03 -3.5231618676334620e-03 6.7648505792021751e-03 1.6788777429610491e-03 -1.7725548241287470e-03 -3.8276528939604759e-03 7.6158758020028472e-04 -2.6665786281228065e-03 5.4452111944556236e-03 -5.5454883724451065e-02 4.9746837466955185e-03 6.1833965592086315e-03 -4.1680492460727692e-02 -5.9009101241827011e-03 4.0527866221964359e-03 6.9472030736505985e-03 3.8592763245105743e-02 9.9652307108044624e-04 4.1892495006322861e-02 2.0607113838195801e-03 -6.7786900326609612e-03 -4.9261830747127533e-02 -6.2859817408025265e-03 -3.9672438055276871e-02 -2.3135147057473660e-03 -2.5672886520624161e-02 -4.8554852604866028e-02 -4.4123508036136627e-02 -4.0643677493790165e-05 -8.3224689587950706e-03 3.5797427408397198e-03 -5.3525548428297043e-02 -7.1242824196815491e-03 1.6314964741468430e-02 7.9657491296529770e-03 3.6522652953863144e-02 6.9725983776152134e-03 3.4387465566396713e-02 4.4015874154865742e-03 -6.4851087518036366e-03 8.8448068709112704e-05 -1.2578569352626801e-02 5.0365622155368328e-03 -5.1394354552030563e-02 4.1954787448048592e-03 2.0880466327071190e-02 3.1237571965903044e-03 4.3751314282417297e-02 2.4410855025053024e-02 -4.9574184231460094e-04 4.7703385353088379e-02 -7.1065865457057953e-02 5.6428700685501099e-02 -7.2957808151841164e-03 5.0555472262203693e-03 -4.1557956486940384e-02 1.3576083816587925e-02 7.0166927762329578e-03 -5.0078863278031349e-03 4.2977657169103622e-02 -6.7746615968644619e-03 1.1611093766987324e-02 5.2727267146110535e-02 -1.5941452234983444e-02 -4.3417889624834061e-02 -3.2948996871709824e-02 2.1687608212232590e-02 1.6864065546542406e-03 -4.1925171390175819e-03 3.9685480296611786e-02 6.3059471547603607e-02 6.4637861214578152e-03 1.5636198222637177e-02 6.0327704995870590e-02 5.2968496456742287e-03 -1.6258917748928070e-03 3.3476922661066055e-02 -1.1583085171878338e-02 -2.2993061691522598e-02 2.7401011902838945e-03 -1.5459522837772965e-03 -6.8683341145515442e-02 4.6042170375585556e-02 -1.2478866614401340e-02 5.9945359826087952e-02 -4.4886688701808453e-03 -7.8836567699909210e-03 1.0751861147582531e-02 2.6312632486224174e-02 -1.4162059873342514e-02 6.3140019774436951e-02 -3.6061838269233704e-02 1.7523098737001419e-02 -5.2931431680917740e-02 1.1568960733711720e-02 5.4258491843938828e-02 -5.5795166641473770e-02 -1.2744236737489700e-02 -1.0530266910791397e-02 -5.0171103328466415e-02 -6.7948468029499054e-02 -4.2162537574768066e-02 -2.2640492767095566e-02 4.4211782515048981e-03 -3.4566828981041908e-04 -8.9283790439367294e-03 2.5273158680647612e-03 3.7809498608112335e-02 3.8875412195920944e-02 -4.0822621434926987e-02 -5.6331068277359009e-02 -7.1015380322933197e-02 4.1776970028877258e-03 3.9915900561027229e-04 2.3539501708000898e-03 1.2240272946655750e-02 6.1305850744247437e-02 4.9248937517404556e-02 2.6945902500301600e-03 2.5604590773582458e-02 -6.1942834407091141e-02 5.7574678212404251e-03 1.7403212841600180e-03 3.5685836337506771e-03 -1.0926076211035252e-02 -9.0601127594709396e-03 -2.8639151714742184e-03 -6.7710869014263153e-02 -6.5044276416301727e-03 2.6977171655744314e-03 -8.4370002150535583e-03 -1.6556216869503260e-03 4.1218870319426060e-03 9.1578811407089233e-03 2.8052568086422980e-04 1.6406024806201458e-03 -5.6756632402539253e-03 7.3704957962036133e-02 -9.1741597279906273e-03 -6.6510350443422794e-03 5.5142853409051895e-02 7.2166314348578453e-03 -6.8598631769418716e-03 -1.0824058204889297e-02 -5.1558088511228561e-02 -2.1877768449485302e-04 -5.5538721382617950e-02 -1.0298124980181456e-03 6.8662716075778008e-03 6.5668143332004547e-02 9.2179141938686371e-03 5.2365105599164963e-02 8.2192372065037489e-04 3.4098569303750992e-02 6.4292229712009430e-02 5.8325655758380890e-02 9.4105757307261229e-04 9.8548037931323051e-03 -7.6210051774978638e-03 7.1506179869174957e-02 1.3175026513636112e-02 -2.0702786743640900e-02 -1.0225303471088409e-02 -4.7873646020889282e-02 -8.6476132273674011e-03 -4.5552276074886322e-02 -4.1499384678900242e-03 8.0033214762806892e-03 -1.1243730550631881e-03 1.5893232077360153e-02 -1.0871117934584618e-02 6.8445891141891479e-02 -3.2709355000406504e-03 -2.8065325692296028e-02 -2.3899548687040806e-03 -5.8810364454984665e-02 -3.3190913498401642e-02 -2.0212309900671244e-03 -4.6730242669582367e-02 7.0106871426105499e-02 -5.5095579475164413e-02 7.9819289967417717e-03 -5.5603012442588806e-03 4.0713343769311905e-02 -1.2751884758472443e-02 -6.8528223782777786e-03 4.4274139218032360e-03 -4.2656764388084412e-02 6.8850009702146053e-03 -9.0839900076389313e-03 -5.2057135850191116e-02 1.6167286783456802e-02 4.2816657572984695e-02 3.1870536506175995e-02 -2.1640950813889503e-02 -1.7313036369159818e-03 4.9530328251421452e-03 -3.8681905716657639e-02 -6.2204189598560333e-02 -5.1094382070004940e-03 -1.4384904876351357e-02 -5.9761259704828262e-02 -4.0340949781239033e-03 3.0436136294156313e-03 -3.3035308122634888e-02 1.0642719455063343e-02 2.2705035284161568e-02 -2.5186408311128616e-03 2.6145982556045055e-03 6.7279927432537079e-02 -4.5017223805189133e-02 1.2131820432841778e-02 -5.9371866285800934e-02 2.6121463160961866e-03 8.2315485924482346e-03 -1.1286280117928982e-02 -2.5768540799617767e-02 1.3988259248435497e-02 -6.2407996505498886e-02 3.4993551671504974e-02 -1.6940971836447716e-02 5.1903963088989258e-02 -1.0780813172459602e-02 -5.3472768515348434e-02 5.4944422096014023e-02 1.1516812257468700e-02 8.6686434224247932e-03 4.9432788044214249e-02 6.7297838628292084e-02 4.1657168418169022e-02 2.2002188488841057e-02 -3.0457600951194763e-03 6.4636731985956430e-04 9.3829054385423660e-03 -1.8148818053305149e-03 -3.6540258675813675e-02 -3.7984885275363922e-02 4.0290296077728271e-02 5.4966609925031662e-02 6.9832257926464081e-02 -4.2865257710218430e-03 9.0494158212095499e-04 -9.1302959481254220e-04 -1.1673334054648876e-02 -6.0357592999935150e-02 -4.7965522855520248e-02 -8.9590233983471990e-04 -2.4419758468866348e-02 6.0602359473705292e-02 -6.3163181766867638e-03 -5.4704758804291487e-04 -1.6558936331421137e-03 1.0352231562137604e-02 8.3126360550522804e-03 2.0219390280544758e-03 6.6892609000205994e-02 6.8528181873261929e-03 -3.6879426334053278e-03 9.0100867673754692e-03 1.4437325298786163e-03 -3.2012998126447201e-03 -8.2582430914044380e-03 8.1048543506767601e-05 -3.1949081458151340e-03 6.1920764856040478e-03 -7.2333432734012604e-02 6.1710760928690434e-03 5.5839074775576591e-03 -5.4493341594934464e-02 -6.4614834263920784e-03 6.2691122293472290e-03 9.2288684099912643e-03 5.0228510051965714e-02 4.5150381629355252e-04 5.4699249565601349e-02 -4.6166573883965611e-04 -5.8354022912681103e-03 -6.4681358635425568e-02 -8.2242274656891823e-03 -5.2095290273427963e-02 -3.1968802213668823e-03 -3.3253028988838196e-02 -6.3486881554126740e-02 -5.8055061846971512e-02 -7.0744473487138748e-04 -9.9315065890550613e-03 5.6396257132291794e-03 -6.9720350205898285e-02 -1.0455748997628689e-02 2.0891161635518074e-02 1.0202096775174141e-02 4.7615557909011841e-02 8.7848166003823280e-03 4.4743739068508148e-02 4.8696473240852356e-03 -8.0404561012983322e-03 -1.2193600559839979e-04 -1.5797568485140800e-02 6.0749724507331848e-03 -6.7220456898212433e-02 4.5908056199550629e-03 2.7185726910829544e-02 2.5582108646631241e-03 5.7139270007610321e-02 3.2105341553688049e-02 1.4060860266909003e-03 1.5375260263681412e-02 -2.2717416286468506e-02 1.7041066661477089e-02 -6.2677939422428608e-03 3.1699975952506065e-03 -1.3427969068288803e-02 5.7505578733980656e-03 3.7117302417755127e-03 -3.5053668543696404e-03 1.3329883106052876e-02 -8.6776278913021088e-03 2.0388970733620226e-04 1.5742763876914978e-02 -6.9508384913206100e-03 -1.3456627726554871e-02 -9.9244611337780952e-03 7.6693748123943806e-03 1.6475005540996790e-03 -3.1823681201785803e-03 1.3107035309076309e-02 1.9897805526852608e-02 4.6722237020730972e-03 -1.5253657475113869e-03 1.9083110615611076e-02 -3.3295534085482359e-03 -2.1681922953575850e-03 1.0339803062379360e-02 -5.5392808280885220e-03 -6.6415150649845600e-03 3.1513511203229427e-03 -2.1907393820583820e-03 -2.1325059235095978e-02 1.4810723252594471e-02 -2.9704333283007145e-03 1.8772628158330917e-02 3.9251577109098434e-03 -4.1532940231263638e-03 4.6163559891283512e-03 7.9578580334782600e-03 -6.5521630458533764e-03 1.9546860828995705e-02 -1.0262984782457352e-02 5.6229014880955219e-03 -1.7175979912281036e-02 -1.6826895298436284e-03 1.7203260213136673e-02 -1.7844274640083313e-02 -7.4930512346327305e-03 -5.8132270351052284e-03 -1.5844102948904037e-02 -2.1366590633988380e-02 -1.3316671364009380e-02 -6.8125259131193161e-03 6.8273092620074749e-03 -2.2918658796697855e-03 -7.8288083896040916e-03 -6.3681611791253090e-03 1.0877104476094246e-02 1.2521951459348202e-02 -1.3472457416355610e-02 -1.7734479159116745e-02 -2.2387374192476273e-02 -9.2226848937571049e-04 -5.6830449029803276e-03 -3.0047360341995955e-03 8.3111356943845749e-03 1.9291929900646210e-02 1.5324826352298260e-02 -4.5807007700204849e-04 9.6097942441701889e-03 -1.8935989588499069e-02 8.8990852236747742e-03 -4.4802944175899029e-03 -3.7875995039939880e-03 -4.9634678289294243e-03 -4.6924175694584846e-03 -2.8472477570176125e-03 -2.1730890497565269e-02 -6.5399799495935440e-03 4.2828144505620003e-03 -4.0789525955915451e-03 1.3721369905397296e-03 -7.9435168299823999e-04 -4.4995076023042202e-03 -1.8647981341928244e-03 1.8817019881680608e-03 -5.8561014011502266e-03 2.3407246917486191e-02 3.9550471119582653e-03 -9.1932844370603561e-03 1.7072910442948341e-02 3.5960513632744551e-03 -4.1561393300071359e-04 2.3409822024405003e-03 -1.6365319490432739e-02 -2.3212160449475050e-03 -1.7802843824028969e-02 -6.9589996710419655e-03 6.4991195686161518e-03 2.0588399842381477e-02 1.8466192996129394e-03 1.5995424240827560e-02 7.5106597505509853e-03 1.0516294278204441e-02 1.9736152142286301e-02 1.8746608868241310e-02 -1.4605538453906775e-03 4.4417548924684525e-03 1.2059268774464726e-03 2.2416211664676666e-02 -4.0442957542836666e-03 -7.8894188627600670e-03 -4.6936264261603355e-03 -1.5680259093642235e-02 -3.6514077801257372e-03 -1.4895897358655930e-02 -6.7974370904266834e-03 4.3447804637253284e-03 1.4419094659388065e-03 6.6547417081892490e-03 1.2243506498634815e-03 2.1615875884890556e-02 -4.9947798252105713e-03 -8.6373025551438332e-03 -4.6387440524995327e-03 -1.8495371565222740e-02 -9.3710068613290787e-03 3.7495100405067205e-03 -7.5489017181098461e-03 1.1060625314712524e-02 9.5496876165270805e-03 1.0940632224082947e-01 -6.2029842287302017e-02 6.7970310337841511e-03 -3.3334270119667053e-02 -4.3836064636707306e-02 5.6173726916313171e-02 -8.7074073962867260e-04 2.1066480875015259e-01 1.3416816294193268e-01 9.7507257014513016e-03 3.8504291325807571e-02 -1.9406917272135615e-03 -1.3428298756480217e-02 -1.8903832882642746e-02 -2.7719102799892426e-02 5.8434724807739258e-02 -9.9783018231391907e-03 -3.9311044383794069e-04 -7.5095422565937042e-02 1.6850776970386505e-01 -8.8749610586091876e-04 1.3997805118560791e-01 5.0544533878564835e-02 7.1061849594116211e-03 5.4958015680313110e-02 -1.6736103221774101e-02 -6.8272590637207031e-02 5.7276133447885513e-02 5.1692954730242491e-04 -8.9382138103246689e-03 -2.4111203849315643e-02 2.8434905107133090e-04 -1.3068582117557526e-01 4.6973999589681625e-02 -3.9723668247461319e-02 9.9623100832104683e-03 5.2309453487396240e-02 4.5900288969278336e-03 -2.6958828791975975e-02 -7.8334886347874999e-04 6.3207233324646950e-03 1.6517151892185211e-01 -5.6325778132304549e-04 4.3893393012695014e-04 