<?xml version="1.0"?>
<MethodSetup Method="BDT::BDTG">
  <GeneralInfo>
    <Info name="TMVA Release" value="4.2.1 [262657]"/>
    <Info name="ROOT Release" value="6.20/04 [398340]"/>
    <Info name="Creator" value="tifr"/>
    <Info name="Date" value="Thu Apr 21 19:12:21 2022"/>
    <Info name="Host" value="Linux tifr-Latitude-3400 4.15.0-1100-oem #110-Ubuntu SMP Thu Oct 15 15:02:18 UTC 2020 x86_64 x86_64 x86_64 GNU/Linux"/>
    <Info name="Dir" value="/home/tifr/lbyl_2018/analysis/photonID/photonID_PbPb2018/trainMVA"/>
    <Info name="Training events" value="722093"/>
    <Info name="TrainingTime" value="5.29832209e+02"/>
    <Info name="AnalysisType" value="Classification"/>
  </GeneralInfo>
  <Options>
    <Option name="V" modified="Yes">False</Option>
    <Option name="VerbosityLevel" modified="No">Default</Option>
    <Option name="VarTransform" modified="No">None</Option>
    <Option name="H" modified="Yes">False</Option>
    <Option name="CreateMVAPdfs" modified="No">False</Option>
    <Option name="IgnoreNegWeightsInTraining" modified="No">False</Option>
    <Option name="NTrees" modified="Yes">1000</Option>
    <Option name="MaxDepth" modified="Yes">3</Option>
    <Option name="MinNodeSize" modified="Yes">2.5%</Option>
    <Option name="nCuts" modified="Yes">20</Option>
    <Option name="BoostType" modified="Yes">Grad</Option>
    <Option name="AdaBoostR2Loss" modified="No">quadratic</Option>
    <Option name="UseBaggedBoost" modified="Yes">True</Option>
    <Option name="Shrinkage" modified="Yes">1.000000e-01</Option>
    <Option name="AdaBoostBeta" modified="No">5.000000e-01</Option>
    <Option name="UseRandomisedTrees" modified="No">False</Option>
    <Option name="UseNvars" modified="No">2</Option>
    <Option name="UsePoissonNvars" modified="No">True</Option>
    <Option name="BaggedSampleFraction" modified="Yes">5.000000e-01</Option>
    <Option name="UseYesNoLeaf" modified="No">True</Option>
    <Option name="NegWeightTreatment" modified="No">pray</Option>
    <Option name="Css" modified="No">1.000000e+00</Option>
    <Option name="Cts_sb" modified="No">1.000000e+00</Option>
    <Option name="Ctb_ss" modified="No">1.000000e+00</Option>
    <Option name="Cbb" modified="No">1.000000e+00</Option>
    <Option name="NodePurityLimit" modified="No">5.000000e-01</Option>
    <Option name="SeparationType" modified="No">giniindex</Option>
    <Option name="RegressionLossFunctionBDTG" modified="No">huber</Option>
    <Option name="HuberQuantile" modified="No">7.000000e-01</Option>
    <Option name="DoBoostMonitor" modified="No">False</Option>
    <Option name="UseFisherCuts" modified="No">False</Option>
    <Option name="MinLinCorrForFisher" modified="No">8.000000e-01</Option>
    <Option name="UseExclusiveVars" modified="No">False</Option>
    <Option name="DoPreselection" modified="No">False</Option>
    <Option name="SigToBkgFraction" modified="No">1.000000e+00</Option>
    <Option name="PruneMethod" modified="No">nopruning</Option>
    <Option name="PruneStrength" modified="No">0.000000e+00</Option>
    <Option name="PruningValFraction" modified="No">5.000000e-01</Option>
    <Option name="SkipNormalization" modified="No">False</Option>
    <Option name="nEventsMin" modified="No">0</Option>
    <Option name="UseBaggedGrad" modified="No">False</Option>
    <Option name="GradBaggingFraction" modified="No">5.000000e-01</Option>
    <Option name="UseNTrainEvents" modified="No">0</Option>
    <Option name="NNodesMax" modified="No">0</Option>
  </Options>
  <Variables NVar="5">
    <Variable VarIndex="0" Expression="phoSCEtaWidth" Label="phoSCEtaWidth" Title="phoSCEtaWidth" Unit="" Internal="phoSCEtaWidth" Type="F" Min="1.86607674e-13" Max="1.28223911e-01"/>
    <Variable VarIndex="1" Expression="phoSCPhiWidth" Label="phoSCPhiWidth" Title="phoSCPhiWidth" Unit="" Internal="phoSCPhiWidth" Type="F" Min="1.09825690e-12" Max="6.31592274e-01"/>
    <Variable VarIndex="2" Expression="phoHoverE" Label="phoHoverE" Title="phoHoverE" Unit="" Internal="phoHoverE" Type="F" Min="0.00000000e+00" Max="4.99922186e-01"/>
    <Variable VarIndex="3" Expression="phoSigmaIEtaIEta" Label="phoSigmaIEtaIEta" Title="phoSigmaIEtaIEta" Unit="" Internal="phoSigmaIEtaIEta" Type="F" Min="0.00000000e+00" Max="6.39080703e-02"/>
    <Variable VarIndex="4" Expression="phoR9" Label="phoR9" Title="phoR9" Unit="" Internal="phoR9" Type="F" Min="1.20198406e-01" Max="1.00000024e+00"/>
  </Variables>
  <Spectators NSpec="0"/>
  <Classes NClass="2">
    <Class Name="Signal" Index="0"/>
    <Class Name="Background" Index="1"/>
  </Classes>
  <Transformations NTransformations="0"/>
  <MVAPdfs/>
  <Weights NTrees="1000" AnalysisType="1">
    <BinaryTree type="DecisionTree" boostWeight="1.0000000000000000e+00" itree="0">
      <Node pos="s" depth="0" NCoef="0" IVar="4" Cut="9.6039170026779175e-01" cType="1" res="-1.4023486291989684e-03" rms="4.9999803304672241e-01" purity="4.9859768152236938e-01" nType="0">
        <Node pos="l" depth="1" NCoef="0" IVar="0" Cut="6.1075477860867977e-03" cType="1" res="-9.7953103482723236e-02" rms="4.9031132459640503e-01" purity="4.0204688906669617e-01" nType="0">
          <Node pos="l" depth="2" NCoef="0" IVar="4" Cut="7.4581980705261230e-01" cType="1" res="4.8520177602767944e-02" rms="4.9764022231101990e-01" purity="5.4852020740509033e-01" nType="0">
            <Node pos="l" depth="3" NCoef="0" IVar="-1" Cut="0.0000000000000000e+00" cType="1" res="1.3987203128635883e-02" rms="4.9508479237556458e-01" purity="5.6993603706359863e-01" nType="-99"/>
            <Node pos="r" depth="3" NCoef="0" IVar="-1" Cut="0.0000000000000000e+00" cType="1" res="4.6215043403208256e-03" rms="4.9946576356887817e-01" purity="5.2310746908187866e-01" nType="-99"/>
          </Node>
          <Node pos="r" depth="2" NCoef="0" IVar="0" Cut="1.1922660283744335e-02" cType="1" res="-1.1433605104684830e-01" rms="4.8675176501274109e-01" purity="3.8566395640373230e-01" nType="0">
            <Node pos="l" depth="3" NCoef="0" IVar="-1" Cut="0.0000000000000000e+00" cType="1" res="-1.5532847493886948e-02" rms="4.9393144249916077e-01" purity="4.2233574390411377e-01" nType="-99"/>
            <Node pos="r" depth="3" NCoef="0" IVar="-1" Cut="0.0000000000000000e+00" cType="1" res="-3.1535573303699493e-02" rms="4.7448676824569702e-01" purity="3.4232211112976074e-01" nType="-99"/>
          </Node>
        </Node>
        <Node pos="r" depth="1" NCoef="0" IVar="0" Cut="9.7817918285727501e-03" cType="1" res="1.1900695413351059e-01" rms="4.8563086986541748e-01" purity="6.1900699138641357e-01" nType="0">
          <Node pos="l" depth="2" NCoef="0" IVar="0" Cut="8.8497241958975792e-03" cType="1" res="1.5575355291366577e-01" rms="4.7512191534042358e-01" purity="6.5575355291366577e-01" nType="0">
            <Node pos="l" depth="3" NCoef="0" IVar="-1" Cut="0.0000000000000000e+00" cType="1" res="3.3203531056642532e-02" rms="4.7163349390029907e-01" purity="6.6601759195327759e-01" nType="-99"/>
            <Node pos="r" depth="3" NCoef="0" IVar="-1" Cut="0.0000000000000000e+00" cType="1" res="1.5181004069745541e-02" rms="4.9420484900474548e-01" purity="5.7590502500534058e-01" nType="-99"/>
          </Node>
          <Node pos="r" depth="2" NCoef="0" IVar="3" Cut="2.0551675930619240e-02" cType="1" res="3.7080921232700348e-02" rms="4.9862310290336609e-01" purity="5.3708088397979736e-01" nType="0">
            <Node pos="l" depth="3" NCoef="0" IVar="-1" Cut="0.0000000000000000e+00" cType="1" res="-2.1666737273335457e-02" rms="4.8812273144721985e-01" purity="3.9166629314422607e-01" nType="-99"/>
            <Node pos="r" depth="3" NCoef="0" IVar="-1" Cut="0.0000000000000000e+00" cType="1" res="1.4207458123564720e-02" rms="4.9492797255516052e-01" purity="5.7103723287582397e-01" nType="-99"/>
          </Node>
        </Node>
      </Node>
    </BinaryTree>
    <BinaryTree type="DecisionTree" boostWeight="1.0000000000000000e+00" itree="1">
      <Node pos="s" depth="0" NCoef="0" IVar="4" Cut="9.5970445871353149e-01" cType="1" res="-5.0515920156612992e-04" rms="4.9693685770034790e-01" purity="4.9936196208000183e-01" nType="0">
        <Node pos="l" depth="1" NCoef="0" IVar="0" Cut="6.1080134473741055e-03" cType="1" res="-8.8577628135681152e-02" rms="4.8950049281120300e-01" purity="4.0164917707443237e-01" nType="0">
          <Node pos="l" depth="2" NCoef="0" IVar="4" Cut="7.4532091617584229e-01" cType="1" res="4.2344905436038971e-02" rms="4.9765169620513916e-01" purity="5.4717844724655151e-01" nType="0">
            <Node pos="l" depth="3" NCoef="0" IVar="-1" Cut="0.0000000000000000e+00" cType="1" res="1.2762365862727165e-02" rms="4.9495974183082581e-01" purity="5.7078665494918823e-01" nType="-99"/>
            <Node pos="r" depth="3" NCoef="0" IVar="-1" Cut="0.0000000000000000e+00" cType="1" res="3.4669372253119946e-03" rms="4.9960991740226746e-01" purity="5.1965707540512085e-01" nType="-99"/>
          </Node>
          <Node pos="r" depth="2" NCoef="0" IVar="3" Cut="9.1297244653105736e-03" cType="1" res="-1.0327033698558807e-01" rms="4.8638281226158142e-01" purity="3.8531726598739624e-01" nType="0">
            <Node pos="l" depth="3" NCoef="0" IVar="-1" Cut="0.0000000000000000e+00" cType="1" res="-6.9987392053008080e-03" rms="4.9783915281295776e-01" purity="4.5515209436416626e-01" nType="-99"/>
            <Node pos="r" depth="3" NCoef="0" IVar="-1" Cut="0.0000000000000000e+00" cType="1" res="-2.3949913680553436e-02" rms="4.8215159773826599e-01" purity="3.6854156851768494e-01" nType="-99"/>
          </Node>
        </Node>
        <Node pos="r" depth="1" NCoef="0" IVar="0" Cut="9.4857700169086456e-03" cType="1" res="1.0784858465194702e-01" rms="4.8444551229476929e-01" purity="6.1957591772079468e-01" nType="0">
          <Node pos="l" depth="2" NCoef="0" IVar="1" Cut="1.0334503836929798e-02" cType="1" res="1.4662274718284607e-01" rms="4.7281402349472046e-01" purity="6.6231328248977661e-01" nType="0">
            <Node pos="l" depth="3" NCoef="0" IVar="-1" Cut="0.0000000000000000e+00" cType="1" res="3.2683040946722031e-02" rms="4.6675425767898560e-01" purity="6.7910951375961304e-01" nType="-99"/>
            <Node pos="r" depth="3" NCoef="0" IVar="-1" Cut="0.0000000000000000e+00" cType="1" res="7.4578961357474327e-03" rms="4.9722483754158020e-01" purity="5.5180740356445312e-01" nType="-99"/>
          </Node>
          <Node pos="r" depth="2" NCoef="0" IVar="3" Cut="1.6231218352913857e-02" cType="1" res="2.9983397573232651e-02" rms="4.9796086549758911e-01" purity="5.3375202417373657e-01" nType="0">
            <Node pos="l" depth="3" NCoef="0" IVar="-1" Cut="0.0000000000000000e+00" cType="1" res="-2.8976647183299065e-02" rms="4.7567844390869141e-01" purity="3.4851238131523132e-01" nType="-99"/>
            <Node pos="r" depth="3" NCoef="0" IVar="-1" Cut="0.0000000000000000e+00" cType="1" res="1.3454921543598175e-02" rms="4.9465712904930115e-01" purity="5.7325303554534912e-01" nType="-99"/>
          </Node>
        </Node>
      </Node>
    </BinaryTree>
    <BinaryTree type="DecisionTree" boostWeight="1.0000000000000000e+00" itree="2">
      <Node pos="s" depth="0" NCoef="0" IVar="4" Cut="9.5810490846633911e-01" cType="1" res="-9.5038569997996092e-04" rms="4.9422585964202881e-01" purity="4.9881908297538757e-01" nType="0">
        <Node pos="l" depth="1" NCoef="0" IVar="0" Cut="7.5296950526535511e-03" cType="1" res="-8.1914745271205902e-02" rms="4.8845499753952026e-01" purity="3.9942979812622070e-01" nType="0">
          <Node pos="l" depth="2" NCoef="0" IVar="4" Cut="7.8226131200790405e-01" cType="1" res="3.4172985702753067e-02" rms="4.9869963526725769e-01" purity="5.3022390604019165e-01" nType="0">
            <Node pos="l" depth="3" NCoef="0" IVar="-1" Cut="0.0000000000000000e+00" cType="1" res="1.1875218711793423e-02" rms="4.9650204181671143e-01" purity="5.5818003416061401e-01" nType="-99"/>
            <Node pos="r" depth="3" NCoef="0" IVar="-1" Cut="0.0000000000000000e+00" cType="1" res="1.4209687651600689e-04" rms="4.9964961409568787e-01" purity="4.9302887916564941e-01" nType="-99"/>
          </Node>
          <Node pos="r" depth="2" NCoef="0" IVar="0" Cut="1.0935331694781780e-02" cType="1" res="-1.1167457699775696e-01" rms="4.8130589723587036e-01" purity="3.6589989066123962e-01" nType="0">
            <Node pos="l" depth="3" NCoef="0" IVar="-1" Cut="0.0000000000000000e+00" cType="1" res="-1.5910413116216660e-02" rms="4.9030953645706177e-01" purity="4.0294924378395081e-01" nType="-99"/>
            <Node pos="r" depth="3" NCoef="0" IVar="-1" Cut="0.0000000000000000e+00" cType="1" res="-2.6773568242788315e-02" rms="4.7386565804481506e-01" purity="3.4080016613006592e-01" nType="-99"/>
          </Node>
        </Node>
        <Node pos="r" depth="1" NCoef="0" IVar="0" Cut="9.5612807199358940e-03" cType="1" res="9.5932558178901672e-02" rms="4.8354387283325195e-01" purity="6.1774957180023193e-01" nType="0">
          <Node pos="l" depth="2" NCoef="0" IVar="1" Cut="1.0506354272365570e-02" cType="1" res="1.3047146797180176e-01" rms="4.7307580709457397e-01" purity="6.6003251075744629e-01" nType="0">
            <Node pos="l" depth="3" NCoef="0" IVar="-1" Cut="0.0000000000000000e+00" cType="1" res="2.8994714841246605e-02" rms="4.6785646677017212e-01" purity="6.7580968141555786e-01" nType="-99"/>
            <Node pos="r" depth="3" NCoef="0" IVar="-1" Cut="0.0000000000000000e+00" cType="1" res="6.9050323218107224e-03" rms="4.9713551998138428e-01" purity="5.5114674568176270e-01" nType="-99"/>
          </Node>
          <Node pos="r" depth="2" NCoef="0" IVar="3" Cut="1.6836918890476227e-02" cType="1" res="2.6048434898257256e-02" rms="4.9676841497421265e-01" purity="5.3219670057296753e-01" nType="0">
            <Node pos="l" depth="3" NCoef="0" IVar="-1" Cut="0.0000000000000000e+00" cType="1" res="-2.6342747732996941e-02" rms="4.7514671087265015e-01" purity="3.4715038537979126e-01" nType="-99"/>
            <Node pos="r" depth="3" NCoef="0" IVar="-1" Cut="0.0000000000000000e+00" cType="1" res="1.1859586462378502e-02" rms="4.9485099315643311e-01" purity="5.7120984792709351e-01" nType="-99"/>
          </Node>
        </Node>
      </Node>
    </BinaryTree>
    <BinaryTree type="DecisionTree" boostWeight="1.0000000000000000e+00" itree="3">
      <Node pos="s" depth="0" NCoef="0" IVar="4" Cut="9.6005976200103760e-01" cType="1" res="5.1222881302237511e-04" rms="4.9191257357597351e-01" purity="5.0029063224792480e-01" nType="0">
        <Node pos="l" depth="1" NCoef="0" IVar="0" Cut="7.5301369652152061e-03" cType="1" res="-7.0230215787887573e-02" rms="4.8836654424667358e-01" purity="4.0320628881454468e-01" nType="0">
          <Node pos="l" depth="2" NCoef="0" IVar="1" Cut="2.4264283478260040e-02" cType="1" res="3.3449031412601471e-02" rms="4.9842986464500427e-01" purity="5.3290867805480957e-01" nType="0">
            <Node pos="l" depth="3" NCoef="0" IVar="-1" Cut="0.0000000000000000e+00" cType="1" res="5.1066442392766476e-04" rms="4.9978590011596680e-01" purity="4.9844536185264587e-01" nType="-99"/>
            <Node pos="r" depth="3" NCoef="0" IVar="-1" Cut="0.0000000000000000e+00" cType="1" res="9.8360767588019371e-03" rms="4.9700528383255005e-01" purity="5.5040681362152100e-01" nType="-99"/>
          </Node>
          <Node pos="r" depth="2" NCoef="0" IVar="3" Cut="9.1297244653105736e-03" cType="1" res="-9.7043737769126892e-02" rms="4.8211482167243958e-01" purity="3.6966267228126526e-01" nType="0">
            <Node pos="l" depth="3" NCoef="0" IVar="-1" Cut="0.0000000000000000e+00" cType="1" res="-7.1698203682899475e-03" rms="4.9621474742889404e-01" purity="4.4025006890296936e-01" nType="-99"/>
            <Node pos="r" depth="3" NCoef="0" IVar="-1" Cut="0.0000000000000000e+00" cType="1" res="-2.2024646401405334e-02" rms="4.7822043299674988e-01" purity="3.5525009036064148e-01" nType="-99"/>
          </Node>
        </Node>
        <Node pos="r" depth="1" NCoef="0" IVar="0" Cut="9.1400202363729477e-03" cType="1" res="8.7890259921550751e-02" rms="4.8213613033294678e-01" purity="6.2020510435104370e-01" nType="0">
          <Node pos="l" depth="2" NCoef="0" IVar="3" Cut="8.7115094065666199e-03" cType="1" res="1.2010832875967026e-01" rms="4.7166123986244202e-01" purity="6.6414916515350342e-01" nType="0">
            <Node pos="l" depth="3" NCoef="0" IVar="-1" Cut="0.0000000000000000e+00" cType="1" res="1.1277199722826481e-02" rms="4.8958784341812134e-01" purity="6.0097461938858032e-01" nType="-99"/>
            <Node pos="r" depth="3" NCoef="0" IVar="-1" Cut="0.0000000000000000e+00" cType="1" res="2.8722375631332397e-02" rms="4.6316733956336975e-01" purity="6.8616181612014771e-01" nType="-99"/>
          </Node>
          <Node pos="r" depth="2" NCoef="0" IVar="3" Cut="1.4578150585293770e-02" cType="1" res="3.0680494382977486e-02" rms="4.9505558609962463e-01" purity="5.4217344522476196e-01" nType="0">
            <Node pos="l" depth="3" NCoef="0" IVar="-1" Cut="0.0000000000000000e+00" cType="1" res="-1.6029328107833862e-02" rms="4.8451361060142517e-01" purity="4.0784049034118652e-01" nType="-99"/>
            <Node pos="r" depth="3" NCoef="0" IVar="-1" Cut="0.0000000000000000e+00" cType="1" res="1.2240913696587086e-02" rms="4.9359789490699768e-01" purity="5.7918328046798706e-01" nType="-99"/>
          </Node>
        </Node>
      </Node>
    </BinaryTree>
    <BinaryTree type="DecisionTree" boostWeight="1.0000000000000000e+00" itree="4">
      <Node pos="s" depth="0" NCoef="0" IVar="4" Cut="9.5810490846633911e-01" cType="1" res="-2.6498231454752386e-04" rms="4.8992705345153809e-01" purity="4.9943074584007263e-01" nType="0">
        <Node pos="l" depth="1" NCoef="0" IVar="3" Cut="9.1297244653105736e-03" cType="1" res="-6.5998710691928864e-02" rms="4.8706272244453430e-01" purity="4.0019413828849792e-01" nType="0">
          <Node pos="l" depth="2" NCoef="0" IVar="0" Cut="8.0034025013446808e-03" cType="1" res="-5.3076245822012424e-03" rms="4.9802929162979126e-01" purity="4.8369035124778748e-01" nType="0">
            <Node pos="l" depth="3" NCoef="0" IVar="-1" Cut="0.0000000000000000e+00" cType="1" res="5.2438885904848576e-03" rms="4.9836865067481995e-01" purity="5.3243076801300049e-01" nType="-99"/>
            <Node pos="r" depth="3" NCoef="0" IVar="-1" Cut="0.0000000000000000e+00" cType="1" res="-7.3635387234389782e-03" rms="4.9570393562316895e-01" purity="4.3512275815010071e-01" nType="-99"/>
          </Node>
          <Node pos="r" depth="2" NCoef="0" IVar="0" Cut="8.2807112485170364e-03" cType="1" res="-8.5939303040504456e-02" rms="4.8173937201499939e-01" purity="3.7276071310043335e-01" nType="0">
            <Node pos="l" depth="3" NCoef="0" IVar="-1" Cut="0.0000000000000000e+00" cType="1" res="4.2702369391918182e-03" rms="4.9868699908256531e-01" purity="5.0527250766754150e-01" nType="-99"/>
            <Node pos="r" depth="3" NCoef="0" IVar="-1" Cut="0.0000000000000000e+00" cType="1" res="-2.2282062098383904e-02" rms="4.7440418601036072e-01" purity="3.4252649545669556e-01" nType="-99"/>
          </Node>
        </Node>
        <Node pos="r" depth="1" NCoef="0" IVar="0" Cut="1.7607225105166435e-02" cType="1" res="7.8292980790138245e-02" rms="4.8170283436775208e-01" purity="6.1802780628204346e-01" nType="0">
          <Node pos="l" depth="2" NCoef="0" IVar="0" Cut="8.3839902654290199e-03" cType="1" res="9.0325094759464264e-02" rms="4.7832483053207397e-01" purity="6.3146799802780151e-01" nType="0">
            <Node pos="l" depth="3" NCoef="0" IVar="-1" Cut="0.0000000000000000e+00" cType="1" res="2.3457838222384453e-02" rms="4.6881923079490662e-01" purity="6.7155516147613525e-01" nType="-99"/>
            <Node pos="r" depth="3" NCoef="0" IVar="-1" Cut="0.0000000000000000e+00" cType="1" res="1.0657512582838535e-02" rms="4.8954316973686218e-01" purity="5.7269096374511719e-01" nType="-99"/>
          </Node>
          <Node pos="r" depth="2" NCoef="0" IVar="-1" Cut="0.0000000000000000e+00" cType="1" res="-1.3547047041356564e-02" rms="4.9831816554069519e-01" purity="4.5511406660079956e-01" nType="-99"/>
        </Node>
      </Node>
    </BinaryTree>
    <BinaryTree type="DecisionTree" boostWeight="1.0000000000000000e+00" itree="5">
      <Node pos="s" depth="0" NCoef="0" IVar="4" Cut="9.5970445871353149e-01" cType="1" res="1.7589334165677428e-03" rms="4.8839312791824341e-01" purity="5.0149935483932495e-01" nType="0">
        <Node pos="l" depth="1" NCoef="0" IVar="0" Cut="7.5301369652152061e-03" cType="1" res="-5.6001797318458557e-02" rms="4.8718962073326111e-01" purity="4.0383037924766541e-01" nType="0">
          <Node pos="l" depth="2" NCoef="0" IVar="1" Cut="1.9610991701483727e-02" cType="1" res="2.8700761497020721e-02" rms="4.9823534488677979e-01" purity="5.3404176235198975e-01" nType="0">
            <Node pos="l" depth="3" NCoef="0" IVar="-1" Cut="0.0000000000000000e+00" cType="1" res="-4.5274794101715088e-03" rms="4.9905878305435181e-01" purity="4.7503751516342163e-01" nType="-99"/>
            <Node pos="r" depth="3" NCoef="0" IVar="-1" Cut="0.0000000000000000e+00" cType="1" res="9.4270547851920128e-03" rms="4.9665203690528870e-01" purity="5.5517268180847168e-01" nType="-99"/>
          </Node>
          <Node pos="r" depth="2" NCoef="0" IVar="4" Cut="9.2132717370986938e-01" cType="1" res="-7.7497974038124084e-02" rms="4.8198390007019043e-01" purity="3.7078478932380676e-01" nType="0">
            <Node pos="l" depth="3" NCoef="0" IVar="-1" Cut="0.0000000000000000e+00" cType="1" res="-1.7862707376480103e-02" rms="4.7893348336219788e-01" purity="3.5997185111045837e-01" nType="-99"/>
            <Node pos="r" depth="3" NCoef="0" IVar="-1" Cut="0.0000000000000000e+00" cType="1" res="-6.7190355621278286e-03" rms="4.9182090163230896e-01" purity="4.1512155532836914e-01" nType="-99"/>
          </Node>
        </Node>
        <Node pos="r" depth="1" NCoef="0" IVar="0" Cut="1.5650866553187370e-02" cType="1" res="7.2860687971115112e-02" rms="4.8042774200439453e-01" purity="6.2172687053680420e-01" nType="0">
          <Node pos="l" depth="2" NCoef="0" IVar="0" Cut="8.1976428627967834e-03" cType="1" res="8.7180681526660919e-02" rms="4.7598221898078918e-01" purity="6.3965189456939697e-01" nType="0">
            <Node pos="l" depth="3" NCoef="0" IVar="-1" Cut="0.0000000000000000e+00" cType="1" res="2.1939357742667198e-02" rms="4.6730390191078186e-01" purity="6.7552584409713745e-01" nType="-99"/>
            <Node pos="r" depth="3" NCoef="0" IVar="-1" Cut="0.0000000000000000e+00" cType="1" res="1.1215764097869396e-02" rms="4.8736926913261414e-01" purity="5.8439970016479492e-01" nType="-99"/>
          </Node>
          <Node pos="r" depth="2" NCoef="0" IVar="4" Cut="9.8465019464492798e-01" cType="1" res="-3.4870855510234833e-02" rms="4.9964845180511475e-01" purity="4.8687475919723511e-01" nType="0">
            <Node pos="l" depth="3" NCoef="0" IVar="-1" Cut="0.0000000000000000e+00" cType="1" res="-8.7565723806619644e-03" rms="4.9943247437477112e-01" purity="4.7733670473098755e-01" nType="-99"/>
            <Node pos="r" depth="3" NCoef="0" IVar="-1" Cut="0.0000000000000000e+00" cType="1" res="-5.2553489804267883e-03" rms="4.9970942735671997e-01" purity="4.9624785780906677e-01" nType="-99"/>
          </Node>
        </Node>
      </Node>
    </BinaryTree>
    <BinaryTree type="DecisionTree" boostWeight="1.0000000000000000e+00" itree="6">
      <Node pos="s" depth="0" NCoef="0" IVar="4" Cut="9.5964980125427246e-01" cType="1" res="4.7333457041531801e-04" rms="4.8720082640647888e-01" purity="5.0037014484405518e-01" nType="0">
        <Node pos="l" depth="1" NCoef="0" IVar="0" Cut="7.4898214079439640e-03" cType="1" res="-5.1265139132738113e-02" rms="4.8644858598709106e-01" purity="4.0302321314811707e-01" nType="0">
          <Node pos="l" depth="2" NCoef="0" IVar="4" Cut="7.3613113164901733e-01" cType="1" res="2.7814570814371109e-02" rms="4.9784818291664124e-01" purity="5.3627634048461914e-01" nType="0">
            <Node pos="l" depth="3" NCoef="0" IVar="-1" Cut="0.0000000000000000e+00" cType="1" res="9.8401578143239021e-03" rms="4.9540275335311890e-01" purity="5.6564646959304810e-01" nType="-99"/>
            <Node pos="r" depth="3" NCoef="0" IVar="-1" Cut="0.0000000000000000e+00" cType="1" res="1.4848507707938552e-03" rms="4.9932959675788879e-01" purity="5.0813430547714233e-01" nType="-99"/>
          </Node>
          <Node pos="r" depth="2" NCoef="0" IVar="0" Cut="1.0877189226448536e-02" cType="1" res="-7.1199983358383179e-02" rms="4.8148709535598755e-01" purity="3.6943203210830688e-01" nType="0">
            <Node pos="l" depth="3" NCoef="0" IVar="-1" Cut="0.0000000000000000e+00" cType="1" res="-8.6787603795528412e-03" rms="4.9070262908935547e-01" purity="4.0858206152915955e-01" nType="-99"/>
            <Node pos="r" depth="3" NCoef="0" IVar="-1" Cut="0.0000000000000000e+00" cType="1" res="-1.8346194177865982e-02" rms="4.7429192066192627e-01" purity="3.4326615929603577e-01" nType="-99"/>
          </Node>
        </Node>
        <Node pos="r" depth="1" NCoef="0" IVar="0" Cut="1.8095187842845917e-02" cType="1" res="6.4136989414691925e-02" rms="4.8054027557373047e-01" purity="6.2015455961227417e-01" nType="0">
          <Node pos="l" depth="2" NCoef="0" IVar="0" Cut="8.6164269596338272e-03" cType="1" res="7.3461197316646576e-02" rms="4.7795075178146362e-01" purity="6.3244879245758057e-01" nType="0">
            <Node pos="l" depth="3" NCoef="0" IVar="-1" Cut="0.0000000000000000e+00" cType="1" res="1.8642997369170189e-02" rms="4.6978300809860229e-01" purity="6.6876792907714844e-01" nType="-99"/>
            <Node pos="r" depth="3" NCoef="0" IVar="-1" Cut="0.0000000000000000e+00" cType="1" res="8.8517656549811363e-03" rms="4.9001890420913696e-01" purity="5.7114738225936890e-01" nType="-99"/>
          </Node>
          <Node pos="r" depth="2" NCoef="0" IVar="-1" Cut="0.0000000000000000e+00" cType="1" res="-1.3447447679936886e-02" rms="4.9739894270896912e-01" purity="4.4702962040901184e-01" nType="-99"/>
        </Node>
      </Node>
    </BinaryTree>
    <BinaryTree type="DecisionTree" boostWeight="1.0000000000000000e+00" itree="7">
      <Node pos="s" depth="0" NCoef="0" IVar="4" Cut="9.5810490846633911e-01" cType="1" res="-1.1923782294616103e-03" rms="4.8618924617767334e-01" purity="4.9875858426094055e-01" nType="0">
        <Node pos="l" depth="1" NCoef="0" IVar="0" Cut="7.4893794953823090e-03" cType="1" res="-4.9440182745456696e-02" rms="4.8555496335029602e-01" purity="3.9939787983894348e-01" nType="0">
          <Node pos="l" depth="2" NCoef="0" IVar="1" Cut="2.0849002525210381e-02" cType="1" res="1.6284424811601639e-02" rms="4.9835333228111267e-01" purity="5.2748101949691772e-01" nType="0">
            <Node pos="l" depth="3" NCoef="0" IVar="-1" Cut="0.0000000000000000e+00" cType="1" res="-4.0317364037036896e-03" rms="4.9921339750289917e-01" purity="4.7702321410179138e-01" nType="-99"/>
            <Node pos="r" depth="3" NCoef="0" IVar="-1" Cut="0.0000000000000000e+00" cType="1" res="6.0437270440161228e-03" rms="4.9732452630996704e-01" purity="5.4669445753097534e-01" nType="-99"/>
          </Node>
          <Node pos="r" depth="2" NCoef="0" IVar="1" Cut="2.3001076653599739e-02" cType="1" res="-6.5858036279678345e-02" rms="4.8090484738349915e-01" purity="3.6740300059318542e-01" nType="0">
            <Node pos="l" depth="3" NCoef="0" IVar="-1" Cut="0.0000000000000000e+00" cType="1" res="-2.2734466940164566e-02" rms="4.6707534790039062e-01" purity="3.2594925165176392e-01" nType="-99"/>
            <Node pos="r" depth="3" NCoef="0" IVar="-1" Cut="0.0000000000000000e+00" cType="1" res="-1.0916721075773239e-02" rms="4.8380482196807861e-01" purity="3.7852182984352112e-01" nType="-99"/>
          </Node>
        </Node>
        <Node pos="r" depth="1" NCoef="0" IVar="0" Cut="1.5650866553187370e-02" cType="1" res="5.6366726756095886e-02" rms="4.8065078258514404e-01" purity="6.1729484796524048e-01" nType="0">
          <Node pos="l" depth="2" NCoef="0" IVar="3" Cut="1.8023695796728134e-02" cType="1" res="6.8493783473968506e-02" rms="4.7678178548812866e-01" purity="6.3574957847595215e-01" nType="0">
            <Node pos="l" depth="3" NCoef="0" IVar="-1" Cut="0.0000000000000000e+00" cType="1" res="1.1473000980913639e-02" rms="4.7712191939353943e-01" purity="6.2888193130493164e-01" nType="-99"/>
            <Node pos="r" depth="3" NCoef="0" IVar="-1" Cut="0.0000000000000000e+00" cType="1" res="2.2122479975223541e-02" rms="4.7337472438812256e-01" purity="6.5797531604766846e-01" nType="-99"/>
          </Node>
          <Node pos="r" depth="2" NCoef="0" IVar="3" Cut="2.6111561805009842e-02" cType="1" res="-3.2364070415496826e-02" rms="4.9917879700660706e-01" purity="4.8226606845855713e-01" nType="0">
            <Node pos="l" depth="3" NCoef="0" IVar="-1" Cut="0.0000000000000000e+00" cType="1" res="6.2554894248023629e-04" rms="4.9929019808769226e-01" purity="5.1800251007080078e-01" nType="-99"/>
            <Node pos="r" depth="3" NCoef="0" IVar="-1" Cut="0.0000000000000000e+00" cType="1" res="-1.3943537138402462e-02" rms="4.9634337425231934e-01" purity="4.4478267431259155e-01" nType="-99"/>
          </Node>
        </Node>
      </Node>
    </BinaryTree>
    <BinaryTree type="DecisionTree" boostWeight="1.0000000000000000e+00" itree="8">
      <Node pos="s" depth="0" NCoef="0" IVar="4" Cut="9.5810490846633911e-01" cType="1" res="-4.0167177212424576e-04" rms="4.8540607094764709e-01" purity="4.9931174516677856e-01" nType="0">
        <Node pos="l" depth="1" NCoef="0" IVar="0" Cut="8.0047054216265678e-03" cType="1" res="-4.3058641254901886e-02" rms="4.8552909493446350e-01" purity="4.0071699023246765e-01" nType="0">
          <Node pos="l" depth="2" NCoef="0" IVar="1" Cut="2.7226816862821579e-02" cType="1" res="1.8348461017012596e-02" rms="4.9833548069000244e-01" purity="5.2000039815902710e-01" nType="0">
            <Node pos="l" depth="3" NCoef="0" IVar="-1" Cut="0.0000000000000000e+00" cType="1" res="-1.6652923077344894e-03" rms="4.9882197380065918e-01" purity="4.8267757892608643e-01" nType="-99"/>
            <Node pos="r" depth="3" NCoef="0" IVar="-1" Cut="0.0000000000000000e+00" cType="1" res="6.8923211656510830e-03" rms="4.9735909700393677e-01" purity="5.4238122701644897e-01" nType="-99"/>
          </Node>
          <Node pos="r" depth="2" NCoef="0" IVar="1" Cut="2.3001076653599739e-02" cType="1" res="-6.2754981219768524e-02" rms="4.7968706488609314e-01" purity="3.6245682835578918e-01" nType="0">
            <Node pos="l" depth="3" NCoef="0" IVar="-1" Cut="0.0000000000000000e+00" cType="1" res="-2.2770741954445839e-02" rms="4.6271172165870667e-01" purity="3.1336188316345215e-01" nType="-99"/>
            <Node pos="r" depth="3" NCoef="0" IVar="-1" Cut="0.0000000000000000e+00" cType="1" res="-1.0244320146739483e-02" rms="4.8323950171470642e-01" purity="3.7534007430076599e-01" nType="-99"/>
          </Node>
        </Node>
        <Node pos="r" depth="1" NCoef="0" IVar="0" Cut="7.8254332765936852e-03" cType="1" res="5.0590481609106064e-02" rms="4.8031330108642578e-01" purity="6.1717188358306885e-01" nType="0">
          <Node pos="l" depth="2" NCoef="0" IVar="4" Cut="9.9401521682739258e-01" cType="1" res="8.2561597228050232e-02" rms="4.6729803085327148e-01" purity="6.7537224292755127e-01" nType="0">
            <Node pos="l" depth="3" NCoef="0" IVar="-1" Cut="0.0000000000000000e+00" cType="1" res="2.7055358514189720e-02" rms="4.4584560394287109e-01" purity="7.2257727384567261e-01" nType="-99"/>
            <Node pos="r" depth="3" NCoef="0" IVar="-1" Cut="0.0000000000000000e+00" cType="1" res="1.0139768943190575e-02" rms="4.7889715433120728e-01" purity="6.4230453968048096e-01" nType="-99"/>
          </Node>
          <Node pos="r" depth="2" NCoef="0" IVar="3" Cut="1.0444624349474907e-02" cType="1" res="2.0124172791838646e-02" rms="4.9046054482460022e-01" purity="5.6171089410781860e-01" nType="0">
            <Node pos="l" depth="3" NCoef="0" IVar="-1" Cut="0.0000000000000000e+00" cType="1" res="1.7625117674469948e-02" rms="4.7628077864646912e-01" purity="6.4795327186584473e-01" nType="-99"/>
            <Node pos="r" depth="3" NCoef="0" IVar="-1" Cut="0.0000000000000000e+00" cType="1" res="2.1857356477994472e-04" rms="4.9283230304718018e-01" purity="5.3684568405151367e-01" nType="-99"/>
          </Node>
        </Node>
      </Node>
    </BinaryTree>
    <BinaryTree type="DecisionTree" boostWeight="1.0000000000000000e+00" itree="9">
      <Node pos="s" depth="0" NCoef="0" IVar="4" Cut="9.6029478311538696e-01" cType="1" res="3.9838775410316885e-04" rms="4.8443332314491272e-01" purity="5.0021618604660034e-01" nType="0">
        <Node pos="l" depth="1" NCoef="0" IVar="0" Cut="8.0030914396047592e-03" cType="1" res="-3.7009481340646744e-02" rms="4.8536849021911621e-01" purity="4.0360313653945923e-01" nType="0">
          <Node pos="l" depth="2" NCoef="0" IVar="1" Cut="1.7952917143702507e-02" cType="1" res="2.0793136209249496e-02" rms="4.9777251482009888e-01" purity="5.2475267648696899e-01" nType="0">
            <Node pos="l" depth="3" NCoef="0" IVar="-1" Cut="0.0000000000000000e+00" cType="1" res="-3.6983839236199856e-03" rms="4.9772152304649353e-01" purity="4.6866655349731445e-01" nType="-99"/>
            <Node pos="r" depth="3" NCoef="0" IVar="-1" Cut="0.0000000000000000e+00" cType="1" res="6.6922926343977451e-03" rms="4.9713653326034546e-01" purity="5.4268145561218262e-01" nType="-99"/>
          </Node>
          <Node pos="r" depth="2" NCoef="0" IVar="4" Cut="9.2247927188873291e-01" cType="1" res="-5.5856682360172272e-02" rms="4.7975164651870728e-01" purity="3.6410096287727356e-01" nType="0">
            <Node pos="l" depth="3" NCoef="0" IVar="-1" Cut="0.0000000000000000e+00" cType="1" res="-1.3970586471259594e-02" rms="4.7602587938308716e-01" purity="3.5126635432243347e-01" nType="-99"/>
            <Node pos="r" depth="3" NCoef="0" IVar="-1" Cut="0.0000000000000000e+00" cType="1" res="-1.1917374795302749e-03" rms="4.9168473482131958e-01" purity="4.1709741950035095e-01" nType="-99"/>
          </Node>
        </Node>
        <Node pos="r" depth="1" NCoef="0" IVar="0" Cut="1.8334841355681419e-02" cType="1" res="4.6916540712118149e-02" rms="4.7921159863471985e-01" purity="6.2035828828811646e-01" nType="0">
          <Node pos="l" depth="2" NCoef="0" IVar="0" Cut="7.8576616942882538e-03" cType="1" res="5.4596118628978729e-02" rms="4.7711068391799927e-01" purity="6.3256770372390747e-01" nType="0">
            <Node pos="l" depth="3" NCoef="0" IVar="-1" Cut="0.0000000000000000e+00" cType="1" res="1.5316369943320751e-02" rms="4.6714365482330322e-01" purity="6.7508727312088013e-01" nType="-99"/>
            <Node pos="r" depth="3" NCoef="0" IVar="-1" Cut="0.0000000000000000e+00" cType="1" res="6.7915860563516617e-03" rms="4.8722329735755920e-01" purity="5.8468979597091675e-01" nType="-99"/>
          </Node>
          <Node pos="r" depth="2" NCoef="0" IVar="-1" Cut="0.0000000000000000e+00" cType="1" res="-1.3999885879456997e-02" rms="4.9564507603645325e-01" purity="4.3451184034347534e-01" nType="-99"/>
        </Node>
      </Node>
    </BinaryTree>
    <BinaryTree type="DecisionTree" boostWeight="1.0000000000000000e+00" itree="10">
      <Node pos="s" depth="0" NCoef="0" IVar="4" Cut="9.5970445871353149e-01" cType="1" res="1.5011908253654838e-03" rms="4.8369887471199036e-01" purity="5.0141870975494385e-01" nType="0">
        <Node pos="l" depth="1" NCoef="0" IVar="3" Cut="9.1297244653105736e-03" cType="1" res="-3.3692654222249985e-02" rms="4.8501968383789062e-01" purity="4.0293303132057190e-01" nType="0">
          <Node pos="l" depth="2" NCoef="0" IVar="4" Cut="5.3755766153335571e-01" cType="1" res="1.1115442961454391e-02" rms="4.9664559960365295e-01" purity="4.8770484328269958e-01" nType="0">
            <Node pos="l" depth="3" NCoef="0" IVar="-1" Cut="0.0000000000000000e+00" cType="1" res="-2.0819192286580801e-03" rms="4.9281209707260132e-01" purity="4.5790186524391174e-01" nType="-99"/>
            <Node pos="r" depth="3" NCoef="0" IVar="-1" Cut="0.0000000000000000e+00" cType="1" res="3.9788740687072277e-03" rms="4.9791908264160156e-01" purity="4.9968054890632629e-01" nType="-99"/>
          </Node>
          <Node pos="r" depth="2" NCoef="0" IVar="0" Cut="8.5211722180247307e-03" cType="1" res="-4.8358734697103500e-02" rms="4.8024612665176392e-01" purity="3.7518647313117981e-01" nType="0">
            <Node pos="l" depth="3" NCoef="0" IVar="-1" Cut="0.0000000000000000e+00" cType="1" res="2.7221208438277245e-03" rms="4.9736231565475464e-01" purity="4.9242344498634338e-01" nType="-99"/>
            <Node pos="r" depth="3" NCoef="0" IVar="-1" Cut="0.0000000000000000e+00" cType="1" res="-1.3427627272903919e-02" rms="4.7421044111251831e-01" purity="3.4389132261276245e-01" nType="-99"/>
          </Node>
        </Node>
        <Node pos="r" depth="1" NCoef="0" IVar="0" Cut="1.7210304737091064e-02" cType="1" res="4.4793076813220978e-02" rms="4.7853201627731323e-01" purity="6.2256574630737305e-01" nType="0">
          <Node pos="l" depth="2" NCoef="0" IVar="3" Cut="1.5770733356475830e-02" cType="1" res="5.2348606288433075e-02" rms="4.7599908709526062e-01" purity="6.3680589199066162e-01" nType="0">
            <Node pos="l" depth="3" NCoef="0" IVar="-1" Cut="0.0000000000000000e+00" cType="1" res="8.3231553435325623e-03" rms="4.7501835227012634e-01" purity="6.3357102870941162e-01" nType="-99"/>
            <Node pos="r" depth="3" NCoef="0" IVar="-1" Cut="0.0000000000000000e+00" cType="1" res="1.7329744994640350e-02" rms="4.7703048586845398e-01" purity="6.4536941051483154e-01" nType="-99"/>
          </Node>
          <Node pos="r" depth="2" NCoef="0" IVar="-1" Cut="0.0000000000000000e+00" cType="1" res="-7.8457752242684364e-03" rms="4.9817708134651184e-01" purity="4.6426784992218018e-01" nType="-99"/>
        </Node>
      </Node>
    </BinaryTree>
    <BinaryTree type="DecisionTree" boostWeight="1.0000000000000000e+00" itree="11">
      <Node pos="s" depth="0" NCoef="0" IVar="4" Cut="9.2059707641601562e-01" cType="1" res="-6.9190171780064702e-04" rms="4.8339816927909851e-01" purity="4.9942177534103394e-01" nType="0">
        <Node pos="l" depth="1" NCoef="0" IVar="1" Cut="2.3942928761243820e-02" cType="1" res="-3.8827609270811081e-02" rms="4.8247152566909790e-01" purity="3.9485579729080200e-01" nType="0">
          <Node pos="l" depth="2" NCoef="0" IVar="1" Cut="1.5962816774845123e-02" cType="1" res="-1.2052515894174576e-01" rms="4.5455035567283630e-01" purity="3.1731125712394714e-01" nType="0">
            <Node pos="l" depth="3" NCoef="0" IVar="-1" Cut="0.0000000000000000e+00" cType="1" res="-4.2351160198450089e-02" rms="4.0470561385154724e-01" purity="2.2186689078807831e-01" nType="-99"/>
            <Node pos="r" depth="3" NCoef="0" IVar="-1" Cut="0.0000000000000000e+00" cType="1" res="-1.0493347421288490e-02" rms="4.8041123151779175e-01" purity="3.9500704407691956e-01" nType="-99"/>
          </Node>
          <Node pos="r" depth="2" NCoef="0" IVar="0" Cut="1.8323728814721107e-02" cType="1" res="-2.4226551875472069e-02" rms="4.8584824800491333e-01" purity="4.0871465206146240e-01" nType="0">
            <Node pos="l" depth="3" NCoef="0" IVar="-1" Cut="0.0000000000000000e+00" cType="1" res="-2.0037174690514803e-03" rms="4.8979175090789795e-01" purity="4.2945364117622375e-01" nType="-99"/>
            <Node pos="r" depth="3" NCoef="0" IVar="-1" Cut="0.0000000000000000e+00" cType="1" res="-2.0725915208458900e-02" rms="4.5747572183609009e-01" purity="3.0082067847251892e-01" nType="-99"/>
          </Node>
        </Node>
        <Node pos="r" depth="1" NCoef="0" IVar="1" Cut="9.1086467728018761e-03" cType="1" res="2.9914028942584991e-02" rms="4.8196285963058472e-01" purity="5.8334153890609741e-01" nType="0">
          <Node pos="l" depth="2" NCoef="0" IVar="4" Cut="9.9247032403945923e-01" cType="1" res="6.3330307602882385e-02" rms="4.6803447604179382e-01" purity="6.5895909070968628e-01" nType="0">
            <Node pos="l" depth="3" NCoef="0" IVar="-1" Cut="0.0000000000000000e+00" cType="1" res="2.2469904273748398e-02" rms="4.4766488671302795e-01" purity="6.8883764743804932e-01" nType="-99"/>
            <Node pos="r" depth="3" NCoef="0" IVar="-1" Cut="0.0000000000000000e+00" cType="1" res="6.7479806020855904e-03" rms="4.7943595051765442e-01" purity="6.3789516687393188e-01" nType="-99"/>
          </Node>
          <Node pos="r" depth="2" NCoef="0" IVar="3" Cut="1.6973316669464111e-02" cType="1" res="1.8010953208431602e-03" rms="4.9162012338638306e-01" purity="5.1972490549087524e-01" nType="0">
            <Node pos="l" depth="3" NCoef="0" IVar="-1" Cut="0.0000000000000000e+00" cType="1" res="-8.2186199724674225e-03" rms="4.9066242575645447e-01" purity="4.8515689373016357e-01" nType="-99"/>
            <Node pos="r" depth="3" NCoef="0" IVar="-1" Cut="0.0000000000000000e+00" cType="1" res="7.0372675545513630e-03" rms="4.8988375067710876e-01" purity="5.4681259393692017e-01" nType="-99"/>
          </Node>
        </Node>
      </Node>
    </BinaryTree>
    <BinaryTree type="DecisionTree" boostWeight="1.0000000000000000e+00" itree="12">
      <Node pos="s" depth="0" NCoef="0" IVar="4" Cut="9.5810490846633911e-01" cType="1" res="6.8599567748606205e-04" rms="4.8224100470542908e-01" purity="5.0055259466171265e-01" nType="0">
        <Node pos="l" depth="1" NCoef="0" IVar="0" Cut="1.8321132287383080e-02" cType="1" res="-2.9319060966372490e-02" rms="4.8362675309181213e-01" purity="3.9988979697227478e-01" nType="0">
          <Node pos="l" depth="2" NCoef="0" IVar="0" Cut="9.5985764637589455e-03" cType="1" res="-2.0291946828365326e-02" rms="4.8668837547302246e-01" purity="4.1492271423339844e-01" nType="0">
            <Node pos="l" depth="3" NCoef="0" IVar="-1" Cut="0.0000000000000000e+00" cType="1" res="2.6260011363774538e-03" rms="4.9560710787773132e-01" purity="4.8288002610206604e-01" nType="-99"/>
            <Node pos="r" depth="3" NCoef="0" IVar="-1" Cut="0.0000000000000000e+00" cType="1" res="-1.0604820214211941e-02" rms="4.7625166177749634e-01" purity="3.5218963027000427e-01" nType="-99"/>
          </Node>
          <Node pos="r" depth="2" NCoef="0" IVar="3" Cut="2.4345930665731430e-02" cType="1" res="-8.3664640784263611e-02" rms="4.6104905009269714e-01" purity="3.0938744544982910e-01" nType="0">
            <Node pos="l" depth="3" NCoef="0" IVar="-1" Cut="0.0000000000000000e+00" cType="1" res="-1.2156045064330101e-02" rms="4.7193223237991333e-01" purity="3.3873927593231201e-01" nType="-99"/>
            <Node pos="r" depth="3" NCoef="0" IVar="-1" Cut="0.0000000000000000e+00" cType="1" res="-2.1287417039275169e-02" rms="4.5254397392272949e-01" purity="2.8912290930747986e-01" nType="-99"/>
          </Node>
        </Node>
        <Node pos="r" depth="1" NCoef="0" IVar="0" Cut="7.8254332765936852e-03" cType="1" res="3.6496609449386597e-02" rms="4.7812348604202271e-01" purity="6.2069219350814819e-01" nType="0">
          <Node pos="l" depth="2" NCoef="0" IVar="3" Cut="8.0168526619672775e-03" cType="1" res="6.1883147805929184e-02" rms="4.6552971005439758e-01" purity="6.7789703607559204e-01" nType="0">
            <Node pos="l" depth="3" NCoef="0" IVar="-1" Cut="0.0000000000000000e+00" cType="1" res="-1.8475836841389537e-03" rms="4.9036204814910889e-01" purity="5.9823834896087646e-01" nType="-99"/>
            <Node pos="r" depth="3" NCoef="0" IVar="-1" Cut="0.0000000000000000e+00" cType="1" res="1.7785387113690376e-02" rms="4.5532205700874329e-01" purity="7.0262050628662109e-01" nType="-99"/>
          </Node>
          <Node pos="r" depth="2" NCoef="0" IVar="3" Cut="1.4578150585293770e-02" cType="1" res="1.2343730777502060e-02" rms="4.8858180642127991e-01" purity="5.6626725196838379e-01" nType="0">
            <Node pos="l" depth="3" NCoef="0" IVar="-1" Cut="0.0000000000000000e+00" cType="1" res="-6.1960471794009209e-03" rms="4.8678115010261536e-01" purity="5.3447383642196655e-01" nType="-99"/>
            <Node pos="r" depth="3" NCoef="0" IVar="-1" Cut="0.0000000000000000e+00" cType="1" res="8.1364419311285019e-03" rms="4.8775854706764221e-01" purity="5.8707010746002197e-01" nType="-99"/>
          </Node>
        </Node>
      </Node>
    </BinaryTree>
    <BinaryTree type="DecisionTree" boostWeight="1.0000000000000000e+00" itree="13">
      <Node pos="s" depth="0" NCoef="0" IVar="0" Cut="8.0010844394564629e-03" cType="1" res="-7.2990992339327931e-04" rms="4.8217353224754333e-01" purity="4.9926501512527466e-01" nType="0">
        <Node pos="l" depth="1" NCoef="0" IVar="3" Cut="8.0631207674741745e-03" cType="1" res="3.9388675242662430e-02" rms="4.7863900661468506e-01" purity="6.1845642328262329e-01" nType="0">
          <Node pos="l" depth="2" NCoef="0" IVar="4" Cut="9.6082609891891479e-01" cType="1" res="-3.9430819451808929e-03" rms="4.9465087056159973e-01" purity="5.7012277841567993e-01" nType="0">
            <Node pos="l" depth="3" NCoef="0" IVar="-1" Cut="0.0000000000000000e+00" cType="1" res="3.1893230043351650e-03" rms="4.9781993031501770e-01" purity="5.4103267192840576e-01" nType="-99"/>
            <Node pos="r" depth="3" NCoef="0" IVar="-1" Cut="0.0000000000000000e+00" cType="1" res="-3.5987296141684055e-03" rms="4.9208021163940430e-01" purity="5.8954244852066040e-01" nType="-99"/>
          </Node>
          <Node pos="r" depth="2" NCoef="0" IVar="4" Cut="9.6368789672851562e-01" cType="1" res="5.3229350596666336e-02" rms="4.7257405519485474e-01" purity="6.3389480113983154e-01" nType="0">
            <Node pos="l" depth="3" NCoef="0" IVar="-1" Cut="0.0000000000000000e+00" cType="1" res="4.1705965995788574e-03" rms="4.9644678831100464e-01" purity="5.2473896741867065e-01" nType="-99"/>
            <Node pos="r" depth="3" NCoef="0" IVar="-1" Cut="0.0000000000000000e+00" cType="1" res="1.5671599656343460e-02" rms="4.5614504814147949e-01" purity="7.0094507932662964e-01" nType="-99"/>
          </Node>
        </Node>
        <Node pos="r" depth="1" NCoef="0" IVar="3" Cut="1.6573371365666389e-02" cType="1" res="-2.3624628782272339e-02" rms="4.8268693685531616e-01" purity="4.3124532699584961e-01" nType="0">
          <Node pos="l" depth="2" NCoef="0" IVar="3" Cut="1.1048719286918640e-02" cType="1" res="-5.6052807718515396e-02" rms="4.7687819600105286e-01" purity="3.9544579386711121e-01" nType="0">
            <Node pos="l" depth="3" NCoef="0" IVar="-1" Cut="0.0000000000000000e+00" cType="1" res="-9.5013302052393556e-04" rms="4.8614051938056946e-01" purity="4.5488420128822327e-01" nType="-99"/>
            <Node pos="r" depth="3" NCoef="0" IVar="-1" Cut="0.0000000000000000e+00" cType="1" res="-3.1948313117027283e-02" rms="4.4239503145217896e-01" purity="2.8204095363616943e-01" nType="-99"/>
          </Node>
          <Node pos="r" depth="2" NCoef="0" IVar="0" Cut="1.4767871238291264e-02" cType="1" res="7.0284772664308548e-03" rms="4.8612937331199646e-01" purity="4.6508520841598511e-01" nType="0">
            <Node pos="l" depth="3" NCoef="0" IVar="-1" Cut="0.0000000000000000e+00" cType="1" res="1.4396249316632748e-02" rms="4.8677444458007812e-01" purity="5.5422198772430420e-01" nType="-99"/>
            <Node pos="r" depth="3" NCoef="0" IVar="-1" Cut="0.0000000000000000e+00" cType="1" res="-9.2180259525775909e-03" rms="4.7951346635818481e-01" purity="3.9181226491928101e-01" nType="-99"/>
          </Node>
        </Node>
      </Node>
    </BinaryTree>
    <BinaryTree type="DecisionTree" boostWeight="1.0000000000000000e+00" itree="14">
      <Node pos="s" depth="0" NCoef="0" IVar="4" Cut="9.1929942369461060e-01" cType="1" res="-4.5563385356217623e-04" rms="4.8131501674652100e-01" purity="4.9950551986694336e-01" nType="0">
        <Node pos="l" depth="1" NCoef="0" IVar="1" Cut="3.0077025294303894e-02" cType="1" res="-3.0618466436862946e-02" rms="4.8095986247062683e-01" purity="3.9499416947364807e-01" nType="0">
          <Node pos="l" depth="2" NCoef="0" IVar="1" Cut="1.5754325315356255e-02" cType="1" res="-7.7968806028366089e-02" rms="4.6366158127784729e-01" purity="3.5055360198020935e-01" nType="0">
            <Node pos="l" depth="3" NCoef="0" IVar="-1" Cut="0.0000000000000000e+00" cType="1" res="-3.8021307438611984e-02" rms="4.0152436494827271e-01" purity="2.2042860090732574e-01" nType="-99"/>
            <Node pos="r" depth="3" NCoef="0" IVar="-1" Cut="0.0000000000000000e+00" cType="1" res="-6.6819111816585064e-03" rms="4.8175573348999023e-01" purity="4.0826165676116943e-01" nType="-99"/>
          </Node>
          <Node pos="r" depth="2" NCoef="0" IVar="0" Cut="1.4981551095843315e-02" cType="1" res="-1.7895255237817764e-02" rms="4.8471516370773315e-01" purity="4.0693548321723938e-01" nType="0">
            <Node pos="l" depth="3" NCoef="0" IVar="-1" Cut="0.0000000000000000e+00" cType="1" res="-1.8716575868893415e-04" rms="4.9108526110649109e-01" purity="4.4252112507820129e-01" nType="-99"/>
            <Node pos="r" depth="3" NCoef="0" IVar="-1" Cut="0.0000000000000000e+00" cType="1" res="-1.1868805624544621e-02" rms="4.6784403920173645e-01" purity="3.2697850465774536e-01" nType="-99"/>
          </Node>
        </Node>
        <Node pos="r" depth="1" NCoef="0" IVar="0" Cut="9.6518117934465408e-03" cType="1" res="2.3517690598964691e-02" rms="4.8024782538414001e-01" purity="5.8257085084915161e-01" nType="0">
          <Node pos="l" depth="2" NCoef="0" IVar="0" Cut="4.5960405841469765e-03" cType="1" res="3.9683841168880463e-02" rms="4.7438734769821167e-01" purity="6.3636577129364014e-01" nType="0">
            <Node pos="l" depth="3" NCoef="0" IVar="-1" Cut="0.0000000000000000e+00" cType="1" res="-1.0518304770812392e-03" rms="4.8984825611114502e-01" purity="5.9940296411514282e-01" nType="-99"/>
            <Node pos="r" depth="3" NCoef="0" IVar="-1" Cut="0.0000000000000000e+00" cType="1" res="1.0206282138824463e-02" rms="4.7085681557655334e-01" purity="6.4349931478500366e-01" nType="-99"/>
          </Node>
          <Node pos="r" depth="2" NCoef="0" IVar="3" Cut="1.6966084018349648e-02" cType="1" res="-3.7953965365886688e-03" rms="4.8877668380737305e-01" purity="4.9168300628662109e-01" nType="0">
            <Node pos="l" depth="3" NCoef="0" IVar="-1" Cut="0.0000000000000000e+00" cType="1" res="-2.2169761359691620e-02" rms="4.6674677729606628e-01" purity="3.2939201593399048e-01" nType="-99"/>
            <Node pos="r" depth="3" NCoef="0" IVar="-1" Cut="0.0000000000000000e+00" cType="1" res="5.5676712654531002e-03" rms="4.9086463451385498e-01" purity="5.3992158174514771e-01" nType="-99"/>
          </Node>
        </Node>
      </Node>
    </BinaryTree>
    <BinaryTree type="DecisionTree" boostWeight="1.0000000000000000e+00" itree="15">
      <Node pos="s" depth="0" NCoef="0" IVar="4" Cut="9.2011928558349609e-01" cType="1" res="8.4161983977537602e-05" rms="4.8062965273857117e-01" purity="5.0011181831359863e-01" nType="0">
        <Node pos="l" depth="1" NCoef="0" IVar="1" Cut="2.3001117631793022e-02" cType="1" res="-2.7593571692705154e-02" rms="4.8030945658683777e-01" purity="3.9486268162727356e-01" nType="0">
          <Node pos="l" depth="2" NCoef="0" IVar="0" Cut="9.0044653043150902e-03" cType="1" res="-1.0483562201261520e-01" rms="4.4540113210678101e-01" purity="3.0546128749847412e-01" nType="0">
            <Node pos="l" depth="3" NCoef="0" IVar="-1" Cut="0.0000000000000000e+00" cType="1" res="-9.3091102316975594e-03" rms="4.8420932888984680e-01" purity="4.0786984562873840e-01" nType="-99"/>
            <Node pos="r" depth="3" NCoef="0" IVar="-1" Cut="0.0000000000000000e+00" cType="1" res="-3.7746798247098923e-02" rms="3.8434422016143799e-01" purity="1.8653371930122375e-01" nType="-99"/>
          </Node>
          <Node pos="r" depth="2" NCoef="0" IVar="0" Cut="1.8324613571166992e-02" cType="1" res="-1.4981407672166824e-02" rms="4.8460328578948975e-01" purity="4.0946024656295776e-01" nType="0">
            <Node pos="l" depth="3" NCoef="0" IVar="-1" Cut="0.0000000000000000e+00" cType="1" res="-5.0874729640781879e-04" rms="4.8928725719451904e-01" purity="4.3173158168792725e-01" nType="-99"/>
            <Node pos="r" depth="3" NCoef="0" IVar="-1" Cut="0.0000000000000000e+00" cType="1" res="-1.7421325668692589e-02" rms="4.5319730043411255e-01" purity="2.9125747084617615e-01" nType="-99"/>
          </Node>
        </Node>
        <Node pos="r" depth="1" NCoef="0" IVar="0" Cut="9.4533506780862808e-03" cType="1" res="2.2205049172043800e-02" rms="4.7973865270614624e-01" purity="5.8423006534576416e-01" nType="0">
          <Node pos="l" depth="2" NCoef="0" IVar="3" Cut="7.4901753105223179e-03" cType="1" res="3.8645468652248383e-02" rms="4.7309827804565430e-01" purity="6.4216679334640503e-01" nType="0">
            <Node pos="l" depth="3" NCoef="0" IVar="-1" Cut="0.0000000000000000e+00" cType="1" res="-1.6651818295940757e-03" rms="4.9159204959869385e-01" purity="5.9140396118164062e-01" nType="-99"/>
            <Node pos="r" depth="3" NCoef="0" IVar="-1" Cut="0.0000000000000000e+00" cType="1" res="9.7947428002953529e-03" rms="4.6964094042778015e-01" purity="6.5029221773147583e-01" nType="-99"/>
          </Node>
          <Node pos="r" depth="2" NCoef="0" IVar="3" Cut="1.6973316669464111e-02" cType="1" res="-3.6903095897287130e-03" rms="4.8889553546905518e-01" purity="4.9297386407852173e-01" nType="0">
            <Node pos="l" depth="3" NCoef="0" IVar="-1" Cut="0.0000000000000000e+00" cType="1" res="-1.6789294779300690e-02" rms="4.7364374995231628e-01" purity="3.5482794046401978e-01" nType="-99"/>
            <Node pos="r" depth="3" NCoef="0" IVar="-1" Cut="0.0000000000000000e+00" cType="1" res="4.5913918875157833e-03" rms="4.9112933874130249e-01" purity="5.3925895690917969e-01" nType="-99"/>
          </Node>
        </Node>
      </Node>
    </BinaryTree>
    <BinaryTree type="DecisionTree" boostWeight="1.0000000000000000e+00" itree="16">
      <Node pos="s" depth="0" NCoef="0" IVar="0" Cut="8.0010844394564629e-03" cType="1" res="7.3149241507053375e-04" rms="4.7993886470794678e-01" purity="5.0045096874237061e-01" nType="0">
        <Node pos="l" depth="1" NCoef="0" IVar="3" Cut="8.2169389352202415e-03" cType="1" res="3.2226633280515671e-02" rms="4.7769153118133545e-01" purity="6.1894643306732178e-01" nType="0">
          <Node pos="l" depth="2" NCoef="0" IVar="4" Cut="8.8705855607986450e-01" cType="1" res="7.9803820699453354e-04" rms="4.9336358904838562e-01" purity="5.7360124588012695e-01" nType="0">
            <Node pos="l" depth="3" NCoef="0" IVar="-1" Cut="0.0000000000000000e+00" cType="1" res="2.9362251516431570e-03" rms="4.9740207195281982e-01" purity="5.4157787561416626e-01" nType="-99"/>
            <Node pos="r" depth="3" NCoef="0" IVar="-1" Cut="0.0000000000000000e+00" cType="1" res="-1.3438973110169172e-03" rms="4.9107763171195984e-01" purity="5.9039402008056641e-01" nType="-99"/>
          </Node>
          <Node pos="r" depth="2" NCoef="0" IVar="1" Cut="1.1988420039415359e-02" cType="1" res="4.3234515935182571e-02" rms="4.7158432006835938e-01" purity="6.3482862710952759e-01" nType="0">
            <Node pos="l" depth="3" NCoef="0" IVar="-1" Cut="0.0000000000000000e+00" cType="1" res="1.2796615250408649e-02" rms="4.5681935548782349e-01" purity="6.9439268112182617e-01" nType="-99"/>
            <Node pos="r" depth="3" NCoef="0" IVar="-1" Cut="0.0000000000000000e+00" cType="1" res="3.0166115611791611e-03" rms="4.9593538045883179e-01" purity="5.2704977989196777e-01" nType="-99"/>
          </Node>
        </Node>
        <Node pos="r" depth="1" NCoef="0" IVar="3" Cut="1.6972664743661880e-02" cType="1" res="-1.7336146906018257e-02" rms="4.8029199242591858e-01" purity="4.3247437477111816e-01" nType="0">
          <Node pos="l" depth="2" NCoef="0" IVar="3" Cut="1.0506818071007729e-02" cType="1" res="-4.4802114367485046e-02" rms="4.7435393929481506e-01" purity="3.9656996726989746e-01" nType="0">
            <Node pos="l" depth="3" NCoef="0" IVar="-1" Cut="0.0000000000000000e+00" cType="1" res="2.5231034960597754e-03" rms="4.8652118444442749e-01" purity="4.7039291262626648e-01" nType="-99"/>
            <Node pos="r" depth="3" NCoef="0" IVar="-1" Cut="0.0000000000000000e+00" cType="1" res="-2.4863760918378830e-02" rms="4.4768390059471130e-01" purity="3.0161756277084351e-01" nType="-99"/>
          </Node>
          <Node pos="r" depth="2" NCoef="0" IVar="0" Cut="1.8150545656681061e-02" cType="1" res="8.8466936722397804e-03" rms="4.8443746566772461e-01" purity="4.6670141816139221e-01" nType="0">
            <Node pos="l" depth="3" NCoef="0" IVar="-1" Cut="0.0000000000000000e+00" cType="1" res="7.9107070341706276e-03" rms="4.8731768131256104e-01" purity="5.1492524147033691e-01" nType="-99"/>
            <Node pos="r" depth="3" NCoef="0" IVar="-1" Cut="0.0000000000000000e+00" cType="1" res="-1.3575870543718338e-02" rms="4.6917080879211426e-01" purity="3.4581968188285828e-01" nType="-99"/>
          </Node>
        </Node>
      </Node>
    </BinaryTree>
    <BinaryTree type="DecisionTree" boostWeight="1.0000000000000000e+00" itree="17">
      <Node pos="s" depth="0" NCoef="0" IVar="4" Cut="9.1620957851409912e-01" cType="1" res="2.1081668091937900e-04" rms="4.7964772582054138e-01" purity="5.0025022029876709e-01" nType="0">
        <Node pos="l" depth="1" NCoef="0" IVar="1" Cut="2.1221799775958061e-02" cType="1" res="-2.3049844428896904e-02" rms="4.7970429062843323e-01" purity="3.9588803052902222e-01" nType="0">
          <Node pos="l" depth="2" NCoef="0" IVar="-1" Cut="0.0000000000000000e+00" cType="1" res="-2.1759860217571259e-02" rms="4.3744874000549316e-01" purity="2.9342547059059143e-01" nType="-99"/>
          <Node pos="r" depth="2" NCoef="0" IVar="0" Cut="1.2218905612826347e-02" cType="1" res="-1.2217871844768524e-02" rms="4.8421314358711243e-01" purity="4.0994936227798462e-01" nType="0">
            <Node pos="l" depth="3" NCoef="0" IVar="-1" Cut="0.0000000000000000e+00" cType="1" res="1.4933922793716192e-03" rms="4.9257481098175049e-01" purity="4.6261605620384216e-01" nType="-99"/>
            <Node pos="r" depth="3" NCoef="0" IVar="-1" Cut="0.0000000000000000e+00" cType="1" res="-8.0607766285538673e-03" rms="4.7178351879119873e-01" purity="3.4079146385192871e-01" nType="-99"/>
          </Node>
        </Node>
        <Node pos="r" depth="1" NCoef="0" IVar="3" Cut="1.1310721747577190e-02" cType="1" res="1.8222797662019730e-02" rms="4.7882828116416931e-01" purity="5.8106356859207153e-01" nType="0">
          <Node pos="l" depth="2" NCoef="0" IVar="1" Cut="1.0438243858516216e-02" cType="1" res="3.5698745399713516e-02" rms="4.7415709495544434e-01" purity="6.3223010301589966e-01" nType="0">
            <Node pos="l" depth="3" NCoef="0" IVar="-1" Cut="0.0000000000000000e+00" cType="1" res="1.1351370252668858e-02" rms="4.6556776762008667e-01" purity="6.7321956157684326e-01" nType="-99"/>
            <Node pos="r" depth="3" NCoef="0" IVar="-1" Cut="0.0000000000000000e+00" cType="1" res="-5.4357121698558331e-03" rms="4.9913507699966431e-01" purity="4.8375803232192993e-01" nType="-99"/>
          </Node>
          <Node pos="r" depth="2" NCoef="0" IVar="3" Cut="1.5889152884483337e-02" cType="1" res="-2.5642646942287683e-03" rms="4.8350399732589722e-01" purity="5.2020269632339478e-01" nType="0">
            <Node pos="l" depth="3" NCoef="0" IVar="-1" Cut="0.0000000000000000e+00" cType="1" res="-2.0137125626206398e-02" rms="4.6166598796844482e-01" purity="3.9703339338302612e-01" nType="-99"/>
            <Node pos="r" depth="3" NCoef="0" IVar="-1" Cut="0.0000000000000000e+00" cType="1" res="5.3850319236516953e-03" rms="4.8645374178886414e-01" purity="5.5812418460845947e-01" nType="-99"/>
          </Node>
        </Node>
      </Node>
    </BinaryTree>
    <BinaryTree type="DecisionTree" boostWeight="1.0000000000000000e+00" itree="18">
      <Node pos="s" depth="0" NCoef="0" IVar="0" Cut="8.0010844394564629e-03" cType="1" res="5.0181645201519132e-04" rms="4.7864419221878052e-01" purity="5.0035625696182251e-01" nType="0">
        <Node pos="l" depth="1" NCoef="0" IVar="3" Cut="9.2655215412378311e-03" cType="1" res="3.0194154009222984e-02" rms="4.7696018218994141e-01" purity="6.2183743715286255e-01" nType="0">
          <Node pos="l" depth="2" NCoef="0" IVar="3" Cut="8.3830887451767921e-03" cType="1" res="1.4357811771333218e-02" rms="4.8672267794609070e-01" purity="5.9747284650802612e-01" nType="0">
            <Node pos="l" depth="3" NCoef="0" IVar="-1" Cut="0.0000000000000000e+00" cType="1" res="3.9227659726748243e-05" rms="4.9331665039062500e-01" purity="5.7612770795822144e-01" nType="-99"/>
            <Node pos="r" depth="3" NCoef="0" IVar="-1" Cut="0.0000000000000000e+00" cType="1" res="6.9975140504539013e-03" rms="4.7726392745971680e-01" purity="6.2556838989257812e-01" nType="-99"/>
          </Node>
          <Node pos="r" depth="2" NCoef="0" IVar="1" Cut="1.1242590844631195e-02" cType="1" res="4.5845218002796173e-02" rms="4.6658366918563843e-01" purity="6.4591699838638306e-01" nType="0">
            <Node pos="l" depth="3" NCoef="0" IVar="-1" Cut="0.0000000000000000e+00" cType="1" res="1.4511613175272942e-02" rms="4.4865736365318298e-01" purity="7.1396714448928833e-01" nType="-99"/>
            <Node pos="r" depth="3" NCoef="0" IVar="-1" Cut="0.0000000000000000e+00" cType="1" res="1.9259722903370857e-03" rms="4.9554726481437683e-01" purity="5.2185308933258057e-01" nType="-99"/>
          </Node>
        </Node>
        <Node pos="r" depth="1" NCoef="0" IVar="3" Cut="1.6966084018349648e-02" cType="1" res="-1.6467727720737457e-02" rms="4.7877776622772217e-01" purity="4.3092826008796692e-01" nType="0">
          <Node pos="l" depth="2" NCoef="0" IVar="3" Cut="1.0502207092940807e-02" cType="1" res="-3.9440620690584183e-02" rms="4.7220084071159363e-01" purity="3.9586731791496277e-01" nType="0">
            <Node pos="l" depth="3" NCoef="0" IVar="-1" Cut="0.0000000000000000e+00" cType="1" res="2.0469774026423693e-03" rms="4.8596346378326416e-01" purity="4.6957588195800781e-01" nType="-99"/>
            <Node pos="r" depth="3" NCoef="0" IVar="-1" Cut="0.0000000000000000e+00" cType="1" res="-2.1983861923217773e-02" rms="4.4577977061271667e-01" purity="3.0058887600898743e-01" nType="-99"/>
          </Node>
          <Node pos="r" depth="2" NCoef="0" IVar="0" Cut="1.4433786273002625e-02" cType="1" res="5.5413232184946537e-03" rms="4.8397335410118103e-01" purity="4.6451821923255920e-01" nType="0">
            <Node pos="l" depth="3" NCoef="0" IVar="-1" Cut="0.0000000000000000e+00" cType="1" res="1.1777078732848167e-02" rms="4.8558142781257629e-01" purity="5.5665630102157593e-01" nType="-99"/>
            <Node pos="r" depth="3" NCoef="0" IVar="-1" Cut="0.0000000000000000e+00" cType="1" res="-6.6739479079842567e-03" rms="4.7935724258422852e-01" purity="3.9733418822288513e-01" nType="-99"/>
          </Node>
        </Node>
      </Node>
    </BinaryTree>
    <BinaryTree type="DecisionTree" boostWeight="1.0000000000000000e+00" itree="19">
      <Node pos="s" depth="0" NCoef="0" IVar="4" Cut="9.2058712244033813e-01" cType="1" res="4.4641914428211749e-04" rms="4.7841894626617432e-01" purity="5.0047272443771362e-01" nType="0">
        <Node pos="l" depth="1" NCoef="0" IVar="1" Cut="3.0077025294303894e-02" cType="1" res="-2.1150851622223854e-02" rms="4.7875156998634338e-01" purity="3.9390274882316589e-01" nType="0">
          <Node pos="l" depth="2" NCoef="0" IVar="1" Cut="1.5753045678138733e-02" cType="1" res="-5.4659757763147354e-02" rms="4.5961636304855347e-01" purity="3.4972482919692993e-01" nType="0">
            <Node pos="l" depth="3" NCoef="0" IVar="-1" Cut="0.0000000000000000e+00" cType="1" res="-2.9563806951045990e-02" rms="3.9973652362823486e-01" purity="2.2227801382541656e-01" nType="-99"/>
            <Node pos="r" depth="3" NCoef="0" IVar="-1" Cut="0.0000000000000000e+00" cType="1" res="-4.1264463216066360e-03" rms="4.7982338070869446e-01" purity="4.0650030970573425e-01" nType="-99"/>
          </Node>
          <Node pos="r" depth="2" NCoef="0" IVar="0" Cut="1.8324613571166992e-02" cType="1" res="-1.2079643085598946e-02" rms="4.8340216279029846e-01" purity="4.0586218237876892e-01" nType="0">
            <Node pos="l" depth="3" NCoef="0" IVar="-1" Cut="0.0000000000000000e+00" cType="1" res="-8.0805527977645397e-04" rms="4.8816114664077759e-01" purity="4.2699208855628967e-01" nType="-99"/>
            <Node pos="r" depth="3" NCoef="0" IVar="-1" Cut="0.0000000000000000e+00" cType="1" res="-1.1639216914772987e-02" rms="4.5658367872238159e-01" purity="2.9987514019012451e-01" nType="-99"/>
          </Node>
        </Node>
        <Node pos="r" depth="1" NCoef="0" IVar="1" Cut="9.1086467728018761e-03" cType="1" res="1.7689108848571777e-02" rms="4.7745242714881897e-01" purity="5.8555543422698975e-01" nType="0">
          <Node pos="l" depth="2" NCoef="0" IVar="4" Cut="9.9244171380996704e-01" cType="1" res="4.1490379720926285e-02" rms="4.6322384476661682e-01" purity="6.6125959157943726e-01" nType="0">
            <Node pos="l" depth="3" NCoef="0" IVar="-1" Cut="0.0000000000000000e+00" cType="1" res="1.9753480330109596e-02" rms="4.3764880299568176e-01" purity="6.9383919239044189e-01" nType="-99"/>
            <Node pos="r" depth="3" NCoef="0" IVar="-1" Cut="0.0000000000000000e+00" cType="1" res="1.4828285202383995e-03" rms="4.7728240489959717e-01" purity="6.3844573497772217e-01" nType="-99"/>
          </Node>
          <Node pos="r" depth="2" NCoef="0" IVar="3" Cut="1.4138402417302132e-02" cType="1" res="-2.3571997880935669e-03" rms="4.8821586370468140e-01" purity="5.2179443836212158e-01" nType="0">
            <Node pos="l" depth="3" NCoef="0" IVar="-1" Cut="0.0000000000000000e+00" cType="1" res="-6.8711377680301666e-03" rms="4.8654207587242126e-01" purity="4.8913770914077759e-01" nType="-99"/>
            <Node pos="r" depth="3" NCoef="0" IVar="-1" Cut="0.0000000000000000e+00" cType="1" res="4.0392442606389523e-03" rms="4.8823979496955872e-01" purity="5.4535210132598877e-01" nType="-99"/>
          </Node>
        </Node>
      </Node>
    </BinaryTree>
    <BinaryTree type="DecisionTree" boostWeight="1.0000000000000000e+00" itree="20">
      <Node pos="s" depth="0" NCoef="0" IVar="0" Cut="8.0010844394564629e-03" cType="1" res="4.9606768880039454e-04" rms="4.7808295488357544e-01" purity="5.0037676095962524e-01" nType="0">
        <Node pos="l" depth="1" NCoef="0" IVar="3" Cut="8.0912429839372635e-03" cType="1" res="2.4212630465626717e-02" rms="4.7669482231140137e-01" purity="6.1951327323913574e-01" nType="0">
          <Node pos="l" depth="2" NCoef="0" IVar="1" Cut="1.4622499234974384e-02" cType="1" res="-4.1954279877245426e-03" rms="4.9418637156486511e-01" purity="5.7142865657806396e-01" nType="0">
            <Node pos="l" depth="3" NCoef="0" IVar="-1" Cut="0.0000000000000000e+00" cType="1" res="-3.4705265425145626e-03" rms="4.9164706468582153e-01" purity="5.8607298135757446e-01" nType="-99"/>
            <Node pos="r" depth="3" NCoef="0" IVar="-1" Cut="0.0000000000000000e+00" cType="1" res="3.2592632342129946e-03" rms="4.9768421053886414e-01" purity="5.4723447561264038e-01" nType="-99"/>
          </Node>
          <Node pos="r" depth="2" NCoef="0" IVar="0" Cut="7.0336037315428257e-03" cType="1" res="3.3399946987628937e-02" rms="4.7053202986717224e-01" purity="6.3506412506103516e-01" nType="0">
            <Node pos="l" depth="3" NCoef="0" IVar="-1" Cut="0.0000000000000000e+00" cType="1" res="9.0958885848522186e-03" rms="4.6579265594482422e-01" purity="6.5615963935852051e-01" nType="-99"/>
            <Node pos="r" depth="3" NCoef="0" IVar="-1" Cut="0.0000000000000000e+00" cType="1" res="3.3352251630276442e-03" rms="4.7946354746818542e-01" purity="5.9249818325042725e-01" nType="-99"/>
          </Node>
        </Node>
        <Node pos="r" depth="1" NCoef="0" IVar="4" Cut="9.2011928558349609e-01" cType="1" res="-1.3104938901960850e-02" rms="4.7834697365760803e-01" purity="4.3205425143241882e-01" nType="0">
          <Node pos="l" depth="2" NCoef="0" IVar="1" Cut="3.0078168958425522e-02" cType="1" res="-3.1081950291991234e-02" rms="4.7161114215850830e-01" purity="3.5099592804908752e-01" nType="0">
            <Node pos="l" depth="3" NCoef="0" IVar="-1" Cut="0.0000000000000000e+00" cType="1" res="-2.0000245422124863e-02" rms="4.2934140563011169e-01" purity="2.6157695055007935e-01" nType="-99"/>
            <Node pos="r" depth="3" NCoef="0" IVar="-1" Cut="0.0000000000000000e+00" cType="1" res="-3.8927767891436815e-03" rms="4.7922778129577637e-01" purity="3.7013879418373108e-01" nType="-99"/>
          </Node>
          <Node pos="r" depth="2" NCoef="0" IVar="3" Cut="1.1068408377468586e-02" cType="1" res="6.8426420912146568e-03" rms="4.8493245244026184e-01" purity="5.2199786901473999e-01" nType="0">
            <Node pos="l" depth="3" NCoef="0" IVar="-1" Cut="0.0000000000000000e+00" cType="1" res="1.1091563850641251e-02" rms="4.8261609673500061e-01" purity="5.8631402254104614e-01" nType="-99"/>
            <Node pos="r" depth="3" NCoef="0" IVar="-1" Cut="0.0000000000000000e+00" cType="1" res="-1.9236068474128842e-03" rms="4.8469263315200806e-01" purity="4.9962559342384338e-01" nType="-99"/>
          </Node>
        </Node>
      </Node>
    </BinaryTree>
    <BinaryTree type="DecisionTree" boostWeight="1.0000000000000000e+00" itree="21">
      <Node pos="s" depth="0" NCoef="0" IVar="0" Cut="2.0002709701657295e-02" cType="1" res="-1.2360321125015616e-03" rms="4.7783607244491577e-01" purity="4.9912500381469727e-01" nType="0">
        <Node pos="l" depth="1" NCoef="0" IVar="0" Cut="9.5250662416219711e-03" cType="1" res="3.4772078506648540e-03" rms="4.7855982184410095e-01" purity="5.1219582557678223e-01" nType="0">
          <Node pos="l" depth="2" NCoef="0" IVar="3" Cut="1.4980350621044636e-02" cType="1" res="1.9050218164920807e-02" rms="4.7967454791069031e-01" purity="5.8514845371246338e-01" nType="0">
            <Node pos="l" depth="3" NCoef="0" IVar="-1" Cut="0.0000000000000000e+00" cType="1" res="2.9913331381976604e-03" rms="4.7996851801872253e-01" purity="5.7971358299255371e-01" nType="-99"/>
            <Node pos="r" depth="3" NCoef="0" IVar="-1" Cut="0.0000000000000000e+00" cType="1" res="1.5125994570553303e-02" rms="4.7342690825462341e-01" purity="6.4270919561386108e-01" nType="-99"/>
          </Node>
          <Node pos="r" depth="2" NCoef="0" IVar="3" Cut="1.5509495511651039e-02" cType="1" res="-1.6832744702696800e-02" rms="4.7633773088455200e-01" purity="4.1705277562141418e-01" nType="0">
            <Node pos="l" depth="3" NCoef="0" IVar="-1" Cut="0.0000000000000000e+00" cType="1" res="-1.7023835331201553e-02" rms="4.5256692171096802e-01" purity="3.0605256557464600e-01" nType="-99"/>
            <Node pos="r" depth="3" NCoef="0" IVar="-1" Cut="0.0000000000000000e+00" cType="1" res="4.4098151847720146e-03" rms="4.8617795109748840e-01" purity="4.8391327261924744e-01" nType="-99"/>
          </Node>
        </Node>
        <Node pos="r" depth="1" NCoef="0" IVar="3" Cut="2.4345930665731430e-02" cType="1" res="-6.4845964312553406e-02" rms="4.6329212188720703e-01" purity="3.2272037863731384e-01" nType="0">
          <Node pos="l" depth="2" NCoef="0" IVar="-1" Cut="0.0000000000000000e+00" cType="1" res="-4.0054819546639919e-03" rms="4.7644206881523132e-01" purity="3.6578625440597534e-01" nType="-99"/>
          <Node pos="r" depth="2" NCoef="0" IVar="-1" Cut="0.0000000000000000e+00" cType="1" res="-2.0049361512064934e-02" rms="4.5257753133773804e-01" purity="2.9599103331565857e-01" nType="-99"/>
        </Node>
      </Node>
    </BinaryTree>
    <BinaryTree type="DecisionTree" boostWeight="1.0000000000000000e+00" itree="22">
      <Node pos="s" depth="0" NCoef="0" IVar="4" Cut="9.1929942369461060e-01" cType="1" res="-7.0722145028412342e-04" rms="4.7749021649360657e-01" purity="4.9963587522506714e-01" nType="0">
        <Node pos="l" depth="1" NCoef="0" IVar="1" Cut="2.3941647261381149e-02" cType="1" res="-1.6613243147730827e-02" rms="4.7759625315666199e-01" purity="3.9395180344581604e-01" nType="0">
          <Node pos="l" depth="2" NCoef="0" IVar="0" Cut="9.1114351525902748e-03" cType="1" res="-6.6695727407932281e-02" rms="4.4298771023750305e-01" purity="3.1276747584342957e-01" nType="0">
            <Node pos="l" depth="3" NCoef="0" IVar="-1" Cut="0.0000000000000000e+00" cType="1" res="-3.7558842450380325e-03" rms="4.8446756601333618e-01" purity="4.1788285970687866e-01" nType="-99"/>
            <Node pos="r" depth="3" NCoef="0" IVar="-1" Cut="0.0000000000000000e+00" cType="1" res="-3.0042843893170357e-02" rms="3.7633657455444336e-01" purity="1.8158750236034393e-01" nType="-99"/>
          </Node>
          <Node pos="r" depth="2" NCoef="0" IVar="0" Cut="1.2217564508318901e-02" cType="1" res="-7.8098666854202747e-03" rms="4.8288720846176147e-01" purity="4.0822219848632812e-01" nType="0">
            <Node pos="l" depth="3" NCoef="0" IVar="-1" Cut="0.0000000000000000e+00" cType="1" res="1.5057561686262488e-03" rms="4.9161547422409058e-01" purity="4.6218585968017578e-01" nType="-99"/>
            <Node pos="r" depth="3" NCoef="0" IVar="-1" Cut="0.0000000000000000e+00" cType="1" res="-5.8392346836626530e-03" rms="4.7087642550468445e-01" purity="3.3973759412765503e-01" nType="-99"/>
          </Node>
        </Node>
        <Node pos="r" depth="1" NCoef="0" IVar="3" Cut="1.1310721747577190e-02" cType="1" res="1.1855254881083965e-02" rms="4.7703173756599426e-01" purity="5.8310449123382568e-01" nType="0">
          <Node pos="l" depth="2" NCoef="0" IVar="3" Cut="8.6176441982388496e-03" cType="1" res="2.5517132133245468e-02" rms="4.7252747416496277e-01" purity="6.3364344835281372e-01" nType="0">
            <Node pos="l" depth="3" NCoef="0" IVar="-1" Cut="0.0000000000000000e+00" cType="1" res="-3.9082984440028667e-03" rms="4.9160620570182800e-01" purity="5.8730810880661011e-01" nType="-99"/>
            <Node pos="r" depth="3" NCoef="0" IVar="-1" Cut="0.0000000000000000e+00" cType="1" res="8.7140491232275963e-03" rms="4.6513310074806213e-01" purity="6.4896017313003540e-01" nType="-99"/>
          </Node>
          <Node pos="r" depth="2" NCoef="0" IVar="3" Cut="1.5888955444097519e-02" cType="1" res="-4.6593719162046909e-03" rms="4.8190358281135559e-01" purity="5.2201241254806519e-01" nType="0">
            <Node pos="l" depth="3" NCoef="0" IVar="-1" Cut="0.0000000000000000e+00" cType="1" res="-1.8000708892941475e-02" rms="4.5887154340744019e-01" purity="3.9635354280471802e-01" nType="-99"/>
            <Node pos="r" depth="3" NCoef="0" IVar="-1" Cut="0.0000000000000000e+00" cType="1" res="4.1101709939539433e-03" rms="4.8612928390502930e-01" purity="5.6054943799972534e-01" nType="-99"/>
          </Node>
        </Node>
      </Node>
    </BinaryTree>
    <BinaryTree type="DecisionTree" boostWeight="1.0000000000000000e+00" itree="23">
      <Node pos="s" depth="0" NCoef="0" IVar="3" Cut="2.8276804834604263e-02" cType="1" res="-3.3102478482760489e-04" rms="4.7735041379928589e-01" purity="4.9999174475669861e-01" nType="0">
        <Node pos="l" depth="1" NCoef="0" IVar="3" Cut="1.6158064827322960e-02" cType="1" res="4.3047349900007248e-03" rms="4.7733223438262939e-01" purity="5.1289927959442139e-01" nType="0">
          <Node pos="l" depth="2" NCoef="0" IVar="3" Cut="1.0771478526294231e-02" cType="1" res="-5.7475855574011803e-03" rms="4.7467595338821411e-01" purity="5.1211398839950562e-01" nType="0">
            <Node pos="l" depth="3" NCoef="0" IVar="-1" Cut="0.0000000000000000e+00" cType="1" res="2.8665631543844938e-03" rms="4.7995951771736145e-01" purity="5.5853986740112305e-01" nType="-99"/>
            <Node pos="r" depth="3" NCoef="0" IVar="-1" Cut="0.0000000000000000e+00" cType="1" res="-1.4389238320291042e-02" rms="4.5246070623397827e-01" purity="3.6680376529693604e-01" nType="-99"/>
          </Node>
          <Node pos="r" depth="2" NCoef="0" IVar="0" Cut="1.4646773226559162e-02" cType="1" res="2.9975421726703644e-02" rms="4.8310121893882751e-01" purity="5.1490461826324463e-01" nType="0">
            <Node pos="l" depth="3" NCoef="0" IVar="-1" Cut="0.0000000000000000e+00" cType="1" res="1.2490564957261086e-02" rms="4.8043981194496155e-01" purity="5.8627241849899292e-01" nType="-99"/>
            <Node pos="r" depth="3" NCoef="0" IVar="-1" Cut="0.0000000000000000e+00" cType="1" res="-1.3194482307881117e-03" rms="4.8388984799385071e-01" purity="4.2731386423110962e-01" nType="-99"/>
          </Node>
        </Node>
        <Node pos="r" depth="1" NCoef="0" IVar="0" Cut="1.8248522654175758e-02" cType="1" res="-4.4036172330379486e-02" rms="4.7530445456504822e-01" purity="3.7830173969268799e-01" nType="0">
          <Node pos="l" depth="2" NCoef="0" IVar="0" Cut="1.4556140638887882e-02" cType="1" res="-2.3912506178021431e-02" rms="4.8677870631217957e-01" purity="4.3085908889770508e-01" nType="0">
            <Node pos="l" depth="3" NCoef="0" IVar="-1" Cut="0.0000000000000000e+00" cType="1" res="-2.7870771009474993e-03" rms="4.9165078997612000e-01" purity="4.7008639574050903e-01" nType="-99"/>
            <Node pos="r" depth="3" NCoef="0" IVar="-1" Cut="0.0000000000000000e+00" cType="1" res="-6.9640749134123325e-03" rms="4.8228797316551208e-01" purity="3.9655256271362305e-01" nType="-99"/>
          </Node>
          <Node pos="r" depth="2" NCoef="0" IVar="-1" Cut="0.0000000000000000e+00" cType="1" res="-1.5792936086654663e-02" rms="4.5695471763610840e-01" purity="3.0350580811500549e-01" nType="-99"/>
        </Node>
      </Node>
    </BinaryTree>
    <BinaryTree type="DecisionTree" boostWeight="1.0000000000000000e+00" itree="24">
      <Node pos="s" depth="0" NCoef="0" IVar="0" Cut="1.8317701295018196e-02" cType="1" res="-7.9792784526944160e-04" rms="4.7705769538879395e-01" purity="4.9898710846900940e-01" nType="0">
        <Node pos="l" depth="1" NCoef="0" IVar="0" Cut="9.5949200913310051e-03" cType="1" res="3.6773812025785446e-03" rms="4.7783079743385315e-01" purity="5.1740396022796631e-01" nType="0">
          <Node pos="l" depth="2" NCoef="0" IVar="3" Cut="1.2915574945509434e-02" cType="1" res="1.6228128224611282e-02" rms="4.7952732443809509e-01" purity="5.8390164375305176e-01" nType="0">
            <Node pos="l" depth="3" NCoef="0" IVar="-1" Cut="0.0000000000000000e+00" cType="1" res="2.2739665582776070e-03" rms="4.7946688532829285e-01" purity="5.7917112112045288e-01" nType="-99"/>
            <Node pos="r" depth="3" NCoef="0" IVar="-1" Cut="0.0000000000000000e+00" cType="1" res="1.2680595740675926e-02" rms="4.7780922055244446e-01" purity="6.2091982364654541e-01" nType="-99"/>
          </Node>
          <Node pos="r" depth="2" NCoef="0" IVar="3" Cut="1.6602613031864166e-02" cType="1" res="-1.4785571955144405e-02" rms="4.7472140192985535e-01" purity="4.1958159208297729e-01" nType="0">
            <Node pos="l" depth="3" NCoef="0" IVar="-1" Cut="0.0000000000000000e+00" cType="1" res="-1.3950502499938011e-02" rms="4.5111867785453796e-01" purity="3.0733722448348999e-01" nType="-99"/>
            <Node pos="r" depth="3" NCoef="0" IVar="-1" Cut="0.0000000000000000e+00" cType="1" res="4.0076579898595810e-03" rms="4.8736470937728882e-01" purity="4.9665209650993347e-01" nType="-99"/>
          </Node>
        </Node>
        <Node pos="r" depth="1" NCoef="0" IVar="3" Cut="2.5458997115492821e-02" cType="1" res="-3.8464356213808060e-02" rms="4.6881061792373657e-01" purity="3.4398147463798523e-01" nType="0">
          <Node pos="l" depth="2" NCoef="0" IVar="-1" Cut="0.0000000000000000e+00" cType="1" res="-1.9883038476109505e-03" rms="4.7842261195182800e-01" purity="3.7828347086906433e-01" nType="-99"/>
          <Node pos="r" depth="2" NCoef="0" IVar="4" Cut="8.8905906677246094e-01" cType="1" res="-6.1657141894102097e-02" rms="4.5971474051475525e-01" purity="3.1674075126647949e-01" nType="0">
            <Node pos="l" depth="3" NCoef="0" IVar="-1" Cut="0.0000000000000000e+00" cType="1" res="-1.8264269456267357e-02" rms="4.2846235632896423e-01" purity="2.4339309334754944e-01" nType="-99"/>
            <Node pos="r" depth="3" NCoef="0" IVar="-1" Cut="0.0000000000000000e+00" cType="1" res="-9.6991742029786110e-03" rms="4.8362076282501221e-01" purity="3.7766250967979431e-01" nType="-99"/>
          </Node>
        </Node>
      </Node>
    </BinaryTree>
    <BinaryTree type="DecisionTree" boostWeight="1.0000000000000000e+00" itree="25">
      <Node pos="s" depth="0" NCoef="0" IVar="3" Cut="2.7389172464609146e-02" cType="1" res="-6.3933708588592708e-05" rms="4.7712755203247070e-01" purity="4.9942985177040100e-01" nType="0">
        <Node pos="l" depth="1" NCoef="0" IVar="3" Cut="1.8259348347783089e-02" cType="1" res="4.3710400350391865e-03" rms="4.7694385051727295e-01" purity="5.1383703947067261e-01" nType="0">
          <Node pos="l" depth="2" NCoef="0" IVar="3" Cut="1.0433790273964405e-02" cType="1" res="-3.8914028555154800e-03" rms="4.7458446025848389e-01" purity="5.1105040311813354e-01" nType="0">
            <Node pos="l" depth="3" NCoef="0" IVar="-1" Cut="0.0000000000000000e+00" cType="1" res="3.2682528253644705e-03" rms="4.8066911101341248e-01" purity="5.6306296586990356e-01" nType="-99"/>
            <Node pos="r" depth="3" NCoef="0" IVar="-1" Cut="0.0000000000000000e+00" cType="1" res="-1.0275132954120636e-02" rms="4.5776927471160889e-01" purity="3.9487031102180481e-01" nType="-99"/>
          </Node>
          <Node pos="r" depth="2" NCoef="0" IVar="1" Cut="1.8349463120102882e-02" cType="1" res="2.9229655861854553e-02" rms="4.8312160372734070e-01" purity="5.2222108840942383e-01" nType="0">
            <Node pos="l" depth="3" NCoef="0" IVar="-1" Cut="0.0000000000000000e+00" cType="1" res="1.5431760810315609e-02" rms="4.6569424867630005e-01" purity="6.7142111063003540e-01" nType="-99"/>
            <Node pos="r" depth="3" NCoef="0" IVar="-1" Cut="0.0000000000000000e+00" cType="1" res="7.7934103319421411e-04" rms="4.9124330282211304e-01" purity="4.3491682410240173e-01" nType="-99"/>
          </Node>
        </Node>
        <Node pos="r" depth="1" NCoef="0" IVar="0" Cut="2.0012855529785156e-02" cType="1" res="-3.3356335014104843e-02" rms="4.7719007730484009e-01" purity="3.9127790927886963e-01" nType="0">
          <Node pos="l" depth="2" NCoef="0" IVar="0" Cut="1.6515981405973434e-02" cType="1" res="-2.1221613511443138e-02" rms="4.8482701182365417e-01" purity="4.2562761902809143e-01" nType="0">
            <Node pos="l" depth="3" NCoef="0" IVar="-1" Cut="0.0000000000000000e+00" cType="1" res="-2.5979757774621248e-03" rms="4.9002367258071899e-01" purity="4.5916590094566345e-01" nType="-99"/>
            <Node pos="r" depth="3" NCoef="0" IVar="-1" Cut="0.0000000000000000e+00" cType="1" res="-7.7556665055453777e-03" rms="4.7534722089767456e-01" purity="3.6778342723846436e-01" nType="-99"/>
          </Node>
          <Node pos="r" depth="2" NCoef="0" IVar="-1" Cut="0.0000000000000000e+00" cType="1" res="-1.4994991011917591e-02" rms="4.5303574204444885e-01" purity="2.9373249411582947e-01" nType="-99"/>
        </Node>
      </Node>
    </BinaryTree>
    <BinaryTree type="DecisionTree" boostWeight="1.0000000000000000e+00" itree="26">
      <Node pos="s" depth="0" NCoef="0" IVar="0" Cut="1.8317701295018196e-02" cType="1" res="-9.1559762950055301e-05" rms="4.7645661234855652e-01" purity="4.9954181909561157e-01" nType="0">
        <Node pos="l" depth="1" NCoef="0" IVar="0" Cut="9.5949005335569382e-03" cType="1" res="3.8399889599531889e-03" rms="4.7718876600265503e-01" purity="5.1797699928283691e-01" nType="0">
          <Node pos="l" depth="2" NCoef="0" IVar="3" Cut="1.2971729971468449e-02" cType="1" res="1.5582575462758541e-02" rms="4.7908341884613037e-01" purity="5.8552837371826172e-01" nType="0">
            <Node pos="l" depth="3" NCoef="0" IVar="-1" Cut="0.0000000000000000e+00" cType="1" res="2.4101724848151207e-03" rms="4.7895184159278870e-01" purity="5.8128678798675537e-01" nType="-99"/>
            <Node pos="r" depth="3" NCoef="0" IVar="-1" Cut="0.0000000000000000e+00" cType="1" res="1.0529800318181515e-02" rms="4.7880765795707703e-01" purity="6.1892563104629517e-01" nType="-99"/>
          </Node>
          <Node pos="r" depth="2" NCoef="0" IVar="3" Cut="1.7033917829394341e-02" cType="1" res="-1.3201339170336723e-02" rms="4.7390848398208618e-01" purity="4.1994360089302063e-01" nType="0">
            <Node pos="l" depth="3" NCoef="0" IVar="-1" Cut="0.0000000000000000e+00" cType="1" res="-1.2052036821842194e-02" rms="4.5102557539939880e-01" purity="3.0846124887466431e-01" nType="-99"/>
            <Node pos="r" depth="3" NCoef="0" IVar="-1" Cut="0.0000000000000000e+00" cType="1" res="3.3142613247036934e-03" rms="4.8708817362785339e-01" purity="4.9751144647598267e-01" nType="-99"/>
          </Node>
        </Node>
        <Node pos="r" depth="1" NCoef="0" IVar="3" Cut="2.2631088271737099e-02" cType="1" res="-3.3425405621528625e-02" rms="4.6888023614883423e-01" purity="3.4323805570602417e-01" nType="0">
          <Node pos="l" depth="2" NCoef="0" IVar="-1" Cut="0.0000000000000000e+00" cType="1" res="2.0138197578489780e-03" rms="4.8021715879440308e-01" purity="3.7973883748054504e-01" nType="-99"/>
          <Node pos="r" depth="2" NCoef="0" IVar="4" Cut="8.5207867622375488e-01" cType="1" res="-4.9314305186271667e-02" rms="4.6358722448348999e-01" purity="3.2965233922004700e-01" nType="0">
            <Node pos="l" depth="3" NCoef="0" IVar="-1" Cut="0.0000000000000000e+00" cType="1" res="-1.6614209860563278e-02" rms="4.2906916141510010e-01" purity="2.4473936855792999e-01" nType="-99"/>
            <Node pos="r" depth="3" NCoef="0" IVar="-1" Cut="0.0000000000000000e+00" cType="1" res="-7.7189565636217594e-03" rms="4.8152881860733032e-01" purity="3.7761542201042175e-01" nType="-99"/>
          </Node>
        </Node>
      </Node>
    </BinaryTree>
    <BinaryTree type="DecisionTree" boostWeight="1.0000000000000000e+00" itree="27">
      <Node pos="s" depth="0" NCoef="0" IVar="4" Cut="9.1929942369461060e-01" cType="1" res="-1.3015735894441605e-03" rms="4.7583159804344177e-01" purity="4.9845913052558899e-01" nType="0">
        <Node pos="l" depth="1" NCoef="0" IVar="3" Cut="9.1297244653105736e-03" cType="1" res="-1.4499978162348270e-02" rms="4.7577017545700073e-01" purity="3.9175459742546082e-01" nType="0">
          <Node pos="l" depth="2" NCoef="0" IVar="4" Cut="6.2722587585449219e-01" cType="1" res="1.1062132194638252e-02" rms="4.9487942457199097e-01" purity="4.7967112064361572e-01" nType="0">
            <Node pos="l" depth="3" NCoef="0" IVar="-1" Cut="0.0000000000000000e+00" cType="1" res="1.8441324937157333e-04" rms="4.9250653386116028e-01" purity="4.6632981300354004e-01" nType="-99"/>
            <Node pos="r" depth="3" NCoef="0" IVar="-1" Cut="0.0000000000000000e+00" cType="1" res="4.2892498895525932e-03" rms="4.9699458479881287e-01" purity="4.9276041984558105e-01" nType="-99"/>
          </Node>
          <Node pos="r" depth="2" NCoef="0" IVar="1" Cut="1.8343249335885048e-02" cType="1" res="-2.3943584412336349e-02" rms="4.6816042065620422e-01" purity="3.5927492380142212e-01" nType="0">
            <Node pos="l" depth="3" NCoef="0" IVar="-1" Cut="0.0000000000000000e+00" cType="1" res="-2.8286043554544449e-02" rms="3.8268730044364929e-01" purity="1.9914516806602478e-01" nType="-99"/>
            <Node pos="r" depth="3" NCoef="0" IVar="-1" Cut="0.0000000000000000e+00" cType="1" res="-2.9672351665794849e-03" rms="4.7524952888488770e-01" purity="3.7633082270622253e-01" nType="-99"/>
          </Node>
        </Node>
        <Node pos="r" depth="1" NCoef="0" IVar="1" Cut="1.0438243858516216e-02" cType="1" res="9.2195291072130203e-03" rms="4.7561827301979065e-01" purity="5.8351862430572510e-01" nType="0">
          <Node pos="l" depth="2" NCoef="0" IVar="4" Cut="9.9231469631195068e-01" cType="1" res="2.3033156991004944e-02" rms="4.6381759643554688e-01" purity="6.4081835746765137e-01" nType="0">
            <Node pos="l" depth="3" NCoef="0" IVar="-1" Cut="0.0000000000000000e+00" cType="1" res="1.1425881646573544e-02" rms="4.4860208034515381e-01" purity="6.4519613981246948e-01" nType="-99"/>
            <Node pos="r" depth="3" NCoef="0" IVar="-1" Cut="0.0000000000000000e+00" cType="1" res="-9.7582535818219185e-04" rms="4.7621515393257141e-01" purity="6.3665473461151123e-01" nType="-99"/>
          </Node>
          <Node pos="r" depth="2" NCoef="0" IVar="3" Cut="1.3055780902504921e-02" cType="1" res="-9.0764174237847328e-03" rms="4.9021270871162415e-01" purity="5.0762605667114258e-01" nType="0">
            <Node pos="l" depth="3" NCoef="0" IVar="-1" Cut="0.0000000000000000e+00" cType="1" res="-8.4919668734073639e-03" rms="4.9300920963287354e-01" purity="4.5652601122856140e-01" nType="-99"/>
            <Node pos="r" depth="3" NCoef="0" IVar="-1" Cut="0.0000000000000000e+00" cType="1" res="1.0474701412022114e-03" rms="4.8829886317253113e-01" purity="5.3039956092834473e-01" nType="-99"/>
          </Node>
        </Node>
      </Node>
    </BinaryTree>
    <BinaryTree type="DecisionTree" boostWeight="1.0000000000000000e+00" itree="28">
      <Node pos="s" depth="0" NCoef="0" IVar="4" Cut="9.1940867900848389e-01" cType="1" res="-1.7842275556176901e-03" rms="4.7600620985031128e-01" purity="4.9773582816123962e-01" nType="0">
        <Node pos="l" depth="1" NCoef="0" IVar="1" Cut="2.3941647261381149e-02" cType="1" res="-1.3009780086576939e-02" rms="4.7584873437881470e-01" purity="3.9129668474197388e-01" nType="0">
          <Node pos="l" depth="2" NCoef="0" IVar="1" Cut="1.5960650518536568e-02" cType="1" res="-4.7784559428691864e-02" rms="4.4219166040420532e-01" purity="3.1574624776840210e-01" nType="0">
            <Node pos="l" depth="3" NCoef="0" IVar="-1" Cut="0.0000000000000000e+00" cType="1" res="-2.3969236761331558e-02" rms="3.9184096455574036e-01" purity="2.1620115637779236e-01" nType="-99"/>
            <Node pos="r" depth="3" NCoef="0" IVar="-1" Cut="0.0000000000000000e+00" cType="1" res="-1.0595428757369518e-03" rms="4.7536784410476685e-01" purity="3.9755257964134216e-01" nType="-99"/>
          </Node>
          <Node pos="r" depth="2" NCoef="0" IVar="0" Cut="8.0077033489942551e-03" cType="1" res="-6.8256398662924767e-03" rms="4.8132479190826416e-01" purity="4.0473213791847229e-01" nType="0">
            <Node pos="l" depth="3" NCoef="0" IVar="-1" Cut="0.0000000000000000e+00" cType="1" res="2.7295378968119621e-03" rms="4.9731883406639099e-01" purity="5.4354095458984375e-01" nType="-99"/>
            <Node pos="r" depth="3" NCoef="0" IVar="-1" Cut="0.0000000000000000e+00" cType="1" res="-2.7193867135792971e-03" rms="4.7647264599800110e-01" purity="3.6487811803817749e-01" nType="-99"/>
          </Node>
        </Node>
        <Node pos="r" depth="1" NCoef="0" IVar="1" Cut="8.7296320125460625e-03" cType="1" res="7.1603502146899700e-03" rms="4.7594213485717773e-01" purity="5.8254706859588623e-01" nType="0">
          <Node pos="l" depth="2" NCoef="0" IVar="4" Cut="9.9232518672943115e-01" cType="1" res="2.9454536736011505e-02" rms="4.6212804317474365e-01" purity="6.6262203454971313e-01" nType="0">
            <Node pos="l" depth="3" NCoef="0" IVar="-1" Cut="0.0000000000000000e+00" cType="1" res="1.7828255891799927e-02" rms="4.3372130393981934e-01" purity="6.9885182380676270e-01" nType="-99"/>
            <Node pos="r" depth="3" NCoef="0" IVar="-1" Cut="0.0000000000000000e+00" cType="1" res="-3.6556506529450417e-04" rms="4.7618246078491211e-01" purity="6.4023685455322266e-01" nType="-99"/>
          </Node>
          <Node pos="r" depth="2" NCoef="0" IVar="3" Cut="1.4144430868327618e-02" cType="1" res="-9.1720167547464371e-03" rms="4.8516318202018738e-01" purity="5.2388536930084229e-01" nType="0">
            <Node pos="l" depth="3" NCoef="0" IVar="-1" Cut="0.0000000000000000e+00" cType="1" res="-6.8355109542608261e-03" rms="4.8279544711112976e-01" purity="4.9770852923393250e-01" nType="-99"/>
            <Node pos="r" depth="3" NCoef="0" IVar="-1" Cut="0.0000000000000000e+00" cType="1" res="1.9499058835208416e-03" rms="4.8627823591232300e-01" purity="5.4504024982452393e-01" nType="-99"/>
          </Node>
        </Node>
      </Node>
    </BinaryTree>
    <BinaryTree type="DecisionTree" boostWeight="1.0000000000000000e+00" itree="29">
      <Node pos="s" depth="0" NCoef="0" IVar="0" Cut="1.8719535320997238e-02" cType="1" res="-1.0333186946809292e-03" rms="4.7606924176216125e-01" purity="4.9861180782318115e-01" nType="0">
        <Node pos="l" depth="1" NCoef="0" IVar="3" Cut="1.7079459503293037e-02" cType="1" res="2.6184362359344959e-03" rms="4.7689786553382874e-01" purity="5.1588106155395508e-01" nType="0">
          <Node pos="l" depth="2" NCoef="0" IVar="3" Cut="1.0572965256869793e-02" cType="1" res="-5.2985544316470623e-03" rms="4.7339549660682678e-01" purity="5.1384472846984863e-01" nType="0">
            <Node pos="l" depth="3" NCoef="0" IVar="-1" Cut="0.0000000000000000e+00" cType="1" res="2.2802383173257113e-03" rms="4.7960934042930603e-01" purity="5.6389623880386353e-01" nType="-99"/>
            <Node pos="r" depth="3" NCoef="0" IVar="-1" Cut="0.0000000000000000e+00" cType="1" res="-1.0306782089173794e-02" rms="4.5437622070312500e-01" purity="3.8470384478569031e-01" nType="-99"/>
          </Node>
          <Node pos="r" depth="2" NCoef="0" IVar="3" Cut="2.6839176192879677e-02" cType="1" res="2.1974373608827591e-02" rms="4.8481014370918274e-01" purity="5.2085965871810913e-01" nType="0">
            <Node pos="l" depth="3" NCoef="0" IVar="-1" Cut="0.0000000000000000e+00" cType="1" res="7.9797785729169846e-03" rms="4.8265460133552551e-01" purity="5.5544942617416382e-01" nType="-99"/>
            <Node pos="r" depth="3" NCoef="0" IVar="-1" Cut="0.0000000000000000e+00" cType="1" res="-2.0640362054109573e-03" rms="4.8754760622978210e-01" purity="4.5158722996711731e-01" nType="-99"/>
          </Node>
        </Node>
        <Node pos="r" depth="1" NCoef="0" IVar="3" Cut="2.5458997115492821e-02" cType="1" res="-3.5314079374074936e-02" rms="4.6682840585708618e-01" purity="3.3649694919586182e-01" nType="0">
          <Node pos="l" depth="2" NCoef="0" IVar="-1" Cut="0.0000000000000000e+00" cType="1" res="-2.9278330039232969e-03" rms="4.7677776217460632e-01" purity="3.7070995569229126e-01" nType="-99"/>
          <Node pos="r" depth="2" NCoef="0" IVar="-1" Cut="0.0000000000000000e+00" cType="1" res="-1.1727855540812016e-02" rms="4.5790156722068787e-01" purity="3.0892145633697510e-01" nType="-99"/>
        </Node>
      </Node>
    </BinaryTree>
    <BinaryTree type="DecisionTree" boostWeight="1.0000000000000000e+00" itree="30">
      <Node pos="s" depth="0" NCoef="0" IVar="4" Cut="9.2102068662643433e-01" cType="1" res="7.4844149639829993e-04" rms="4.7566708922386169e-01" purity="4.9997243285179138e-01" nType="0">
        <Node pos="l" depth="1" NCoef="0" IVar="1" Cut="2.3941647261381149e-02" cType="1" res="-9.9900085479021072e-03" rms="4.7584187984466553e-01" purity="3.9315104484558105e-01" nType="0">
          <Node pos="l" depth="2" NCoef="0" IVar="1" Cut="1.7100831493735313e-02" cType="1" res="-4.6312391757965088e-02" rms="4.4081574678421021e-01" purity="3.1272709369659424e-01" nType="0">
            <Node pos="l" depth="3" NCoef="0" IVar="-1" Cut="0.0000000000000000e+00" cType="1" res="-1.9499002024531364e-02" rms="4.0612864494323730e-01" purity="2.3940932750701904e-01" nType="-99"/>
            <Node pos="r" depth="3" NCoef="0" IVar="-1" Cut="0.0000000000000000e+00" cType="1" res="-8.8134047109633684e-04" rms="4.7561562061309814e-01" purity="4.0047731995582581e-01" nType="-99"/>
          </Node>
          <Node pos="r" depth="2" NCoef="0" IVar="0" Cut="1.8323162570595741e-02" cType="1" res="-3.4686361905187368e-03" rms="4.8157098889350891e-01" purity="4.0759047865867615e-01" nType="0">
            <Node pos="l" depth="3" NCoef="0" IVar="-1" Cut="0.0000000000000000e+00" cType="1" res="3.4094211878255010e-04" rms="4.8682731389999390e-01" purity="4.2963168025016785e-01" nType="-99"/>
            <Node pos="r" depth="3" NCoef="0" IVar="-1" Cut="0.0000000000000000e+00" cType="1" res="-6.9173453375697136e-03" rms="4.5219725370407104e-01" purity="2.9248490929603577e-01" nType="-99"/>
          </Node>
        </Node>
        <Node pos="r" depth="1" NCoef="0" IVar="3" Cut="1.1315544135868549e-02" cType="1" res="9.4415415078401566e-03" rms="4.7534790635108948e-01" purity="5.8644759654998779e-01" nType="0">
          <Node pos="l" depth="2" NCoef="0" IVar="1" Cut="1.0438243858516216e-02" cType="1" res="2.0792070776224136e-02" rms="4.7132742404937744e-01" purity="6.3620233535766602e-01" nType="0">
            <Node pos="l" depth="3" NCoef="0" IVar="-1" Cut="0.0000000000000000e+00" cType="1" res="7.1786725893616676e-03" rms="4.6275025606155396e-01" purity="6.7584729194641113e-01" nType="-99"/>
            <Node pos="r" depth="3" NCoef="0" IVar="-1" Cut="0.0000000000000000e+00" cType="1" res="-4.8843873664736748e-03" rms="5.0030010938644409e-01" purity="4.8458522558212280e-01" nType="-99"/>
          </Node>
          <Node pos="r" depth="2" NCoef="0" IVar="3" Cut="1.5895757824182510e-02" cType="1" res="-4.3216082267463207e-03" rms="4.7981777787208557e-01" purity="5.2611720561981201e-01" nType="0">
            <Node pos="l" depth="3" NCoef="0" IVar="-1" Cut="0.0000000000000000e+00" cType="1" res="-1.2436834163963795e-02" rms="4.5949995517730713e-01" purity="4.0168389678001404e-01" nType="-99"/>
            <Node pos="r" depth="3" NCoef="0" IVar="-1" Cut="0.0000000000000000e+00" cType="1" res="2.4598119780421257e-03" rms="4.8462998867034912e-01" purity="5.6362575292587280e-01" nType="-99"/>
          </Node>
        </Node>
      </Node>
    </BinaryTree>
    <BinaryTree type="DecisionTree" boostWeight="1.0000000000000000e+00" itree="31">
      <Node pos="s" depth="0" NCoef="0" IVar="0" Cut="8.0010844394564629e-03" cType="1" res="3.2107331207953393e-04" rms="4.7510400414466858e-01" purity="4.9988618493080139e-01" nType="0">
        <Node pos="l" depth="1" NCoef="0" IVar="3" Cut="9.2655215412378311e-03" cType="1" res="1.4096509665250778e-02" rms="4.7587180137634277e-01" purity="6.2099176645278931e-01" nType="0">
          <Node pos="l" depth="2" NCoef="0" IVar="3" Cut="8.3830263465642929e-03" cType="1" res="1.9833770056720823e-04" rms="4.8599246144294739e-01" purity="5.9564584493637085e-01" nType="0">
            <Node pos="l" depth="3" NCoef="0" IVar="-1" Cut="0.0000000000000000e+00" cType="1" res="-1.8830272601917386e-03" rms="4.9289584159851074e-01" purity="5.7507777214050293e-01" nType="-99"/>
            <Node pos="r" depth="3" NCoef="0" IVar="-1" Cut="0.0000000000000000e+00" cType="1" res="2.6210837531834841e-03" rms="4.7668460011482239e-01" purity="6.2215191125869751e-01" nType="-99"/>
          </Node>
          <Node pos="r" depth="2" NCoef="0" IVar="0" Cut="7.0925210602581501e-03" cType="1" res="2.7684856206178665e-02" rms="4.6536305546760559e-01" purity="6.4577257633209229e-01" nType="0">
            <Node pos="l" depth="3" NCoef="0" IVar="-1" Cut="0.0000000000000000e+00" cType="1" res="8.2728918641805649e-03" rms="4.6007260680198669e-01" purity="6.7087024450302124e-01" nType="-99"/>
            <Node pos="r" depth="3" NCoef="0" IVar="-1" Cut="0.0000000000000000e+00" cType="1" res="1.9044743385165930e-03" rms="4.7499758005142212e-01" purity="5.9657037258148193e-01" nType="-99"/>
          </Node>
        </Node>
        <Node pos="r" depth="1" NCoef="0" IVar="3" Cut="1.6966084018349648e-02" cType="1" res="-7.5333965942263603e-03" rms="4.7448667883872986e-01" purity="4.3083426356315613e-01" nType="0">
          <Node pos="l" depth="2" NCoef="0" IVar="3" Cut="1.1310373432934284e-02" cType="1" res="-1.9807163625955582e-02" rms="4.6736505627632141e-01" purity="3.9526221156120300e-01" nType="0">
            <Node pos="l" depth="3" NCoef="0" IVar="-1" Cut="0.0000000000000000e+00" cType="1" res="1.0394526179879904e-03" rms="4.8130312561988831e-01" purity="4.5226785540580750e-01" nType="-99"/>
            <Node pos="r" depth="3" NCoef="0" IVar="-1" Cut="0.0000000000000000e+00" cType="1" res="-1.6996785998344421e-02" rms="4.3017444014549255e-01" purity="2.6988574862480164e-01" nType="-99"/>
          </Node>
